{"learner":{"attributes":{},"feature_names":["open","high","low","close","volume","sentiment_mean_BTC","sentiment_mean_MACRO","sentiment_mean_TECH","sentiment_count_BTC","sentiment_count_MACRO","sentiment_count_TECH","sentiment_std_BTC","sentiment_std_MACRO","sentiment_std_TECH","sentiment_total","total_count","sentiment_mean_BTC_roll_mean","sentiment_mean_BTC_roll_std","sentiment_mean_MACRO_roll_mean","sentiment_mean_MACRO_roll_std","sentiment_mean_TECH_roll_mean","sentiment_mean_TECH_roll_std","sentiment_total_roll_mean","sentiment_total_roll_std","sentiment_mean_BTC_lag1","sentiment_mean_MACRO_lag1","sentiment_mean_TECH_lag1","sentiment_total_lag1","sentiment_mean_BTC_shock","sentiment_mean_MACRO_shock","sentiment_mean_TECH_shock","sentiment_total_shock","div_btc_macro","fear_greed_index","return_lag_1","volume_lag_1","return_lag_2","volume_lag_2","return_lag_3","volume_lag_3","return_lag_6","volume_lag_6","return_lag_12","volume_lag_12","volatility_6","volatility_12","momentum_6","momentum_12"],"feature_types":["float","float","float","float","float","float","float","float","float","float","float","float","float","float","float","float","float","float","float","float","float","float","float","float","float","float","float","float","float","float","float","float","float","float","float","float","float","float","float","float","float","float","float","float","float","float","float","float"],"gradient_booster":{"model":{"cats":{"enc":[],"feature_segments":[],"sorted_idx":[]},"gbtree_model_param":{"num_parallel_tree":"1","num_trees":"400"},"iteration_indptr":[0,1,2,3,4,5,6,7,8,9,10,11,12,13,14,15,16,17,18,19,20,21,22,23,24,25,26,27,28,29,30,31,32,33,34,35,36,37,38,39,40,41,42,43,44,45,46,47,48,49,50,51,52,53,54,55,56,57,58,59,60,61,62,63,64,65,66,67,68,69,70,71,72,73,74,75,76,77,78,79,80,81,82,83,84,85,86,87,88,89,90,91,92,93,94,95,96,97,98,99,100,101,102,103,104,105,106,107,108,109,110,111,112,113,114,115,116,117,118,119,120,121,122,123,124,125,126,127,128,129,130,131,132,133,134,135,136,137,138,139,140,141,142,143,144,145,146,147,148,149,150,151,152,153,154,155,156,157,158,159,160,161,162,163,164,165,166,167,168,169,170,171,172,173,174,175,176,177,178,179,180,181,182,183,184,185,186,187,188,189,190,191,192,193,194,195,196,197,198,199,200,201,202,203,204,205,206,207,208,209,210,211,212,213,214,215,216,217,218,219,220,221,222,223,224,225,226,227,228,229,230,231,232,233,234,235,236,237,238,239,240,241,242,243,244,245,246,247,248,249,250,251,252,253,254,255,256,257,258,259,260,261,262,263,264,265,266,267,268,269,270,271,272,273,274,275,276,277,278,279,280,281,282,283,284,285,286,287,288,289,290,291,292,293,294,295,296,297,298,299,300,301,302,303,304,305,306,307,308,309,310,311,312,313,314,315,316,317,318,319,320,321,322,323,324,325,326,327,328,329,330,331,332,333,334,335,336,337,338,339,340,341,342,343,344,345,346,347,348,349,350,351,352,353,354,355,356,357,358,359,360,361,362,363,364,365,366,367,368,369,370,371,372,373,374,375,376,377,378,379,380,381,382,383,384,385,386,387,388,389,390,391,392,393,394,395,396,397,398,399,400],"tree_info":[0,0,0,0,0,0,0,0,0,0,0,0,0,0,0,0,0,0,0,0,0,0,0,0,0,0,0,0,0,0,0,0,0,0,0,0,0,0,0,0,0,0,0,0,0,0,0,0,0,0,0,0,0,0,0,0,0,0,0,0,0,0,0,0,0,0,0,0,0,0,0,0,0,0,0,0,0,0,0,0,0,0,0,0,0,0,0,0,0,0,0,0,0,0,0,0,0,0,0,0,0,0,0,0,0,0,0,0,0,0,0,0,0,0,0,0,0,0,0,0,0,0,0,0,0,0,0,0,0,0,0,0,0,0,0,0,0,0,0,0,0,0,0,0,0,0,0,0,0,0,0,0,0,0,0,0,0,0,0,0,0,0,0,0,0,0,0,0,0,0,0,0,0,0,0,0,0,0,0,0,0,0,0,0,0,0,0,0,0,0,0,0,0,0,0,0,0,0,0,0,0,0,0,0,0,0,0,0,0,0,0,0,0,0,0,0,0,0,0,0,0,0,0,0,0,0,0,0,0,0,0,0,0,0,0,0,0,0,0,0,0,0,0,0,0,0,0,0,0,0,0,0,0,0,0,0,0,0,0,0,0,0,0,0,0,0,0,0,0,0,0,0,0,0,0,0,0,0,0,0,0,0,0,0,0,0,0,0,0,0,0,0,0,0,0,0,0,0,0,0,0,0,0,0,0,0,0,0,0,0,0,0,0,0,0,0,0,0,0,0,0,0,0,0,0,0,0,0,0,0,0,0,0,0,0,0,0,0,0,0,0,0,0,0,0,0,0,0,0,0,0,0,0,0,0,0,0,0,0,0,0,0,0,0,0,0,0,0,0,0,0,0,0,0,0,0,0,0,0,0,0,0,0,0,0,0,0,0,0,0,0,0,0,0,0,0,0,0,0,0],"trees":[{"base_weights":[2.3678207E-4,2.7611893E-1,-1.5496801E-1,3.669561E-1,1.2409487E-1,1.9007173E-1,-2.0446928E-1,-9.1215685E-2,4.0423188E-1,5.348211E-2,4.128042E-1,-2.005112E-1,2.8611043E-1,-5.8001703E-1,-1.6218108E-1,-2.864506E-1,3.9754957E-1,-2.2094657E-1,4.2923632E-1,3.2144895E-1,-6.792195E-2,-2.3595419E-2,6.687537E-1,-2.5589055E-1,8.863753E-1,3.2252714E-1,-3.5178488E-1,-7.4542636E-1,-8.9590736E-2,-2.515046E-1,-2.355345E-2,6.081279E-1,-4.1075465E-1,-1.893274E-1,8.593265E-1,3.260924E-1,-6.88611E-1,3.777784E-1,6.606708E-1,2.291283E-1,1.1139549E0,-2.923632E-2,-9.397575E-1,6.3743204E-2,-1.21543474E-1,8.720552E-1,-1.1114951E-2,-1.2104567E0,-1.4362305E-1,6.9544956E-2,-6.275482E-3,3.0516073E-1,8.020215E-2,3.5014585E-2,-5.740631E-1,-8.111911E-1,-2.9769215E-1,-6.222019E-1,8.069592E-2,-2.9948348E-1,-8.452619E-2,-1.0932138E-1,1.0244214E-1,6.942036E-2,-3.680696E-2,-5.4307677E-2,-7.7746683E-3,5.127407E-2,-2.5655156E-2,-4.3296376E-3,5.9529353E-2,3.7792928E-3,7.5691395E-2,-5.407375E-2,-1.0296975E-2,1.1708406E-2,2.2611659E-2,4.193403E-3,3.6130827E-2,1.4024372E-2,-4.277899E-2,7.791278E-2,3.1145573E-2,-2.7966357E-3,4.0053654E-2,-5.7042807E-2,-2.4978764E-4,-1.1769445E-2,5.6890994E-2,4.7685694E-2,-1.3078383E-2,-3.5588924E-2,1.7329682E-2,-6.275482E-3,-6.99709E-2,4.3799035E-2,-1.1471582E-2,1.8234858E-2,-2.3223732E-3,-4.5109835E-2,-2.884672E-4,6.8480684E-3,-4.1542884E-2,-9.642445E-4,-5.2765053E-2,-1.0296975E-2,-5.8357604E-2,4.5778334E-2,-2.327478E-3,5.3086425E-3,-1.592632E-2,-1.4108393E-3,-3.0812455E-2,-3.9934013E-3,-3.6961082E-2,9.817818E-3,-5.179444E-3],"categories":[],"categories_nodes":[],"categories_segments":[],"categories_sizes":[],"default_left":[0,0,0,0,0,0,0,0,0,0,0,0,0,0,0,0,0,0,0,0,0,0,0,0,0,0,0,0,0,0,0,0,0,0,0,0,0,0,0,0,0,0,0,0,0,0,0,0,0,0,0,0,0,0,0,0,0,0,0,0,0,0,0,0,0,0,0,0,0,0,0,0,0,0,0,0,0,0,0,0,0,0,0,0,0,0,0,0,0,0,0,0,0,0,0,0,0,0,0,0,0,0,0,0,0,0,0,0,0,0,0,0,0,0,0,0,0],"id":0,"left_children":[1,3,5,7,9,11,13,15,17,19,21,23,25,27,29,31,33,35,37,39,41,43,45,47,49,51,53,55,57,59,61,63,65,67,69,71,73,75,77,79,81,83,85,-1,87,89,91,93,95,-1,-1,97,-1,-1,99,101,103,105,107,109,111,113,115,-1,-1,-1,-1,-1,-1,-1,-1,-1,-1,-1,-1,-1,-1,-1,-1,-1,-1,-1,-1,-1,-1,-1,-1,-1,-1,-1,-1,-1,-1,-1,-1,-1,-1,-1,-1,-1,-1,-1,-1,-1,-1,-1,-1,-1,-1,-1,-1,-1,-1,-1,-1,-1,-1],"loss_changes":[2.0729988E2,2.4025024E1,5.295823E1,1.866272E1,1.3299796E1,1.4658671E1,4.294548E1,8.021481E0,1.5863434E1,1.7140177E1,1.43427925E1,4.886214E0,7.3808136E0,2.2151741E1,3.0173134E1,6.8991055E0,6.68633E0,1.0317881E1,1.1305466E1,1.176132E1,1.2214127E1,6.3085346E0,1.1189255E1,7.80291E0,2.204919E0,6.10853E0,4.464894E0,5.785286E0,6.4185343E0,1.1848175E1,1.0343473E1,9.096831E0,8.985348E0,5.0177865E0,4.3809977E0,5.497725E0,3.8714695E0,8.406509E0,6.1977844E0,8.505203E0,2.7115097E0,7.7712364E0,2.8871021E0,0E0,6.8491244E0,6.014454E0,5.160709E0,1.4026079E0,6.1271505E0,0E0,0E0,6.165945E0,0E0,0E0,2.7719417E0,3.4307938E0,5.841891E0,3.6444292E0,5.7888107E0,8.924187E0,9.928815E0,1.0504161E1,7.523289E0,0E0,0E0,0E0,0E0,0E0,0E0,0E0,0E0,0E0,0E0,0E0,0E0,0E0,0E0,0E0,0E0,0E0,0E0,0E0,0E0,0E0,0E0,0E0,0E0,0E0,0E0,0E0,0E0,0E0,0E0,0E0,0E0,0E0,0E0,0E0,0E0,0E0,0E0,0E0,0E0,0E0,0E0,0E0,0E0,0E0,0E0,0E0,0E0,0E0,0E0,0E0,0E0,0E0,0E0],"parents":[2147483647,0,0,1,1,2,2,3,3,4,4,5,5,6,6,7,7,8,8,9,9,10,10,11,11,12,12,13,13,14,14,15,15,16,16,17,17,18,18,19,19,20,20,21,21,22,22,23,23,24,24,25,25,26,26,27,27,28,28,29,29,30,30,31,31,32,32,33,33,34,34,35,35,36,36,37,37,38,38,39,39,40,40,41,41,42,42,44,44,45,45,46,46,47,47,48,48,51,51,54,54,55,55,56,56,57,57,58,58,59,59,60,60,61,61,62,62],"right_children":[2,4,6,8,10,12,14,16,18,20,22,24,26,28,30,32,34,36,38,40,42,44,46,48,50,52,54,56,58,60,62,64,66,68,70,72,74,76,78,80,82,84,86,-1,88,90,92,94,96,-1,-1,98,-1,-1,100,102,104,106,108,110,112,114,116,-1,-1,-1,-1,-1,-1,-1,-1,-1,-1,-1,-1,-1,-1,-1,-1,-1,-1,-1,-1,-1,-1,-1,-1,-1,-1,-1,-1,-1,-1,-1,-1,-1,-1,-1,-1,-1,-1,-1,-1,-1,-1,-1,-1,-1,-1,-1,-1,-1,-1,-1,-1,-1,-1],"split_conditions":[-2.0408162E-3,-3.6434825E-3,-5.8657066E-3,2.5989554E2,2.8898163E-2,-3.0354852E-2,1.401E1,1.3923638E-2,7.08E0,-3.1339775E-3,1.47161875E-2,1.7083767E-1,4.75347E4,4.6961265E3,1.2604849E3,6.25E3,-4.163524E-2,5.03E0,2.8969895E3,3.99062E4,6.5868266E-2,1.113E1,2.839409E-2,2.8020056E2,3.8099E4,4.1484833E-2,-4.3663207E-2,7.011157E3,5.21E0,9.821626E-3,1.8023089E-2,-5.2870093E-3,9.1651E3,-7.106679E-2,2.9846048E2,-6.0344827E-3,2.324168E3,-1.5756316E-2,1.4804929E3,2.5541344E-1,4.82512E4,5.610814E-2,2.010725E-2,6.3743204E-2,4.51878E4,1.0655041E-1,3.483256E-2,-1.3618112E-1,-9.820213E-2,6.9544956E-2,-6.275482E-3,1.029451E-2,8.020215E-2,3.5014585E-2,5.62312E4,-4.7729276E-3,3.4514885E3,2.8075334E3,6.42E0,2.3367E2,2.8035957E-1,3.701172E-2,3.7242E3,6.942036E-2,-3.680696E-2,-5.4307677E-2,-7.7746683E-3,5.127407E-2,-2.5655156E-2,-4.3296376E-3,5.9529353E-2,3.7792928E-3,7.5691395E-2,-5.407375E-2,-1.0296975E-2,1.1708406E-2,2.2611659E-2,4.193403E-3,3.6130827E-2,1.4024372E-2,-4.277899E-2,7.791278E-2,3.1145573E-2,-2.7966357E-3,4.0053654E-2,-5.7042807E-2,-2.4978764E-4,-1.1769445E-2,5.6890994E-2,4.7685694E-2,-1.3078383E-2,-3.5588924E-2,1.7329682E-2,-6.275482E-3,-6.99709E-2,4.3799035E-2,-1.1471582E-2,1.8234858E-2,-2.3223732E-3,-4.5109835E-2,-2.884672E-4,6.8480684E-3,-4.1542884E-2,-9.642445E-4,-5.2765053E-2,-1.0296975E-2,-5.8357604E-2,4.5778334E-2,-2.327478E-3,5.3086425E-3,-1.592632E-2,-1.4108393E-3,-3.0812455E-2,-3.9934013E-3,-3.6961082E-2,9.817818E-3,-5.179444E-3],"split_indices":[34,36,36,43,46,38,2,45,2,38,38,5,3,35,43,3,46,2,39,3,47,0,45,43,0,34,47,43,2,34,46,46,3,36,41,36,41,34,37,27,3,47,38,0,0,46,45,47,38,0,0,34,0,0,2,36,35,43,3,0,5,36,0,0,0,0,0,0,0,0,0,0,0,0,0,0,0,0,0,0,0,0,0,0,0,0,0,0,0,0,0,0,0,0,0,0,0,0,0,0,0,0,0,0,0,0,0,0,0,0,0,0,0,0,0,0,0],"split_type":[0,0,0,0,0,0,0,0,0,0,0,0,0,0,0,0,0,0,0,0,0,0,0,0,0,0,0,0,0,0,0,0,0,0,0,0,0,0,0,0,0,0,0,0,0,0,0,0,0,0,0,0,0,0,0,0,0,0,0,0,0,0,0,0,0,0,0,0,0,0,0,0,0,0,0,0,0,0,0,0,0,0,0,0,0,0,0,0,0,0,0,0,0,0,0,0,0,0,0,0,0,0,0,0,0,0,0,0,0,0,0,0,0,0,0,0,0],"sum_hessian":[4.8393936E3,1.7420527E3,3.0973408E3,1.0895892E3,6.524635E2,3.88253E2,2.709088E3,8.186804E1,1.0077212E3,5.251959E2,1.2726759E2,7.641017E1,3.118428E2,2.7289346E2,2.4361946E3,5.879614E1,2.3071903E1,3.845317E1,9.69268E2,1.6323991E2,3.61956E2,4.738423E1,7.988336E1,7.343315E1,2.9770198E0,2.954692E2,1.6373608E1,2.0367776E2,6.9215706E1,1.4810673E3,9.5512714E2,6.698294E0,5.2097847E1,1.0419569E1,1.2652334E1,1.7862118E1,2.0591053E1,7.9511237E2,1.7415565E2,1.4736247E2,1.5877439E1,3.4756705E2,1.4388928E1,2.4808497E0,4.490338E1,6.127699E1,1.8606373E1,6.698294E0,6.6734856E1,1.7365948E0,1.2404249E0,2.9274026E2,2.7289348E0,2.4808497E0,1.3892758E1,1.7688458E2,2.6793177E1,1.6125523E1,5.3090183E1,1.1498739E3,3.3119345E2,5.683627E2,3.8676447E2,4.2174444E0,2.4808497E0,1.3396588E1,3.8701256E1,1.7365948E0,8.682974E0,3.4731896E0,9.179144E0,1.5629354E1,2.2327647E0,1.0667654E1,9.923399E0,2.7289346E2,5.222189E2,1.7117863E1,1.570378E2,1.4140843E2,5.9540396E0,7.194464E0,8.682974E0,3.3764365E2,9.923399E0,1.1659994E1,2.7289348E0,4.192636E1,2.9770198E0,5.730763E1,3.9693596E0,5.9540396E0,1.2652334E1,1.2404249E0,5.4578695E0,4.4655294E0,6.226933E1,2.5031775E2,4.242253E1,8.434889E0,5.4578695E0,3.4731896E0,1.7341139E2,2.0342968E1,6.4502096E0,9.923399E0,6.2021246E0,6.2021246E0,4.688806E1,5.1353592E1,1.0985203E3,3.004309E2,3.0762537E1,5.4405035E2,2.4312328E1,2.65699E2,1.2106547E2],"tree_param":{"num_deleted":"0","num_feature":"48","num_nodes":"117","size_leaf_vector":"1"}},{"base_weights":[-1.3356115E-4,2.817766E-1,-1.4322771E-1,8.158024E-1,2.6722375E-1,-3.82239E-1,-9.500794E-2,4.9515033E-1,1.4009069E0,-1.8883958E-2,2.9274282E-1,-4.8680443E-1,-2.315306E-1,-4.4879532E-1,-5.615369E-2,6.348642E-1,-2.3022012E-1,8.232226E-2,2.4116828E-1,6.1188835E-1,-1.2659858E-1,-1.6750133E-1,3.0864027E-1,-5.068962E-1,1.0399983E0,-7.337429E-1,-1.5754996E-1,-6.889163E-1,-2.3493542E-1,-1.2507108E-1,7.8890055E-2,3.5785183E-1,1.3668101E0,2.1955924E-2,-7.385792E-1,3.7584454E-2,-1.575311E-2,-5.552182E-2,1.1884313E0,-1.1532824E0,-5.6512047E-2,-8.735128E-1,9.105699E-2,5.548907E-1,2.849773E-1,-5.85754E-1,-2.826762E-1,6.9992505E-2,1.5000722E-2,2.5498247E-1,-9.158412E-1,-7.0422105E-2,-5.719092E-1,-2.0628273E-1,-8.2965064E-1,1.291603E-1,-4.4029596E-1,7.92563E-2,-1.8733427E-1,2.6274306E-1,3.2042675E-2,2.8188467E-2,-3.7197977E-2,8.565732E-2,1.3559765E-2,-5.112906E-2,-6.237327E-3,4.3148756E-2,-3.7269387E-2,-1.55894905E-2,7.365351E-2,-9.953191E-3,-7.387158E-2,-1.0966264E-2,1.4623257E-2,2.4833372E-2,-5.434311E-2,6.761661E-2,-7.829227E-3,1.8371396E-2,4.2840593E-2,1.3434772E-2,3.205112E-2,-3.0074567E-2,2.7093446E-2,-1.8795818E-2,2.8476587E-2,-1.7466571E-2,6.0568202E-2,6.979468E-3,-5.079198E-2,2.9363412E-2,-7.2575584E-3,1.1534855E-2,-3.885847E-2,8.884138E-3,-6.1445024E-2,3.032407E-2,-4.350575E-2,4.380907E-2,-2.0893769E-5,4.4265237E-2,-2.4755819E-2,1.3568121E-3,2.9696558E-2,-4.0158674E-2,-8.667807E-3,2.8656086E-2,4.1496153E-3,-3.0947227E-2,3.0003437E-3],"categories":[],"categories_nodes":[],"categories_segments":[],"categories_sizes":[],"default_left":[0,0,0,0,0,0,0,0,0,0,0,0,0,0,0,0,0,0,0,0,0,0,0,0,0,0,0,0,0,0,0,0,0,0,0,0,0,0,0,0,0,0,0,0,0,0,0,0,0,0,0,0,0,0,0,0,0,0,0,0,0,0,0,0,0,0,0,0,0,0,0,0,0,0,0,0,0,0,0,0,0,0,0,0,0,0,0,0,0,0,0,0,0,0,0,0,0,0,0,0,0,0,0,0,0,0,0,0,0,0,0],"id":1,"left_children":[1,3,5,7,9,11,13,15,17,19,21,23,25,27,29,31,33,-1,35,37,39,41,43,45,47,49,51,53,55,57,59,61,63,-1,65,-1,-1,67,69,71,73,75,77,79,81,83,85,-1,-1,87,89,91,93,95,97,99,101,103,105,107,109,-1,-1,-1,-1,-1,-1,-1,-1,-1,-1,-1,-1,-1,-1,-1,-1,-1,-1,-1,-1,-1,-1,-1,-1,-1,-1,-1,-1,-1,-1,-1,-1,-1,-1,-1,-1,-1,-1,-1,-1,-1,-1,-1,-1,-1,-1,-1,-1,-1,-1],"loss_changes":[1.9636392E2,1.2519028E1,3.7176277E1,7.3720226E0,1.1665031E1,8.424187E0,3.6926075E1,3.117364E0,3.781126E0,9.0264015E0,1.0779587E1,1.0310226E1,8.199708E0,1.3490795E1,2.2562782E1,4.549244E0,2.1851664E0,0E0,1.2975354E0,7.5242643E0,8.089604E0,9.134221E0,8.102341E0,5.4119415E0,7.7028465E-1,5.358037E0,7.0481925E0,8.30051E0,1.0684684E1,2.043171E1,7.0492616E0,4.8167176E0,1.9895868E0,0E0,4.792844E-1,0E0,0E0,6.940863E0,4.9190598E0,1.9299831E0,6.1515484E0,4.4542465E0,1.1834644E1,6.65958E0,7.337227E0,4.4506836E0,6.8893633E0,0E0,0E0,3.4337187E0,2.7015343E0,8.11475E0,5.775984E0,1.1797294E1,6.1201324E0,5.0369344E0,7.0590286E0,1.0057119E1,1.0451702E1,9.228054E0,1.194572E1,0E0,0E0,0E0,0E0,0E0,0E0,0E0,0E0,0E0,0E0,0E0,0E0,0E0,0E0,0E0,0E0,0E0,0E0,0E0,0E0,0E0,0E0,0E0,0E0,0E0,0E0,0E0,0E0,0E0,0E0,0E0,0E0,0E0,0E0,0E0,0E0,0E0,0E0,0E0,0E0,0E0,0E0,0E0,0E0,0E0,0E0,0E0,0E0,0E0,0E0],"parents":[2147483647,0,0,1,1,2,2,3,3,4,4,5,5,6,6,7,7,8,8,9,9,10,10,11,11,12,12,13,13,14,14,15,15,16,16,18,18,19,19,20,20,21,21,22,22,23,23,24,24,25,25,26,26,27,27,28,28,29,29,30,30,31,31,32,32,34,34,37,37,38,38,39,39,40,40,41,41,42,42,43,43,44,44,45,45,46,46,49,49,50,50,51,51,52,52,53,53,54,54,55,55,56,56,57,57,58,58,59,59,60,60],"right_children":[2,4,6,8,10,12,14,16,18,20,22,24,26,28,30,32,34,-1,36,38,40,42,44,46,48,50,52,54,56,58,60,62,64,-1,66,-1,-1,68,70,72,74,76,78,80,82,84,86,-1,-1,88,90,92,94,96,98,100,102,104,106,108,110,-1,-1,-1,-1,-1,-1,-1,-1,-1,-1,-1,-1,-1,-1,-1,-1,-1,-1,-1,-1,-1,-1,-1,-1,-1,-1,-1,-1,-1,-1,-1,-1,-1,-1,-1,-1,-1,-1,-1,-1,-1,-1,-1,-1,-1,-1,-1,-1,-1,-1],"split_conditions":[-2.6759994E-3,-8.617234E-2,4.1859355E-3,7.858724E3,2.7313876E2,7.149777E2,1.34E1,4.83261E3,6.28565E-2,6.25E3,6.67E0,3.677501E-1,1.323E1,2.4695203E3,1.5613113E3,2.2045625E3,-1.1741921E-1,8.232226E-2,1.9662E2,6.6104E2,1.2945946E2,1.1427687E3,9.55E1,9.2891E3,7.048841E-3,-1.8892679E-3,7.899802E-3,-7.0432522E-3,1.2510159E-3,-5.3795576E-3,2.2388E2,-2.1895686E-2,3.8076462E3,2.1955924E-2,-9.820213E-2,3.7584454E-2,-1.575311E-2,1.9628206E2,4.0331525E-3,1.16474525E2,3.75724E4,4.81E0,-2.9179277E-2,4.285371E-3,3.2838244E-2,4.5722104E3,4.889645E2,6.9992505E-2,1.5000722E-2,4.0141724E3,-4.359714E-3,1.2719E2,6.834212E2,3.394635E-2,-7.013284E-2,9.8048016E2,-1.1825374E-2,-6.219835E-3,-4.685474E-3,1.9308324E3,-4.5958903E-2,2.8188467E-2,-3.7197977E-2,8.565732E-2,1.3559765E-2,-5.112906E-2,-6.237327E-3,4.3148756E-2,-3.7269387E-2,-1.55894905E-2,7.365351E-2,-9.953191E-3,-7.387158E-2,-1.0966264E-2,1.4623257E-2,2.4833372E-2,-5.434311E-2,6.761661E-2,-7.829227E-3,1.8371396E-2,4.2840593E-2,1.3434772E-2,3.205112E-2,-3.0074567E-2,2.7093446E-2,-1.8795818E-2,2.8476587E-2,-1.7466571E-2,6.0568202E-2,6.979468E-3,-5.079198E-2,2.9363412E-2,-7.2575584E-3,1.1534855E-2,-3.885847E-2,8.884138E-3,-6.1445024E-2,3.032407E-2,-4.350575E-2,4.380907E-2,-2.0893769E-5,4.4265237E-2,-2.4755819E-2,1.3568121E-3,2.9696558E-2,-4.0158674E-2,-8.667807E-3,2.8656086E-2,4.1496153E-3,-3.0947227E-2,3.0003437E-3],"split_indices":[34,38,44,4,43,4,1,43,45,3,1,22,1,37,4,43,40,0,0,0,37,4,2,3,45,34,38,38,40,38,0,34,39,0,38,0,0,43,45,4,2,1,40,40,38,43,4,0,0,43,38,3,43,45,40,43,38,38,38,43,38,0,0,0,0,0,0,0,0,0,0,0,0,0,0,0,0,0,0,0,0,0,0,0,0,0,0,0,0,0,0,0,0,0,0,0,0,0,0,0,0,0,0,0,0,0,0,0,0,0,0],"split_type":[0,0,0,0,0,0,0,0,0,0,0,0,0,0,0,0,0,0,0,0,0,0,0,0,0,0,0,0,0,0,0,0,0,0,0,0,0,0,0,0,0,0,0,0,0,0,0,0,0,0,0,0,0,0,0,0,0,0,0,0,0,0,0,0,0,0,0,0,0,0,0,0,0,0,0,0,0,0,0,0,0,0,0,0,0,0,0,0,0,0,0,0,0,0,0,0,0,0,0,0,0,0,0,0,0,0,0,0,0,0,0],"sum_hessian":[4.865759E3,1.6379196E3,3.227839E3,4.1990616E1,1.595929E3,5.407201E2,2.687119E3,2.8317936E1,1.3672681E1,1.3071164E2,1.4652173E3,3.1791342E2,2.2280669E2,2.6486258E2,2.4222563E3,2.3849121E1,4.468815E0,1.0937368E1,2.7353132E0,1.8382698E1,1.1232894E2,4.860242E1,1.4166149E3,3.1444354E2,3.4698813E0,2.7462364E1,1.9534431E2,1.23724205E2,1.4113837E2,1.6038376E3,8.1841876E2,1.83814E1,5.467722E0,1.9877794E0,2.4810352E0,1.243032E0,1.4922812E0,8.93879E0,9.443908E0,6.1904945E0,1.0613845E2,1.2390608E1,3.6211815E1,1.2222487E2,1.29439E3,2.3143564E2,8.300789E1,1.7346138E0,1.7352674E0,4.2089744E0,2.325339E1,1.6237209E2,3.2972237E1,2.8489218E1,9.523499E1,5.1031933E1,9.010643E1,3.7451834E2,1.2293193E3,1.6525713E2,6.531616E2,1.589846E1,2.4829385E0,3.7261915E0,1.7415305E0,1.2409768E0,1.2400584E0,3.7264338E0,5.2123566E0,1.4908473E0,7.9530606E0,1.9789745E0,4.21152E0,7.262651E1,3.351194E1,1.4904747E0,1.0900133E1,5.210929E0,3.1000885E1,7.677329E1,4.5451576E1,1.2394644E3,5.4925632E1,2.287103E2,2.7253485E0,7.532542E1,7.6824718E0,2.9681869E0,1.2407874E0,1.9782345E0,2.1275154E1,1.5867105E1,1.4650497E2,6.689823E0,2.6282412E1,2.1313004E1,7.1762137E0,2.2264738E0,9.3008514E1,6.691793E0,4.4340137E1,2.976762E0,8.712967E1,3.4103516E2,3.3483204E1,2.60304E1,1.203289E3,5.9804047E1,1.0545308E2,2.6031555E1,6.2713007E2],"tree_param":{"num_deleted":"0","num_feature":"48","num_nodes":"111","size_leaf_vector":"1"}},{"base_weights":[-5.5757603E-3,2.6729378E-1,-1.3820703E-1,1.0707075E-1,3.1696913E-1,-4.586343E-1,-1.05236456E-1,4.6707582E-1,8.685631E-3,4.35449E-1,2.568158E-1,-6.1893183E-1,8.039248E-2,-2.0978063E-1,1.6723847E-2,5.353478E-1,-4.349457E-1,-3.4168977E-1,1.6140865E-1,3.7872005E-1,8.5833615E-1,2.2367793E-1,5.144699E-1,-2.5053883E-1,-7.327586E-1,2.2597897E-1,-6.5436447E-1,2.900021E-1,-2.4058059E-1,1.4253983E-1,-5.8121204E-2,-6.1595894E-2,6.597574E-1,2.4360685E-2,-8.290963E-1,-4.4278178E-1,6.551172E-1,2.3507054E-1,-6.061031E-1,2.1523036E-1,5.609323E-1,9.520621E-1,1.636072E-2,-2.0845687E-1,2.4478824E-1,7.425824E-1,-1.20654795E-2,4.5761654E-1,-5.7420146E-1,-1.9215351E-1,-7.90621E-1,3.516307E-1,-7.3574084E-1,-6.4903095E-2,-9.4239935E-2,-3.1819674E-1,4.2014146E-1,-2.8003877E-1,-2.5529176E-2,4.0782857E-1,7.5551026E-2,-1.1909194E0,-4.140366E-2,-5.1036786E-2,1.1788347E-2,7.51025E-2,2.7407644E-2,-1.1666317E-2,-5.8822293E-2,4.0024314E-2,-2.6642878E-2,-3.2896165E-2,6.0516667E-2,1.4309785E-2,-3.7055932E-2,3.896379E-2,-4.1073803E-2,-3.1660423E-2,1.358109E-2,2.9441813E-2,-4.151322E-2,1.3759734E-2,5.225223E-2,3.2555033E-2,-3.365509E-2,-1.8912924E-2,3.950269E-2,1.0232029E-2,2.3873243E-2,1.1540126E-2,4.861143E-2,4.7495704E-2,-1.286407E-2,3.7815325E-2,-4.1507185E-3,-5.2292276E-2,-1.063552E-2,-3.9947044E-2,2.9540593E-2,-4.3348502E-2,-1.35467695E-2,2.2931775E-2,-1.8449767E-2,-6.129576E-2,7.0427204E-3,2.131593E-2,-5.7365764E-2,1.1937453E-2,-5.7394106E-2,5.142199E-2,1.2375853E-2,-3.6916893E-3,-1.6365213E-2,-6.1274346E-2,-3.7062622E-5,2.0689291E-3,3.185971E-2,1.0154458E-3,3.245021E-2,-6.896424E-2,5.7001417E-3,-2.7694374E-2,-1.1563594E-3],"categories":[],"categories_nodes":[],"categories_segments":[],"categories_sizes":[],"default_left":[0,0,0,0,0,0,0,0,0,0,0,0,0,0,0,0,0,0,0,0,0,0,0,0,0,0,0,0,0,0,0,0,0,0,0,0,0,0,0,0,0,0,0,0,0,0,0,0,0,0,0,0,0,0,0,0,0,0,0,0,0,0,0,0,0,0,0,0,0,0,0,0,0,0,0,0,0,0,0,0,0,0,0,0,0,0,0,0,0,0,0,0,0,0,0,0,0,0,0,0,0,0,0,0,0,0,0,0,0,0,0,0,0,0,0,0,0,0,0,0,0,0,0],"id":2,"left_children":[1,3,5,7,9,11,13,15,17,19,21,23,25,27,29,31,33,35,37,39,41,43,45,47,49,51,53,55,57,59,61,63,65,-1,67,69,71,73,75,77,79,81,83,85,87,89,91,93,95,97,99,101,103,-1,105,107,109,111,113,115,117,119,121,-1,-1,-1,-1,-1,-1,-1,-1,-1,-1,-1,-1,-1,-1,-1,-1,-1,-1,-1,-1,-1,-1,-1,-1,-1,-1,-1,-1,-1,-1,-1,-1,-1,-1,-1,-1,-1,-1,-1,-1,-1,-1,-1,-1,-1,-1,-1,-1,-1,-1,-1,-1,-1,-1,-1,-1,-1,-1,-1,-1],"loss_changes":[1.7478603E2,1.2538734E1,3.42855E1,1.329076E1,8.4782715E0,2.6221848E1,3.7590748E1,5.1930084E0,1.588418E1,9.377342E0,6.7312965E0,9.611374E0,7.6695614E0,2.4504936E1,1.2829808E1,5.6347256E0,2.6643767E0,9.371301E0,1.1828163E1,1.0555626E1,3.6971397E0,6.548546E0,1.089189E1,1.3248732E1,5.413826E0,7.440374E0,4.1628456E0,7.463064E0,1.2685448E1,8.999638E0,1.6131485E1,4.206756E0,5.0443363E0,0E0,7.0370436E-1,9.656372E0,7.1397047E0,9.66033E0,6.1241527E0,9.287464E0,7.0442963E0,2.3757133E0,2.9458845E0,6.0149856E0,6.250145E0,7.207592E0,6.937347E0,3.0225294E0,6.4828014E0,9.272669E0,6.1295624E0,4.2745523E0,3.2624836E0,0E0,4.5640035E0,8.079102E0,7.800497E0,1.2293198E1,6.929612E0,8.565107E0,1.2877811E1,3.202734E0,7.8834014E0,0E0,0E0,0E0,0E0,0E0,0E0,0E0,0E0,0E0,0E0,0E0,0E0,0E0,0E0,0E0,0E0,0E0,0E0,0E0,0E0,0E0,0E0,0E0,0E0,0E0,0E0,0E0,0E0,0E0,0E0,0E0,0E0,0E0,0E0,0E0,0E0,0E0,0E0,0E0,0E0,0E0,0E0,0E0,0E0,0E0,0E0,0E0,0E0,0E0,0E0,0E0,0E0,0E0,0E0,0E0,0E0,0E0,0E0,0E0,0E0],"parents":[2147483647,0,0,1,1,2,2,3,3,4,4,5,5,6,6,7,7,8,8,9,9,10,10,11,11,12,12,13,13,14,14,15,15,16,16,17,17,18,18,19,19,20,20,21,21,22,22,23,23,24,24,25,25,26,26,27,27,28,28,29,29,30,30,31,31,32,32,34,34,35,35,36,36,37,37,38,38,39,39,40,40,41,41,42,42,43,43,44,44,45,45,46,46,47,47,48,48,49,49,50,50,51,51,52,52,54,54,55,55,56,56,57,57,58,58,59,59,60,60,61,61,62,62],"right_children":[2,4,6,8,10,12,14,16,18,20,22,24,26,28,30,32,34,36,38,40,42,44,46,48,50,52,54,56,58,60,62,64,66,-1,68,70,72,74,76,78,80,82,84,86,88,90,92,94,96,98,100,102,104,-1,106,108,110,112,114,116,118,120,122,-1,-1,-1,-1,-1,-1,-1,-1,-1,-1,-1,-1,-1,-1,-1,-1,-1,-1,-1,-1,-1,-1,-1,-1,-1,-1,-1,-1,-1,-1,-1,-1,-1,-1,-1,-1,-1,-1,-1,-1,-1,-1,-1,-1,-1,-1,-1,-1,-1,-1,-1,-1,-1,-1,-1,-1,-1,-1,-1,-1],"split_conditions":[-2.9635779E-3,5.4400397E2,1.34E1,6.4482E3,-1.632653E-2,4.83261E3,1.1214143E-2,1.2269938E-2,9.9667E3,3.4385607E-2,2.3151113E-2,-3.1339775E-3,1.9297522E-2,1.2719E2,1.8112831E-3,4.1227327E-3,5.955053E2,4.5454547E-2,4.8200706E-1,-2.9285949E-2,1.1335595E4,7.1E0,3.085218E3,8.535061E-3,-1.0823675E-2,1.253E1,3.5822822E3,-4.7740894E-3,2.070531E-2,2.9759247E-5,1.6826875E2,-5.5887485E-3,1.6840552E2,2.4360685E-2,3.6868573E2,-1.0406923E-1,7.5401E3,6.07537E4,1.0049557E2,4.2449225E2,4.0824167E-2,5.95E1,5.8602E2,2.0980421E-2,2.8986858E3,1.6161617E-2,-8.690614E-2,-1.9348548E-3,1.7429202E3,2.0259786E3,7.011157E3,6.617288E3,9.733677E-3,-6.4903095E-2,8.404504E3,-9.3550505E-3,9.095915E2,-5.3795576E-3,-1.0326453E-2,9.8032837E2,4.696978E3,5.2722838E-2,2.6611438E2,-5.1036786E-2,1.1788347E-2,7.51025E-2,2.7407644E-2,-1.1666317E-2,-5.8822293E-2,4.0024314E-2,-2.6642878E-2,-3.2896165E-2,6.0516667E-2,1.4309785E-2,-3.7055932E-2,3.896379E-2,-4.1073803E-2,-3.1660423E-2,1.358109E-2,2.9441813E-2,-4.151322E-2,1.3759734E-2,5.225223E-2,3.2555033E-2,-3.365509E-2,-1.8912924E-2,3.950269E-2,1.0232029E-2,2.3873243E-2,1.1540126E-2,4.861143E-2,4.7495704E-2,-1.286407E-2,3.7815325E-2,-4.1507185E-3,-5.2292276E-2,-1.063552E-2,-3.9947044E-2,2.9540593E-2,-4.3348502E-2,-1.35467695E-2,2.2931775E-2,-1.8449767E-2,-6.129576E-2,7.0427204E-3,2.131593E-2,-5.7365764E-2,1.1937453E-2,-5.7394106E-2,5.142199E-2,1.2375853E-2,-3.6916893E-3,-1.6365213E-2,-6.1274346E-2,-3.7062622E-5,2.0689291E-3,3.185971E-2,1.0154458E-3,3.245021E-2,-6.896424E-2,5.7001417E-3,-2.7694374E-2,-1.1563594E-3],"split_indices":[34,43,1,1,38,35,45,38,1,44,38,38,34,3,38,45,41,42,24,38,41,0,39,44,40,3,41,40,40,34,35,34,43,0,43,42,0,3,41,41,40,0,0,44,35,42,42,40,39,39,43,43,44,0,41,40,39,38,5,39,43,42,41,0,0,0,0,0,0,0,0,0,0,0,0,0,0,0,0,0,0,0,0,0,0,0,0,0,0,0,0,0,0,0,0,0,0,0,0,0,0,0,0,0,0,0,0,0,0,0,0,0,0,0,0,0,0,0,0,0,0,0,0],"split_type":[0,0,0,0,0,0,0,0,0,0,0,0,0,0,0,0,0,0,0,0,0,0,0,0,0,0,0,0,0,0,0,0,0,0,0,0,0,0,0,0,0,0,0,0,0,0,0,0,0,0,0,0,0,0,0,0,0,0,0,0,0,0,0,0,0,0,0,0,0,0,0,0,0,0,0,0,0,0,0,0,0,0,0,0,0,0,0,0,0,0,0,0,0,0,0,0,0,0,0,0,0,0,0,0,0,0,0,0,0,0,0,0,0,0,0,0,0,0,0,0,0,0,0],"sum_hessian":[4.8275186E3,1.5786534E3,3.248865E3,3.743568E2,1.2042966E3,3.019014E2,2.9469636E3,7.954456E1,2.9481226E2,4.0343652E2,8.008601E2,2.3258598E2,6.931542E1,1.5863914E3,1.3605723E3,7.432553E1,5.2190313E0,8.911904E1,2.056932E2,3.5738943E2,4.6047085E1,7.112515E2,8.9608574E1,5.565694E1,1.7692905E2,5.8430336E1,1.0885082E1,9.160037E1,1.494791E3,5.071458E2,8.5342645E2,1.2905771E1,6.141976E1,1.4920659E0,3.7269657E0,8.141779E1,7.7012544E0,1.8831355E2,1.737966E1,1.8952216E2,1.6786728E2,4.131706E1,4.7300253E0,3.271386E1,6.7853766E2,6.2235703E1,2.737287E1,1.7328753E1,3.8328186E1,1.7524025E1,1.5940501E2,5.223946E1,6.190876E0,4.4517083E0,6.433374E0,1.58907585E1,7.570961E1,1.262789E3,2.3200206E2,1.01217354E2,4.0592847E2,1.139001E1,8.420365E2,2.478565E0,1.0427206E1,5.728374E0,5.5691387E1,1.9883331E0,1.7386326E0,4.9674783E0,7.645031E1,2.233715E0,5.4675393E0,1.7961362E2,8.699933E0,1.9860697E0,1.5393589E1,1.117404E1,1.7834813E2,1.6513188E2,2.7353928E0,5.468521E0,3.5848537E1,2.4917161E0,2.2383091E0,2.8490149E1,4.2237105E0,5.802898E2,9.824784E1,1.9897657E1,4.2338043E1,4.976464E0,2.2396406E1,1.0904988E1,6.423765E0,1.5808893E1,2.2519293E1,9.861272E0,7.662754E0,1.384034E2,2.100163E1,4.580195E1,6.43751E0,3.7150173E0,2.4758587E0,4.703498E0,1.7298757E0,9.9343405E0,5.9564185E0,1.5639846E1,6.0069763E1,2.3595422E2,1.0268347E3,3.7151802E0,2.2828688E2,3.9419117E1,6.1798237E1,3.7120483E2,3.4723633E1,9.90346E0,1.4865505E0,2.798597E1,8.140505E2],"tree_param":{"num_deleted":"0","num_feature":"48","num_nodes":"123","size_leaf_vector":"1"}},{"base_weights":[5.945928E-3,2.4765892E-1,-1.2499241E-1,1.04293E0,2.3797242E-1,-4.8213512E-1,-8.668237E-2,-1.7123137E-2,1.171997E0,-3.1639192E-2,2.617656E-1,-3.7592996E-2,-5.991705E-1,-1.8833365E-1,1.07216656E-1,8.7994576E-2,7.948369E-1,1.4122486E-2,-6.282758E-2,-3.5276657E-1,2.7313843E-1,-6.3063735E-1,1.3219571E-1,-7.3535794E-1,-2.7710882E-1,-7.5422275E-1,-1.733602E-1,3.5058185E-1,5.429434E-2,2.5353637E-1,7.5506866E-2,2.255526E-1,-2.0645137E-1,-6.8665963E-1,4.2627156E-1,1.0531204E-1,3.132698E-1,3.9328992E-2,-9.17327E-1,4.2546806E-1,-1.7124169E-1,-8.1628036E-1,-2.001232E-1,-7.601322E-1,-1.3657112E-1,-3.6887103E-1,-1.1366162E0,2.2706743E-2,-2.0983806E-1,2.1279666E-1,8.232388E-1,-7.7662654E-2,1.4946862E-1,4.9396873E-2,-1.2428685E-2,2.8495362E-2,-4.5249383E-3,5.5182733E-2,-1.3222334E-2,-4.747244E-3,-5.1009204E-2,-5.8240056E-2,4.7656547E-2,1.1513366E-2,-5.7412717E-3,2.0143135E-2,9.595989E-3,-6.0397107E-2,1.4888755E-2,4.3528195E-2,-2.189648E-4,-1.7646236E-2,6.024611E-2,-9.728402E-3,-4.4085722E-2,-4.2548504E-2,6.8843337E-3,1.5467075E-2,-4.7550395E-2,9.012962E-4,-2.8803203E-2,-3.5198808E-2,2.4454623E-2,1.5507534E-2,-6.511749E-2,1.7314238E-2,-4.374948E-3,-1.2923054E-2,-3.2091443E-3,-1.2505044E-3,2.5298912E-2,4.8366737E-2,-6.1928805E-2,3.170207E-3,-1.2226968E-2,8.548385E-3,-2.6953254E-2],"categories":[],"categories_nodes":[],"categories_segments":[],"categories_sizes":[],"default_left":[0,0,0,0,0,0,0,0,0,0,0,0,0,0,0,0,0,0,0,0,0,0,0,0,0,0,0,0,0,0,0,0,0,0,0,0,0,0,0,0,0,0,0,0,0,0,0,0,0,0,0,0,0,0,0,0,0,0,0,0,0,0,0,0,0,0,0,0,0,0,0,0,0,0,0,0,0,0,0,0,0,0,0,0,0,0,0,0,0,0,0,0,0,0,0,0,0],"id":3,"left_children":[1,3,5,7,9,11,13,-1,15,17,19,21,23,25,27,-1,29,31,-1,33,35,37,39,41,43,45,47,49,51,53,-1,55,57,59,61,63,65,-1,67,69,71,73,75,77,79,81,83,85,87,89,91,93,95,-1,-1,-1,-1,-1,-1,-1,-1,-1,-1,-1,-1,-1,-1,-1,-1,-1,-1,-1,-1,-1,-1,-1,-1,-1,-1,-1,-1,-1,-1,-1,-1,-1,-1,-1,-1,-1,-1,-1,-1,-1,-1,-1,-1],"loss_changes":[1.534439E2,1.2874619E1,4.298497E1,4.0139484E0,1.0812965E1,1.5816177E1,5.6022552E1,0E0,2.749298E0,7.7239537E0,1.0914093E1,6.5792165E0,1.0363144E1,1.5667152E1,1.2575431E1,0E0,4.7358828E0,6.273211E0,0E0,7.7218056E0,1.0206169E1,6.6259794E0,4.6095386E0,7.14415E0,4.865481E0,6.618862E0,1.3004917E1,1.1188017E1,1.01138735E1,3.4637134E0,0E0,7.52289E0,5.296439E0,3.9242153E0,8.810213E0,8.137952E0,1.32560425E1,0E0,4.790971E0,5.0186048E0,6.8680806E0,5.777382E0,5.280183E0,3.617446E0,3.9460049E0,7.6095886E0,6.037012E0,1.0230127E1,1.0837868E1,9.525887E0,1.2795235E1,7.965685E0,7.0150194E0,0E0,0E0,0E0,0E0,0E0,0E0,0E0,0E0,0E0,0E0,0E0,0E0,0E0,0E0,0E0,0E0,0E0,0E0,0E0,0E0,0E0,0E0,0E0,0E0,0E0,0E0,0E0,0E0,0E0,0E0,0E0,0E0,0E0,0E0,0E0,0E0,0E0,0E0,0E0,0E0,0E0,0E0,0E0,0E0],"parents":[2147483647,0,0,1,1,2,2,3,3,4,4,5,5,6,6,8,8,9,9,10,10,11,11,12,12,13,13,14,14,16,16,17,17,19,19,20,20,21,21,22,22,23,23,24,24,25,25,26,26,27,27,28,28,29,29,31,31,32,32,33,33,34,34,35,35,36,36,38,38,39,39,40,40,41,41,42,42,43,43,44,44,45,45,46,46,47,47,48,48,49,49,50,50,51,51,52,52],"right_children":[2,4,6,8,10,12,14,-1,16,18,20,22,24,26,28,-1,30,32,-1,34,36,38,40,42,44,46,48,50,52,54,-1,56,58,60,62,64,66,-1,68,70,72,74,76,78,80,82,84,86,88,90,92,94,96,-1,-1,-1,-1,-1,-1,-1,-1,-1,-1,-1,-1,-1,-1,-1,-1,-1,-1,-1,-1,-1,-1,-1,-1,-1,-1,-1,-1,-1,-1,-1,-1,-1,-1,-1,-1,-1,-1,-1,-1,-1,-1,-1,-1],"split_conditions":[-3.2626428E-3,-1.0587379E-1,1.401E1,2.8986974E-2,2.5989554E2,-1.7609975E-3,1.381225E3,-1.7123137E-2,1.8024237E3,4.5630264E-1,1.4170546E2,1.2109714E3,4.335947E3,-8.0971524E-2,2.2039E2,8.7994576E-2,6.019773E3,-1.0416667E-2,-6.282758E-2,-6.044864E-3,-3.138023E-2,-1.5151515E-3,1.014E1,7.011157E3,5.21E0,0E0,-1.0484652E-2,4.335947E3,1.4224541E-2,4.575873E-2,7.5506866E-2,1.8804565E2,6.03E0,-2.6632074E-2,3.6868573E2,1.9535085E3,-8.46888E-3,3.9328992E-2,4.83261E3,-7.0432522E-3,1.34E1,2.0544504E2,1.8696237E3,4.9E0,6.617288E3,3.4072652E-1,1.294973E2,5.437875E2,2.113309E-2,3.777336E-2,1.8700844E-1,5.1380303E-3,3.91838E4,4.9396873E-2,-1.2428685E-2,2.8495362E-2,-4.5249383E-3,5.5182733E-2,-1.3222334E-2,-4.747244E-3,-5.1009204E-2,-5.8240056E-2,4.7656547E-2,1.1513366E-2,-5.7412717E-3,2.0143135E-2,9.595989E-3,-6.0397107E-2,1.4888755E-2,4.3528195E-2,-2.189648E-4,-1.7646236E-2,6.024611E-2,-9.728402E-3,-4.4085722E-2,-4.2548504E-2,6.8843337E-3,1.5467075E-2,-4.7550395E-2,9.012962E-4,-2.8803203E-2,-3.5198808E-2,2.4454623E-2,1.5507534E-2,-6.511749E-2,1.7314238E-2,-4.374948E-3,-1.2923054E-2,-3.2091443E-3,-1.2505044E-3,2.5298912E-2,4.8366737E-2,-6.1928805E-2,3.170207E-3,-1.2226968E-2,8.548385E-3,-2.6953254E-2],"split_indices":[36,36,2,45,43,38,4,0,39,23,39,35,35,32,1,0,39,42,0,38,38,36,0,43,2,42,40,4,40,45,0,43,1,38,43,43,36,0,43,38,1,43,4,3,4,23,4,39,40,42,42,38,1,0,0,0,0,0,0,0,0,0,0,0,0,0,0,0,0,0,0,0,0,0,0,0,0,0,0,0,0,0,0,0,0,0,0,0,0,0,0,0,0,0,0,0,0],"split_type":[0,0,0,0,0,0,0,0,0,0,0,0,0,0,0,0,0,0,0,0,0,0,0,0,0,0,0,0,0,0,0,0,0,0,0,0,0,0,0,0,0,0,0,0,0,0,0,0,0,0,0,0,0,0,0,0,0,0,0,0,0,0,0,0,0,0,0,0,0,0,0,0,0,0,0,0,0,0,0,0,0,0,0,0,0,0,0,0,0,0,0,0,0,0,0,0,0],"sum_hessian":[4.8462466E3,1.7025104E3,3.1437363E3,1.9203657E1,1.6833068E3,3.0343155E2,2.840305E3,1.4956887E0,1.7707968E1,1.364782E2,1.5468286E3,6.3511917E1,2.3991965E2,1.863432E3,9.768728E2,5.487778E0,1.222019E1,1.3251598E2,3.962213E0,2.7560797E1,1.5192678E3,1.3532133E1,4.9979786E1,1.6771584E2,7.2203804E1,4.676278E1,1.8166693E3,1.7348253E2,8.0339026E2,7.72715E0,4.49304E0,6.764887E1,6.48671E1,1.9375223E1,8.185574E0,2.9388535E2,1.2253824E3,1.9834608E0,1.1548672E1,2.5211096E1,2.476869E1,1.4523291E2,2.2482931E1,1.5279595E1,5.692421E1,2.4269835E1,2.2492947E1,2.850288E2,1.5316405E3,1.3544801E2,3.8034515E1,3.367198E2,4.6667044E2,2.7448618E0,4.982288E0,3.1990417E1,3.5658455E1,1.9854721E0,6.288163E1,7.447349E0,1.1927874E1,1.7350435E0,6.45053E0,1.874425E2,1.0644285E2,7.035964E2,5.217861E2,9.324444E0,2.2242284E0,1.1882149E1,1.3328946E1,2.2536884E1,2.2318058E0,1.420831E1,1.310246E2,7.1630483E0,1.5319882E1,2.220049E0,1.3059546E1,4.2820545E1,1.4103667E1,1.7582073E1,6.6877613E0,2.2222743E0,2.0270672E1,7.186927E1,2.1315953E2,1.1477281E3,3.8391235E2,7.529174E1,6.015628E1,3.6046158E1,1.9883578E0,1.8280678E2,1.5391301E2,4.5326904E2,1.3401393E1],"tree_param":{"num_deleted":"0","num_feature":"48","num_nodes":"97","size_leaf_vector":"1"}},{"base_weights":[9.036552E-3,2.372945E-1,-1.1701102E-1,3.3094814E-1,1.414761E-1,-4.5855597E-1,-8.137527E-2,2.1798082E-1,4.739659E-1,-7.5015575E-2,2.0351407E-1,-5.9880835E-1,-2.689629E-3,-3.295405E-1,-3.7206233E-2,2.2035627E-2,3.3544096E-1,5.22954E-1,-7.2703764E-2,3.298777E-2,-5.92719E-1,2.1127415E-1,-5.675438E-2,-2.2148699E-1,-6.873953E-1,1.0144997E0,-1.1732469E-1,-3.4687153E-1,9.034212E-1,-2.4277623E-1,-4.351775E-3,9.2773986E-1,-2.2958053E-2,-5.453467E-2,3.5902715E-1,4.8980126E-1,1.2005366E0,1.1045225E-1,-6.1850883E-2,-3.7602067E-1,1.4631793E-1,6.5991944E-1,-7.386129E-1,2.2697748E-1,-4.1011852E-1,3.4529933E-1,-4.5882252E-1,-7.925881E-1,-3.574157E-1,7.472221E-2,7.445111E-2,-6.65987E-1,8.7324865E-2,-3.9228928E-1,1.4693001E-2,-1.4658071E-4,7.0594914E-2,-8.871896E-2,-4.2861333E-1,1.9992039E-1,-3.1080691E-2,7.749963E-2,-1.586771E-2,-4.3454897E-2,1.3742016E-3,1.890435E-2,-5.7760503E-2,2.5499998E-2,-2.8840471E-2,7.181657E-2,-1.4001004E-2,-9.776244E-3,3.557354E-2,-3.3759218E-2,2.642161E-2,1.7572537E-2,-4.1168225E-3,-2.548212E-3,6.164163E-2,-4.562879E-2,3.1430338E-2,9.717199E-3,3.0244822E-2,-4.340539E-2,1.1812698E-2,3.4189112E-2,-4.7883652E-2,5.7039827E-2,-3.0198975E-2,-1.4251615E-3,-4.080848E-2,5.4539826E-2,-2.3714324E-2,-3.0539235E-2,3.6332794E-2,-8.564397E-3,-5.644393E-2,9.49698E-3,-6.365275E-2,-1.0330112E-3,-2.1901725E-2,9.4966525E-3,-3.741951E-2,-1.225184E-2,1.7985294E-2,3.474181E-2,-2.4086876E-2,5.0471695E-3,3.0143945E-2,-3.6482893E-2,-9.2263956E-4],"categories":[],"categories_nodes":[],"categories_segments":[],"categories_sizes":[],"default_left":[0,0,0,0,0,0,0,0,0,0,0,0,0,0,0,0,0,0,0,0,0,0,0,0,0,0,0,0,0,0,0,0,0,0,0,0,0,0,0,0,0,0,0,0,0,0,0,0,0,0,0,0,0,0,0,0,0,0,0,0,0,0,0,0,0,0,0,0,0,0,0,0,0,0,0,0,0,0,0,0,0,0,0,0,0,0,0,0,0,0,0,0,0,0,0,0,0,0,0,0,0,0,0,0,0,0,0,0,0,0,0],"id":4,"left_children":[1,3,5,7,9,11,13,15,17,19,21,23,25,27,29,31,33,35,37,39,41,43,-1,45,47,49,51,53,55,57,59,61,63,-1,65,67,69,71,-1,73,75,77,79,81,83,85,87,89,91,-1,93,95,97,99,101,-1,-1,103,105,107,109,-1,-1,-1,-1,-1,-1,-1,-1,-1,-1,-1,-1,-1,-1,-1,-1,-1,-1,-1,-1,-1,-1,-1,-1,-1,-1,-1,-1,-1,-1,-1,-1,-1,-1,-1,-1,-1,-1,-1,-1,-1,-1,-1,-1,-1,-1,-1,-1,-1,-1],"loss_changes":[1.392403E2,1.5403282E1,3.7911045E1,1.3951729E1,1.1468462E1,1.881863E1,3.0947918E1,1.12216E1,1.0296379E1,1.0680598E1,7.1277924E0,7.3718567E0,8.311748E0,9.429859E0,1.620077E1,7.516312E0,1.0649567E1,7.311905E0,7.0419703E0,7.41149E0,6.511714E0,6.5344276E0,0E0,6.114274E0,6.0280914E0,3.146123E0,7.2488246E0,6.9264297E0,2.8574252E0,9.425306E0,1.1304776E1,7.2545257E0,7.5440197E0,0E0,9.116802E0,7.5536804E0,5.88842E0,5.4533634E0,0E0,9.749668E0,5.8916025E0,1.6784639E0,7.708372E0,7.83078E0,5.127195E0,6.669825E0,8.034972E0,2.446144E0,8.264597E0,0E0,2.004754E0,3.8170924E0,6.8763037E0,6.356621E0,6.560188E0,0E0,0E0,1.284477E1,9.260706E0,9.494317E0,1.6136765E1,0E0,0E0,0E0,0E0,0E0,0E0,0E0,0E0,0E0,0E0,0E0,0E0,0E0,0E0,0E0,0E0,0E0,0E0,0E0,0E0,0E0,0E0,0E0,0E0,0E0,0E0,0E0,0E0,0E0,0E0,0E0,0E0,0E0,0E0,0E0,0E0,0E0,0E0,0E0,0E0,0E0,0E0,0E0,0E0,0E0,0E0,0E0,0E0,0E0,0E0],"parents":[2147483647,0,0,1,1,2,2,3,3,4,4,5,5,6,6,7,7,8,8,9,9,10,10,11,11,12,12,13,13,14,14,15,15,16,16,17,17,18,18,19,19,20,20,21,21,23,23,24,24,25,25,26,26,27,27,28,28,29,29,30,30,31,31,32,32,34,34,35,35,36,36,37,37,39,39,40,40,41,41,42,42,43,43,44,44,45,45,46,46,47,47,48,48,50,50,51,51,52,52,53,53,54,54,57,57,58,58,59,59,60,60],"right_children":[2,4,6,8,10,12,14,16,18,20,22,24,26,28,30,32,34,36,38,40,42,44,-1,46,48,50,52,54,56,58,60,62,64,-1,66,68,70,72,-1,74,76,78,80,82,84,86,88,90,92,-1,94,96,98,100,102,-1,-1,104,106,108,110,-1,-1,-1,-1,-1,-1,-1,-1,-1,-1,-1,-1,-1,-1,-1,-1,-1,-1,-1,-1,-1,-1,-1,-1,-1,-1,-1,-1,-1,-1,-1,-1,-1,-1,-1,-1,-1,-1,-1,-1,-1,-1,-1,-1,-1,-1,-1,-1,-1,-1],"split_conditions":[-2.224638E-3,-7.2367894E-3,1.34E1,1.3671832E3,5.5207354E-3,4.83261E3,3.4265466E2,-1.6291698E-2,-4.352379E-3,7.889546E-4,1.7042107E4,-2.667308E-3,-9.629223E-3,4.48807E-1,4.1859355E-3,-8.062745E-2,6.61E0,5.138427E-2,-8.46888E-3,3.053856E2,2.8098715E-3,2.9895142E-1,-5.675438E-2,8.787571E-3,3.910049E3,6.315691E3,5.55E0,1.4695495E-2,4E0,2.008032E-3,2.2388E2,-8.3574474E-2,1.8800696E2,-5.453467E-2,2E1,4.185022E-2,9.98555E3,-2.8655485E-3,-6.1850883E-2,2.3772931E-1,8.530486E2,2.3065717E-3,1.3325165E-2,4.32269E4,4.241478E-1,5.382368E3,-6.6940404E-2,8.285364E1,-2.0952763E-2,7.472221E-2,-2.5067734E-2,4E-3,5E-2,-3.023015E-3,3.8872115E-2,-1.4658071E-4,7.0594914E-2,8.186269E-3,3.8438232E2,4.335947E3,2.3539E2,7.749963E-2,-1.586771E-2,-4.3454897E-2,1.3742016E-3,1.890435E-2,-5.7760503E-2,2.5499998E-2,-2.8840471E-2,7.181657E-2,-1.4001004E-2,-9.776244E-3,3.557354E-2,-3.3759218E-2,2.642161E-2,1.7572537E-2,-4.1168225E-3,-2.548212E-3,6.164163E-2,-4.562879E-2,3.1430338E-2,9.717199E-3,3.0244822E-2,-4.340539E-2,1.1812698E-2,3.4189112E-2,-4.7883652E-2,5.7039827E-2,-3.0198975E-2,-1.4251615E-3,-4.080848E-2,5.4539826E-2,-2.3714324E-2,-3.0539235E-2,3.6332794E-2,-8.564397E-3,-5.644393E-2,9.49698E-3,-6.365275E-2,-1.0330112E-3,-2.1901725E-2,9.4966525E-3,-3.741951E-2,-1.225184E-2,1.7985294E-2,3.474181E-2,-2.4086876E-2,5.0471695E-3,3.0143945E-2,-3.6482893E-2,-9.2263956E-4],"split_indices":[34,36,1,37,44,35,35,34,34,36,39,36,36,16,44,36,3,46,36,37,45,16,0,45,37,37,3,45,8,36,0,42,37,0,8,46,37,34,0,17,37,36,46,3,24,37,46,4,46,0,42,34,36,36,46,0,0,42,35,4,1,0,0,0,0,0,0,0,0,0,0,0,0,0,0,0,0,0,0,0,0,0,0,0,0,0,0,0,0,0,0,0,0,0,0,0,0,0,0,0,0,0,0,0,0,0,0,0,0,0,0],"split_type":[0,0,0,0,0,0,0,0,0,0,0,0,0,0,0,0,0,0,0,0,0,0,0,0,0,0,0,0,0,0,0,0,0,0,0,0,0,0,0,0,0,0,0,0,0,0,0,0,0,0,0,0,0,0,0,0,0,0,0,0,0,0,0,0,0,0,0,0,0,0,0,0,0,0,0,0,0,0,0,0,0,0,0,0,0,0,0,0,0,0,0,0,0,0,0,0,0,0,0,0,0,0,0,0,0,0,0,0,0,0,0],"sum_hessian":[4.8375806E3,1.7207015E3,3.116879E3,8.689394E2,8.517621E2,2.933591E2,2.8235198E3,4.868829E2,3.8205646E2,1.8966966E2,6.6209247E2,2.2409898E2,6.926013E1,4.256319E2,2.397888E3,1.8292233E2,3.0396057E2,3.506752E2,3.1381262E1,1.5770543E2,3.196424E1,6.5911365E2,2.978815E0,4.3275265E1,1.8082372E2,6.219847E0,6.3040283E1,4.2044067E2,5.1912255E0,3.2954416E2,2.0683438E3,7.7286406E0,1.751937E2,4.209199E0,2.9975137E2,3.359602E2,1.4714982E1,2.789784E1,3.483421E0,3.371394E1,1.23991486E2,2.966939E0,2.8997301E1,6.434867E2,1.5626942E1,1.2638376E1,3.0636889E1,1.3605072E2,4.477299E1,3.7271755E0,2.4926717E0,1.6513517E1,4.6526768E1,3.734455E2,4.6995155E1,2.2229984E0,2.9682274E0,1.809859E2,1.4855826E2,2.3857635E2,1.8297675E3,4.98996E0,2.7386808E0,8.943386E0,1.662503E2,2.9676627E2,2.9851174E0,3.3022845E2,5.7317696E0,1.2719184E1,1.9957986E0,1.8933512E1,8.964329E0,2.5524687E1,8.189252E0,6.50743E1,5.891718E1,1.7306067E0,1.2363323E0,2.6019192E1,2.9781096E0,5.937319E2,4.97548E1,8.945519E0,6.6814218E0,1.0409449E1,2.2289271E0,1.9782012E0,2.8658686E1,4.1392736E0,1.3191145E2,2.7210877E0,4.2051903E1,1.2465243E0,1.2461473E0,8.644766E0,7.868751E0,4.40634E1,2.463367E0,4.1089626E1,3.3235587E2,3.8829224E1,8.165931E0,1.3453981E2,4.64461E1,6.162232E0,1.4239603E2,1.9253523E2,4.604112E1,3.14805E1,1.798287E3],"tree_param":{"num_deleted":"0","num_feature":"48","num_nodes":"111","size_leaf_vector":"1"}},{"base_weights":[4.2944588E-4,2.4425982E-1,-1.1781154E-1,1.1509843E0,2.3373376E-1,8.7970614E-2,-1.7915036E-1,1.300652E0,-7.619878E-3,7.9747185E-2,2.83562E-1,-4.1051766E-1,1.11625746E-1,-5.3526056E-1,-1.3914259E-1,-1.1563842E-2,1.4435481E0,3.6161935E-1,-2.8686484E-3,3.4420234E-1,1.297829E-1,7.045849E-2,-8.1166685E-1,-2.3283769E-1,1.4657037E-1,-9.699249E-1,-4.2230242E-1,-2.7005112E-1,-2.8933724E-3,7.8076966E-2,7.282655E-1,1.5952067E-1,7.702381E-1,-3.1663433E-1,1.0897742E-1,-1.2677157E-1,3.6707452E-1,6.066344E-2,5.5677944E-1,-6.7170423E-1,6.7129093E-1,-1.1366507E0,-5.3902183E-2,7.7295554E-1,-3.400356E-1,2.3804325E-1,2.537605E-2,-1.0677593E0,-2.675244E-1,5.8018744E-1,-4.6129364E-1,-3.2057098E-1,-1.2647031E-2,-3.581721E-2,2.619556E-1,-1.1720238E-2,6.253937E-2,2.7204541E-2,-9.971174E-3,5.595609E-2,6.3800565E-3,-2.6371175E-2,2.6715416E-2,7.2999634E-3,-5.0724573E-2,-2.192039E-2,2.2246724E-2,1.5477802E-2,2.852716E-2,2.1012984E-2,-1.5646156E-3,1.30760195E-2,6.74862E-2,-5.1948726E-2,2.7533734E-2,-5.860673E-3,4.7928236E-2,-6.683006E-2,-1.689675E-2,-6.2489327E-2,4.107153E-2,7.133551E-2,-1.856686E-2,-2.088714E-2,5.866791E-2,3.2098662E-2,8.851969E-3,-2.6834263E-2,3.5777488E-3,-3.5030287E-2,-6.640185E-2,-3.2795772E-2,3.368562E-2,7.147104E-2,6.229955E-3,-2.9873336E-2,-8.589191E-3,-2.2132229E-2,-1.36319725E-2,3.2131553E-2,-4.337038E-3,2.5653148E-3,-6.073601E-3,3.8288154E-2,2.908019E-3],"categories":[],"categories_nodes":[],"categories_segments":[],"categories_sizes":[],"default_left":[0,0,0,0,0,0,0,0,0,0,0,0,0,0,0,0,0,0,0,0,0,0,0,0,0,0,0,0,0,0,0,0,0,0,0,0,0,0,0,0,0,0,0,0,0,0,0,0,0,0,0,0,0,0,0,0,0,0,0,0,0,0,0,0,0,0,0,0,0,0,0,0,0,0,0,0,0,0,0,0,0,0,0,0,0,0,0,0,0,0,0,0,0,0,0,0,0,0,0,0,0,0,0,0,0],"id":5,"left_children":[1,3,5,7,9,11,13,15,-1,17,19,21,23,25,27,-1,29,31,33,35,37,39,41,43,45,47,49,51,53,-1,55,57,59,61,63,65,67,69,71,73,75,77,79,81,83,85,87,89,91,93,95,97,99,101,103,-1,-1,-1,-1,-1,-1,-1,-1,-1,-1,-1,-1,-1,-1,-1,-1,-1,-1,-1,-1,-1,-1,-1,-1,-1,-1,-1,-1,-1,-1,-1,-1,-1,-1,-1,-1,-1,-1,-1,-1,-1,-1,-1,-1,-1,-1,-1,-1,-1,-1],"loss_changes":[1.4026369E2,1.4894638E1,4.1370613E1,3.7051525E0,1.2037621E1,8.925112E0,3.5889572E1,3.8868484E0,0E0,8.981983E0,1.102565E1,6.680511E0,8.696986E0,1.2091042E1,4.049969E1,0E0,1.2738228E-1,7.0966387E0,1.05358305E1,9.211479E0,9.922457E0,7.822255E0,4.56771E0,7.4511995E0,7.2442675E0,3.2702408E0,8.236019E0,1.5055E1,9.720326E0,0E0,2.303091E0,8.356923E0,6.28491E0,1.4432747E1,9.35454E0,7.3478947E0,9.322273E0,9.651021E0,1.0621962E1,4.116744E0,2.2949286E0,1.6412926E0,8.031417E0,5.5621076E0,7.65725E0,9.067308E0,7.368773E0,3.3779678E0,3.2423515E0,2.9460912E0,7.6551476E0,5.543236E0,9.3308525E0,7.404646E0,1.2610422E1,0E0,0E0,0E0,0E0,0E0,0E0,0E0,0E0,0E0,0E0,0E0,0E0,0E0,0E0,0E0,0E0,0E0,0E0,0E0,0E0,0E0,0E0,0E0,0E0,0E0,0E0,0E0,0E0,0E0,0E0,0E0,0E0,0E0,0E0,0E0,0E0,0E0,0E0,0E0,0E0,0E0,0E0,0E0,0E0,0E0,0E0,0E0,0E0,0E0,0E0],"parents":[2147483647,0,0,1,1,2,2,3,3,4,4,5,5,6,6,7,7,9,9,10,10,11,11,12,12,13,13,14,14,16,16,17,17,18,18,19,19,20,20,21,21,22,22,23,23,24,24,25,25,26,26,27,27,28,28,30,30,31,31,32,32,33,33,34,34,35,35,36,36,37,37,38,38,39,39,40,40,41,41,42,42,43,43,44,44,45,45,46,46,47,47,48,48,49,49,50,50,51,51,52,52,53,53,54,54],"right_children":[2,4,6,8,10,12,14,16,-1,18,20,22,24,26,28,-1,30,32,34,36,38,40,42,44,46,48,50,52,54,-1,56,58,60,62,64,66,68,70,72,74,76,78,80,82,84,86,88,90,92,94,96,98,100,102,104,-1,-1,-1,-1,-1,-1,-1,-1,-1,-1,-1,-1,-1,-1,-1,-1,-1,-1,-1,-1,-1,-1,-1,-1,-1,-1,-1,-1,-1,-1,-1,-1,-1,-1,-1,-1,-1,-1,-1,-1,-1,-1,-1,-1,-1,-1,-1,-1,-1,-1],"split_conditions":[-2.9635779E-3,-1.0587379E-1,-2.212042E-3,-4.302358E-2,5.504404E2,2.6374978E-3,1.401E1,2.466746E2,-7.619878E-3,6.3746E3,-1.7192982E-3,5.505767E2,-3.63769E-2,1.0561542E3,9.4886115E2,-1.1563842E-2,1.7042107E4,1.4294214E3,9.362E3,6.55E0,3.189411E-2,2.8630087E2,5.4223062E-3,-9.820213E-2,-5.8657066E-3,4.9517627E3,1.8804565E2,1.3822587E-2,4.5722104E3,7.8076966E-2,4.8230536E-2,8.260709E2,1.9305695E3,2.035953E-2,6.1911684E-1,3.1395803E3,2.8073E3,8.6214044E2,-5.5887485E-3,7.579333E-2,1.9616322E2,-1.0903873E-3,4.5255377E2,7.858724E3,1.7083767E-1,-5.1984128E-2,-5.556524E-3,1.0211627E3,2.203932E-2,-3.9045904E-2,4.335947E3,3.9473637E-3,3.3636526E2,1.5278326E3,2.2687E2,-1.1720238E-2,6.253937E-2,2.7204541E-2,-9.971174E-3,5.595609E-2,6.3800565E-3,-2.6371175E-2,2.6715416E-2,7.2999634E-3,-5.0724573E-2,-2.192039E-2,2.2246724E-2,1.5477802E-2,2.852716E-2,2.1012984E-2,-1.5646156E-3,1.30760195E-2,6.74862E-2,-5.1948726E-2,2.7533734E-2,-5.860673E-3,4.7928236E-2,-6.683006E-2,-1.689675E-2,-6.2489327E-2,4.107153E-2,7.133551E-2,-1.856686E-2,-2.088714E-2,5.866791E-2,3.2098662E-2,8.851969E-3,-2.6834263E-2,3.5777488E-3,-3.5030287E-2,-6.640185E-2,-3.2795772E-2,3.368562E-2,7.147104E-2,6.229955E-3,-2.9873336E-2,-8.589191E-3,-2.2132229E-2,-1.36319725E-2,3.2131553E-2,-4.337038E-3,2.5653148E-3,-6.073601E-3,3.8288154E-2,2.908019E-3],"split_indices":[34,36,36,40,43,44,2,43,0,2,36,41,38,41,4,0,4,37,3,2,38,43,42,38,36,35,43,44,4,0,44,4,41,42,24,4,39,43,34,22,39,40,4,37,5,42,36,39,44,42,35,44,37,37,0,0,0,0,0,0,0,0,0,0,0,0,0,0,0,0,0,0,0,0,0,0,0,0,0,0,0,0,0,0,0,0,0,0,0,0,0,0,0,0,0,0,0,0,0,0,0,0,0,0,0],"split_type":[0,0,0,0,0,0,0,0,0,0,0,0,0,0,0,0,0,0,0,0,0,0,0,0,0,0,0,0,0,0,0,0,0,0,0,0,0,0,0,0,0,0,0,0,0,0,0,0,0,0,0,0,0,0,0,0,0,0,0,0,0,0,0,0,0,0,0,0,0,0,0,0,0,0,0,0,0,0,0,0,0,0,0,0,0,0,0,0,0,0,0,0,0,0,0,0,0,0,0,0,0,0,0,0,0],"sum_hessian":[4.863075E3,1.5877776E3,3.2752979E3,1.6977455E1,1.5708002E3,7.520049E2,2.523293E3,1.5230614E1,1.7468418E0,3.846618E2,1.1861384E3,3.332784E1,7.1867706E2,2.5360143E2,2.2696914E3,1.2467053E0,1.3983909E1,8.642302E1,2.9823877E2,8.497964E2,3.36342E2,1.5530815E1,1.7797024E1,6.567073E1,6.530063E2,5.0745495E1,2.0285593E2,1.1570312E3,1.1126603E3,1.0988212E1,2.9956963E0,5.8754185E1,2.7668833E1,7.789269E1,2.2034608E2,3.914739E1,8.10649E2,2.904654E2,4.587661E1,6.8954425E0,8.635373E0,1.2105369E1,5.691656E0,5.726917E0,5.9943817E1,3.7158435E2,2.8142197E2,4.4084938E1,6.660555E0,7.0749245E0,1.95781E2,9.6699664E2,1.900346E2,9.904059E2,1.2225433E2,1.2479422E0,1.7477541E0,2.8115564E1,3.063862E1,1.7452517E1,1.0216316E1,6.273311E1,1.5159589E1,2.1415892E2,6.1871676E0,2.54874E1,1.365999E1,6.339573E2,1.7669168E2,5.842441E1,2.3204099E2,3.439804E1,1.1478568E1,5.4177036E0,1.4777391E0,2.4640548E0,6.171318E0,9.143057E0,2.962311E0,2.2246046E0,3.4670513E0,3.48759E0,2.239327E0,5.7704857E1,2.2389612E0,4.750593E1,3.2407843E2,2.0559734E1,2.608622E2,1.9819242E1,2.4265696E1,4.9295607E0,1.7309947E0,1.7239295E0,5.350995E0,1.3242854E2,6.335246E1,2.7031488E2,6.9668176E2,1.8525305E1,1.7150931E2,4.9119232E2,4.992136E2,3.4416035E1,8.7838295E1],"tree_param":{"num_deleted":"0","num_feature":"48","num_nodes":"105","size_leaf_vector":"1"}},{"base_weights":[1.803591E-3,2.3880863E-1,-1.0893347E-1,-7.965882E-2,2.660244E-1,1.02323435E-1,-1.6299272E-1,5.622254E-1,-1.9464716E-1,1.1640143E0,2.558913E-1,3.9300722E-1,7.342944E-2,-5.067737E-1,-1.2554155E-1,-1.8243338E-1,1.1626037E0,-6.5968597E-1,-5.8017652E-2,1.341831E0,-7.3785023E-3,-1.8517448E-1,2.7250293E-1,-8.312428E-1,4.9365464E-1,-8.1800056E-1,8.65015E-2,-8.81573E-1,-3.9391774E-1,-2.0734107E-1,3.1996515E-2,5.9363467E-1,-7.044421E-1,1.4452803E0,4.0556753E-1,-8.737384E-1,5.483973E-2,4.1936193E-2,-9.239705E-1,2.636545E-2,1.4167248E0,4.9941045E-1,-4.168749E-1,3.417353E-1,1.7441341E-1,5.2049966E-3,-6.317148E-2,8.3713554E-2,3.903046E-1,-6.686924E-2,1.6614008E-1,-3.7621227E-3,1.7647165E-1,-1.013859E0,-4.7948968E-1,1.9283296E-1,-4.655381E-1,-2.2865601E-1,1.4388768E-1,2.3612393E-1,-1.6334873E-2,-9.222349E-3,6.0548794E-2,-5.647778E-2,4.885857E-3,8.275174E-2,1.2188658E-2,-3.0278912E-2,5.1311452E-2,-5.067562E-3,-5.5741776E-2,1.388399E-2,-1.5271573E-2,-6.8521574E-2,5.238104E-3,7.611445E-2,2.5396107E-2,-3.5908304E-3,5.4034423E-2,2.5886184E-2,-3.047702E-2,1.5264901E-2,3.8019273E-2,-4.0920462E-2,9.445059E-3,3.343674E-2,5.1386706E-3,-4.942822E-2,5.2461285E-2,1.14081865E-2,-4.9292347E-3,1.4997192E-2,-7.583291E-4,-9.239399E-3,-5.4815598E-2,-5.572862E-2,3.1180212E-2,-3.393699E-2,2.9033199E-2,-3.0180166E-2,-1.2696919E-2,-1.5126452E-2,-7.3727467E-3,-1.5520131E-3,2.8821472E-2,2.7609153E-2,5.7330686E-3,-1.1034142E-2,2.2404555E-3],"categories":[],"categories_nodes":[],"categories_segments":[],"categories_sizes":[],"default_left":[0,0,0,0,0,0,0,0,0,0,0,0,0,0,0,0,0,0,0,0,0,0,0,0,0,0,0,0,0,0,0,0,0,0,0,0,0,0,0,0,0,0,0,0,0,0,0,0,0,0,0,0,0,0,0,0,0,0,0,0,0,0,0,0,0,0,0,0,0,0,0,0,0,0,0,0,0,0,0,0,0,0,0,0,0,0,0,0,0,0,0,0,0,0,0,0,0,0,0,0,0,0,0,0,0,0,0,0,0],"id":6,"left_children":[1,3,5,7,9,11,13,15,17,19,21,23,25,27,29,31,33,35,37,39,-1,41,43,45,47,49,51,53,55,57,59,61,63,65,67,69,-1,71,73,-1,75,77,79,81,83,-1,-1,-1,85,-1,87,89,91,93,95,97,99,101,103,105,107,-1,-1,-1,-1,-1,-1,-1,-1,-1,-1,-1,-1,-1,-1,-1,-1,-1,-1,-1,-1,-1,-1,-1,-1,-1,-1,-1,-1,-1,-1,-1,-1,-1,-1,-1,-1,-1,-1,-1,-1,-1,-1,-1,-1,-1,-1,-1,-1],"loss_changes":[1.2617661E2,1.3290527E1,3.7437298E1,9.062675E0,1.2538307E1,5.583743E0,3.3532455E1,8.566235E0,6.545305E0,3.8033237E0,1.0280151E1,7.826605E0,7.1679935E0,1.0481583E1,3.0346626E1,4.147343E0,1.6567202E0,9.768715E0,7.0655785E0,8.943176E-2,0E0,8.34074E0,9.0805435E0,2.1304529E0,6.2091627E0,4.7703056E0,4.882695E0,2.6222763E0,8.434401E0,1.1635765E1,7.951107E0,2.2621555E0,2.143043E0,1.4215088E0,3.2821617E0,3.8803844E0,0E0,6.123255E0,4.021988E0,0E0,3.7465668E-1,4.5335593E0,7.3113194E0,1.1788109E1,8.194317E0,0E0,0E0,0E0,4.175932E0,0E0,5.078528E0,6.643549E0,7.128934E0,2.7420197E0,1.2159219E1,7.934919E0,5.0253754E0,8.72271E0,6.773756E0,5.8593607E0,8.159638E0,0E0,0E0,0E0,0E0,0E0,0E0,0E0,0E0,0E0,0E0,0E0,0E0,0E0,0E0,0E0,0E0,0E0,0E0,0E0,0E0,0E0,0E0,0E0,0E0,0E0,0E0,0E0,0E0,0E0,0E0,0E0,0E0,0E0,0E0,0E0,0E0,0E0,0E0,0E0,0E0,0E0,0E0,0E0,0E0,0E0,0E0,0E0,0E0],"parents":[2147483647,0,0,1,1,2,2,3,3,4,4,5,5,6,6,7,7,8,8,9,9,10,10,11,11,12,12,13,13,14,14,15,15,16,16,17,17,18,18,19,19,21,21,22,22,23,23,24,24,25,25,26,26,27,27,28,28,29,29,30,30,31,31,32,32,33,33,34,34,35,35,37,37,38,38,40,40,41,41,42,42,43,43,44,44,48,48,50,50,51,51,52,52,53,53,54,54,55,55,56,56,57,57,58,58,59,59,60,60],"right_children":[2,4,6,8,10,12,14,16,18,20,22,24,26,28,30,32,34,36,38,40,-1,42,44,46,48,50,52,54,56,58,60,62,64,66,68,70,-1,72,74,-1,76,78,80,82,84,-1,-1,-1,86,-1,88,90,92,94,96,98,100,102,104,106,108,-1,-1,-1,-1,-1,-1,-1,-1,-1,-1,-1,-1,-1,-1,-1,-1,-1,-1,-1,-1,-1,-1,-1,-1,-1,-1,-1,-1,-1,-1,-1,-1,-1,-1,-1,-1,-1,-1,-1,-1,-1,-1,-1,-1,-1,-1,-1,-1],"split_conditions":[-3.1486833E-3,2.7313876E2,-2.9130038E-3,6.25E3,-1.0587379E-1,2.5284471E2,1.401E1,6.3833E2,9.153E3,-4.163524E-2,6.61E0,6.1357105E1,2.9221235E-3,1.2E3,1.381225E3,1.9628206E2,2.403108E2,6.2823296E-3,9.386428E2,2.8986974E-2,-7.3785023E-3,4.9E0,-5.8657066E-3,-4.5095826E-3,-1.426262E-1,-2.0615046E-3,1.0900774E3,3.5149106E3,-7.155635E-4,2.442032E3,2.2654E2,-4.685474E-3,2.403108E2,4.7105746E-3,4.3912198E2,-4.637097E-2,5.483973E-2,-5.0976644E-3,-2.2334156E-3,2.636545E-2,-4.0384617E-2,4.77E0,6.535267E2,2.2190189E-2,-5.7142857E-3,5.2049966E-3,-6.317148E-2,8.3713554E-2,3.8472156E2,-6.686924E-2,4.0464288E2,-1.9111168E-2,4.9261083E-3,3.5188878E-3,1.2685728E-2,1.7429202E3,3.5822822E3,8.2916E3,1.9900719E-2,1.5278326E3,3.4975E2,-9.222349E-3,6.0548794E-2,-5.647778E-2,4.885857E-3,8.275174E-2,1.2188658E-2,-3.0278912E-2,5.1311452E-2,-5.067562E-3,-5.5741776E-2,1.388399E-2,-1.5271573E-2,-6.8521574E-2,5.238104E-3,7.611445E-2,2.5396107E-2,-3.5908304E-3,5.4034423E-2,2.5886184E-2,-3.047702E-2,1.5264901E-2,3.8019273E-2,-4.0920462E-2,9.445059E-3,3.343674E-2,5.1386706E-3,-4.942822E-2,5.2461285E-2,1.14081865E-2,-4.9292347E-3,1.4997192E-2,-7.583291E-4,-9.239399E-3,-5.4815598E-2,-5.572862E-2,3.1180212E-2,-3.393699E-2,2.9033199E-2,-3.0180166E-2,-1.2696919E-2,-1.5126452E-2,-7.3727467E-3,-1.5520131E-3,2.8821472E-2,2.7609153E-2,5.7330686E-3,-1.1034142E-2,2.2404555E-3],"split_indices":[34,43,36,3,36,4,2,0,2,40,3,4,45,41,4,43,43,38,41,45,0,3,36,38,24,40,4,37,36,41,3,38,43,40,39,47,0,47,40,0,34,3,39,40,36,0,0,0,37,0,39,47,34,45,47,39,4,3,45,43,0,0,0,0,0,0,0,0,0,0,0,0,0,0,0,0,0,0,0,0,0,0,0,0,0,0,0,0,0,0,0,0,0,0,0,0,0,0,0,0,0,0,0,0,0,0,0,0,0],"split_type":[0,0,0,0,0,0,0,0,0,0,0,0,0,0,0,0,0,0,0,0,0,0,0,0,0,0,0,0,0,0,0,0,0,0,0,0,0,0,0,0,0,0,0,0,0,0,0,0,0,0,0,0,0,0,0,0,0,0,0,0,0,0,0,0,0,0,0,0,0,0,0,0,0,0,0,0,0,0,0,0,0,0,0,0,0,0,0,0,0,0,0,0,0,0,0,0,0,0,0,0,0,0,0,0,0,0,0,0,0],"sum_hessian":[4.8056084E3,1.5299583E3,3.2756501E3,1.2030248E2,1.4096558E3,6.672452E2,2.608405E3,1.7686129E1,1.02616356E2,1.4458739E1,1.395197E3,5.9188297E1,6.080569E2,2.5501123E2,2.3533938E3,8.205211E0,9.480919E0,2.2433233E1,8.018312E1,1.2712231E1,1.7465082E0,5.0271088E1,1.3449259E3,3.944874E0,5.5243423E1,7.8978567E0,6.00159E2,5.7439793E1,1.9757144E2,1.5488553E3,8.045384E2,3.2444658E0,4.9607453E0,6.2412953E0,3.2396233E0,2.0444357E1,1.9888766E0,7.273872E1,7.444399E0,1.7475184E0,1.0964712E1,1.2419844E1,3.7851246E1,7.8698303E2,5.579429E2,1.4866294E0,2.4582448E0,3.2232058E0,5.2020214E1,4.9346433E0,2.9632137E0,3.0006918E2,3.0008984E2,4.207541E1,1.5364386E1,2.1308542E1,1.762629E2,1.4605673E3,8.828811E1,1.5327911E2,6.512593E2,1.7455904E0,1.4988754E0,2.9756315E0,1.9851136E0,4.9922943E0,1.2490008E0,1.2414412E0,1.9981822E0,5.2013855E0,1.5242971E1,4.3451E1,2.9287724E1,4.959754E0,2.4846447E0,9.218827E0,1.7458848E0,6.7061257E0,5.7137184E0,6.1809573E0,3.1670286E1,7.2556287E2,6.142019E1,7.2266006E0,5.5071625E2,2.5754814E1,2.6265402E1,1.2323607E0,1.730853E0,8.6672165E1,2.1339702E2,1.8215958E2,1.1793027E2,4.0991592E0,3.797625E1,9.744051E0,5.6203346E0,6.3309364E0,1.4977606E1,1.0554441E2,7.071848E1,7.633661E2,6.972012E2,6.3525467E1,2.4762644E1,4.1568123E1,1.11711E2,1.49387E2,5.0187228E2],"tree_param":{"num_deleted":"0","num_feature":"48","num_nodes":"109","size_leaf_vector":"1"}},{"base_weights":[-7.7849734E-3,2.273285E-1,-9.730062E-2,1.1117047E0,2.1530916E-1,2.7585445E-2,-1.6050239E-1,1.2696276E0,2.5213215E-1,2.856482E-1,1.169991E-1,1.827689E-2,7.0712656E-1,-4.584615E-1,-1.2626049E-1,1.397275E0,1.940034E-2,-3.1760745E-2,4.4280156E-2,1.4212741E-1,4.730969E-1,4.6447632E-1,7.7503845E-2,1.3562126E-1,-3.428179E-2,-5.2476853E-2,9.277978E-1,-7.591176E-1,-3.382324E-1,-2.0626268E-1,1.384448E-2,7.565774E-2,1.6404947E-2,6.544089E-1,8.361631E-2,2.5718668E-1,5.717938E-1,5.4251397E-1,-4.888127E-2,9.527805E-2,-4.8224628E-1,-1.645779E-1,2.2441125E-1,-1.8957172E-2,-5.0171185E-1,-1.4171973E-2,1.0858679E0,-4.4215065E-1,-9.903309E-1,-2.1148694E-1,-7.390576E-1,-3.3751222E-1,-1.2335422E-1,3.925633E-2,-4.1656893E-1,5.5885382E-2,1.3047284E-2,5.1893303E-3,-4.848179E-2,1.904223E-2,-2.1924684E-2,3.0692374E-2,-2.1459153E-3,6.451898E-2,1.8214414E-2,2.5988105E-3,2.2201162E-2,-3.6342245E-2,1.37816025E-2,-2.2220971E-2,8.286269E-3,-7.4702897E-3,1.5801454E-2,-4.0428503E-3,7.4469917E-3,2.4947004E-2,-3.8353648E-2,6.12943E-2,-7.14617E-3,-4.212457E-2,-6.403792E-3,-5.9151627E-2,-2.6060877E-2,-1.7547227E-2,4.14427E-3,1.9510768E-4,-4.5510076E-2,-6.0080118E-3,-2.1592429E-2,-7.4183866E-3,2.0389713E-2,1.4870618E-3,5.8698844E-2,2.6660884E-2,-2.7778465E-2],"categories":[],"categories_nodes":[],"categories_segments":[],"categories_sizes":[],"default_left":[0,0,0,0,0,0,0,0,0,0,0,0,0,0,0,0,0,0,0,0,0,0,0,0,0,0,0,0,0,0,0,0,0,0,0,0,0,0,0,0,0,0,0,0,0,0,0,0,0,0,0,0,0,0,0,0,0,0,0,0,0,0,0,0,0,0,0,0,0,0,0,0,0,0,0,0,0,0,0,0,0,0,0,0,0,0,0,0,0,0,0,0,0,0,0],"id":7,"left_children":[1,3,5,7,9,11,13,15,17,19,21,23,25,27,29,31,-1,-1,-1,33,35,37,39,41,43,-1,45,47,49,51,53,-1,-1,55,57,59,61,63,-1,65,67,69,71,73,75,-1,77,79,81,83,85,87,89,91,93,-1,-1,-1,-1,-1,-1,-1,-1,-1,-1,-1,-1,-1,-1,-1,-1,-1,-1,-1,-1,-1,-1,-1,-1,-1,-1,-1,-1,-1,-1,-1,-1,-1,-1,-1,-1,-1,-1,-1,-1],"loss_changes":[1.01855316E2,1.3945984E1,2.7669567E1,2.0762978E0,9.079601E0,7.442474E0,2.3687809E1,1.1082935E0,2.804108E0,2.0581184E1,7.530379E0,7.181833E0,7.137449E0,8.401257E0,2.341647E1,1.0431309E0,0E0,0E0,0E0,1.3017733E1,6.9361877E0,6.8404293E0,4.9833565E0,9.637735E0,5.753453E0,0E0,3.113945E0,4.517544E0,8.627583E0,1.4427746E1,8.330901E0,0E0,0E0,7.831217E0,8.440429E0,9.293967E0,5.902298E0,6.705538E0,0E0,7.2531533E0,3.0622377E0,7.726486E0,9.581885E0,8.118688E0,7.153753E0,0E0,2.4414368E0,3.7052145E0,2.844799E0,5.479377E0,5.2343273E0,1.0491344E1,1.0908423E1,7.725026E0,5.9025607E0,0E0,0E0,0E0,0E0,0E0,0E0,0E0,0E0,0E0,0E0,0E0,0E0,0E0,0E0,0E0,0E0,0E0,0E0,0E0,0E0,0E0,0E0,0E0,0E0,0E0,0E0,0E0,0E0,0E0,0E0,0E0,0E0,0E0,0E0,0E0,0E0,0E0,0E0,0E0,0E0],"parents":[2147483647,0,0,1,1,2,2,3,3,4,4,5,5,6,6,7,7,8,8,9,9,10,10,11,11,12,12,13,13,14,14,15,15,19,19,20,20,21,21,22,22,23,23,24,24,26,26,27,27,28,28,29,29,30,30,33,33,34,34,35,35,36,36,37,37,39,39,40,40,41,41,42,42,43,43,44,44,46,46,47,47,48,48,49,49,50,50,51,51,52,52,53,53,54,54],"right_children":[2,4,6,8,10,12,14,16,18,20,22,24,26,28,30,32,-1,-1,-1,34,36,38,40,42,44,-1,46,48,50,52,54,-1,-1,56,58,60,62,64,-1,66,68,70,72,74,76,-1,78,80,82,84,86,88,90,92,94,-1,-1,-1,-1,-1,-1,-1,-1,-1,-1,-1,-1,-1,-1,-1,-1,-1,-1,-1,-1,-1,-1,-1,-1,-1,-1,-1,-1,-1,-1,-1,-1,-1,-1,-1,-1,-1,-1,-1,-1],"split_conditions":[-4.352379E-3,-1.0587379E-1,-1.9266762E-4,-7.841582E-2,-7.446016E-3,7.2897196E-2,1.401E1,1.7042107E4,4.4511973E3,1.3671832E3,-3.3035714E-2,-8.46888E-3,-2.9285949E-2,1.381225E3,1.9822216E-2,8.5227534E-2,1.940034E-2,-3.1760745E-2,4.4280156E-2,3.9070615E2,1.4301906E3,9.848402E-2,6.617288E3,-3.138023E-2,2.1571038E-2,-5.2476853E-2,5.307585E2,1.5853443E-3,1.3806043E-2,5.7568457E-3,2.8222632E-1,7.565774E-2,1.6404947E-2,-9.112893E-3,2.1E1,2.5775526E-2,5.133235E-2,8.530486E2,-4.888127E-2,3.0368633E3,2.7528984E-2,-2.9872341E-2,4.9580112E2,1.142747E-2,1.0991543E3,-1.4171973E-2,3.22182E4,1.5921816E3,1.5785037E-2,2.3626227E-2,2.3526938E3,4.52E2,4.0127705E3,2.5804535E-1,8.246322E-3,5.5885382E-2,1.3047284E-2,5.1893303E-3,-4.848179E-2,1.904223E-2,-2.1924684E-2,3.0692374E-2,-2.1459153E-3,6.451898E-2,1.8214414E-2,2.5988105E-3,2.2201162E-2,-3.6342245E-2,1.37816025E-2,-2.2220971E-2,8.286269E-3,-7.4702897E-3,1.5801454E-2,-4.0428503E-3,7.4469917E-3,2.4947004E-2,-3.8353648E-2,6.12943E-2,-7.14617E-3,-4.212457E-2,-6.403792E-3,-5.9151627E-2,-2.6060877E-2,-1.7547227E-2,4.14427E-3,1.9510768E-4,-4.5510076E-2,-6.0080118E-3,-2.1592429E-2,-7.4183866E-3,2.0389713E-2,1.4870618E-3,5.8698844E-2,2.6660884E-2,-2.7778465E-2],"split_indices":[34,36,36,40,36,40,2,4,4,37,40,36,38,4,40,45,0,0,0,4,41,5,4,38,38,0,37,38,34,44,5,0,0,34,15,45,45,37,0,4,36,36,39,45,37,0,0,41,36,47,4,2,4,5,45,0,0,0,0,0,0,0,0,0,0,0,0,0,0,0,0,0,0,0,0,0,0,0,0,0,0,0,0,0,0,0,0,0,0,0,0,0,0,0,0],"split_type":[0,0,0,0,0,0,0,0,0,0,0,0,0,0,0,0,0,0,0,0,0,0,0,0,0,0,0,0,0,0,0,0,0,0,0,0,0,0,0,0,0,0,0,0,0,0,0,0,0,0,0,0,0,0,0,0,0,0,0,0,0,0,0,0,0,0,0,0,0,0,0,0,0,0,0,0,0,0,0,0,0,0,0,0,0,0,0,0,0,0,0,0,0,0,0],"sum_hessian":[4.837524E3,1.3335104E3,3.5040137E3,1.6653618E1,1.3168567E3,1.1776172E3,2.3263965E3,1.3665848E1,2.9877696E0,7.6652014E2,5.5033655E2,1.1627169E3,1.4900344E1,2.3851826E2,2.0878782E3,1.14265375E1,2.2393105E0,1.2433581E0,1.7444115E0,4.3512408E2,3.313961E2,5.5070328E1,4.9526624E2,3.5919193E2,8.0352496E2,1.2437E0,1.3656644E1,6.661661E1,1.7190166E2,1.3286981E3,7.591802E2,9.934555E0,1.4919822E0,4.3559944E1,3.9156412E2,1.0509503E2,2.2630106E2,5.2835026E1,2.235302E0,4.808279E2,1.4438336E1,8.179369E1,2.7739822E2,7.790253E2,2.4499662E1,1.4849392E0,1.2171705E1,2.9326143E1,3.729047E1,1.31764E2,4.013765E1,5.1319916E2,8.154989E2,7.1771466E2,4.1465485E1,1.9159336E1,2.440061E1,3.850909E2,6.473221E0,8.961792E1,1.5477116E1,2.1181195E2,1.4489092E1,8.967155E0,4.386787E1,4.2874228E2,5.208562E1,1.0946424E1,3.4919136E0,4.409217E1,3.770152E1,5.447988E1,2.2291835E2,5.695599E2,2.0946545E2,4.9507217E0,1.954894E1,1.09287615E1,1.2429436E0,1.2152851E1,1.717329E1,2.5353823E1,1.19366455E1,8.927716E1,4.2486843E1,7.6977654E0,3.2439884E1,1.5601427E2,3.571849E2,7.795099E2,3.598901E1,7.127641E2,4.9506054E0,4.9316344E0,3.653385E1],"tree_param":{"num_deleted":"0","num_feature":"48","num_nodes":"95","size_leaf_vector":"1"}},{"base_weights":[7.818565E-3,1.9863412E-1,-1.0062185E-1,2.0549297E-1,-5.3800267E-1,-3.0305812E-1,-6.126094E-2,-2.7311651E-2,2.2458468E-1,5.539317E-1,-1.1363351E0,-3.2081947E-1,3.2708555E-1,-3.3826062E-1,-3.0605419E-2,-4.401102E-1,1.6978194E-1,2.7270418E-1,1.2984775E-1,6.684477E-2,-4.991101E-1,-1.3646083E0,-3.9533243E-1,1.7723823E-1,-3.4073922E-1,-3.0493155E-1,8.7779063E-1,-7.846057E-1,-2.1405724E-1,-1.0257617E-1,8.298104E-2,-1.3169724E-1,-8.7887675E-1,3.3640006E-1,-1.8760386E-1,2.4627633E-1,5.298513E-1,5.521846E-3,3.1444672E-1,-5.303058E-2,1.424764E-2,-1.5527636E-2,-7.7994116E-2,1.5018749E-2,-4.105439E-2,-7.710008E-1,4.6602568E-1,-1.6136561E-1,-4.0135548E-1,3.7567753E-2,-6.417773E-1,1.2011334E0,1.6738212E-3,-9.8083043E-1,3.352582E-1,6.029077E-1,-2.828896E-1,-2.3304692E-3,-1.8277013E-1,3.1708387E-1,2.5815655E-2,-1.4991142E-2,5.8223557E-2,2.544084E-2,-5.1925827E-2,2.468384E-2,-2.9578483E-2,-2.637969E-2,3.2193214E-2,9.678145E-3,1.876404E-2,-1.1018243E-2,3.0981207E-2,-1.6518025E-2,5.7702227E-3,3.9259907E-2,1.0270001E-2,1.9529264E-2,-6.3131884E-2,-2.0803632E-2,4.4290297E-2,-5.1197945E-3,-6.429573E-2,-2.8770447E-2,-1.5003023E-2,2.5769302E-3,-5.2123297E-2,7.656451E-2,7.8555085E-3,-5.5110764E-2,-3.1757753E-2,-1.5673595E-2,3.6618184E-2,-1.28863E-3,5.7035603E-2,1.1284395E-2,-1.7401153E-2,-2.237858E-3,2.5690436E-2,4.3485396E-2,-9.8080365E-3,9.051514E-3,4.575203E-2,-1.5775902E-3,1.33498525E-2],"categories":[],"categories_nodes":[],"categories_segments":[],"categories_sizes":[],"default_left":[0,0,0,0,0,0,0,0,0,0,0,0,0,0,0,0,0,0,0,0,0,0,0,0,0,0,0,0,0,0,0,0,0,0,0,0,0,0,0,0,0,0,0,0,0,0,0,0,0,0,0,0,0,0,0,0,0,0,0,0,0,0,0,0,0,0,0,0,0,0,0,0,0,0,0,0,0,0,0,0,0,0,0,0,0,0,0,0,0,0,0,0,0,0,0,0,0,0,0,0,0,0,0,0,0],"id":8,"left_children":[1,3,5,7,9,11,13,15,17,19,21,23,25,27,29,31,33,35,37,-1,39,41,43,45,47,49,51,53,55,57,59,61,63,65,67,69,71,73,75,-1,-1,-1,-1,-1,-1,77,79,81,83,-1,85,87,-1,89,91,93,95,97,99,101,103,-1,-1,-1,-1,-1,-1,-1,-1,-1,-1,-1,-1,-1,-1,-1,-1,-1,-1,-1,-1,-1,-1,-1,-1,-1,-1,-1,-1,-1,-1,-1,-1,-1,-1,-1,-1,-1,-1,-1,-1,-1,-1,-1,-1],"loss_changes":[9.984841E1,8.945122E0,2.4498442E1,7.7093887E0,1.1348865E1,5.707966E0,2.1874834E1,1.0834645E1,7.2671814E0,6.010125E0,1.3088255E0,4.8959923E0,5.216625E0,1.4063286E1,1.8987175E1,5.7053366E0,5.4362764E0,7.0827103E0,1.2425726E1,0E0,1.8394208E0,1.1510305E0,1.4258856E0,5.6722584E0,5.034645E0,3.1019475E0,2.1045132E0,1.2526394E1,1.1540978E1,1.1427723E1,1.2049601E1,6.110263E0,4.4228725E0,9.326271E0,8.632099E0,6.485283E0,6.7401314E0,1.2017885E1,1.102457E1,0E0,0E0,0E0,0E0,0E0,0E0,3.2949438E0,6.106381E0,7.8347692E0,5.9957695E0,0E0,1.7544184E0,1.7075844E0,0E0,1.2924385E0,2.5535908E0,5.449805E0,6.2785616E0,1.3880338E1,1.1300938E1,1.4213387E1,1.0043094E1,0E0,0E0,0E0,0E0,0E0,0E0,0E0,0E0,0E0,0E0,0E0,0E0,0E0,0E0,0E0,0E0,0E0,0E0,0E0,0E0,0E0,0E0,0E0,0E0,0E0,0E0,0E0,0E0,0E0,0E0,0E0,0E0,0E0,0E0,0E0,0E0,0E0,0E0,0E0,0E0,0E0,0E0,0E0,0E0],"parents":[2147483647,0,0,1,1,2,2,3,3,4,4,5,5,6,6,7,7,8,8,9,9,10,10,11,11,12,12,13,13,14,14,15,15,16,16,17,17,18,18,20,20,21,21,22,22,23,23,24,24,25,25,26,26,27,27,28,28,29,29,30,30,31,31,32,32,33,33,34,34,35,35,36,36,37,37,38,38,45,45,46,46,47,47,48,48,50,50,51,51,53,53,54,54,55,55,56,56,57,57,58,58,59,59,60,60],"right_children":[2,4,6,8,10,12,14,16,18,20,22,24,26,28,30,32,34,36,38,-1,40,42,44,46,48,50,52,54,56,58,60,62,64,66,68,70,72,74,76,-1,-1,-1,-1,-1,-1,78,80,82,84,-1,86,88,-1,90,92,94,96,98,100,102,104,-1,-1,-1,-1,-1,-1,-1,-1,-1,-1,-1,-1,-1,-1,-1,-1,-1,-1,-1,-1,-1,-1,-1,-1,-1,-1,-1,-1,-1,-1,-1,-1,-1,-1,-1,-1,-1,-1,-1,-1,-1,-1,-1,-1],"split_conditions":[-2.1279245E-3,2E1,4.1859355E-3,2.6003067E2,1.1035183E-2,5.239712E3,1.323E1,6.2965313E-3,-7.6923077E-4,2.5716275E-1,-3.4602077E-3,-1.8028846E-3,3.806027E3,1.0561542E3,1.381225E3,5.2780025E-3,6.830776E2,3.87E4,1.4665811E-2,6.684477E-2,8.0939464E-2,-2.7984422E-2,3.05237E-3,2.9229135E2,-1.142611E-3,-9.3105424E-4,7.858724E3,4.6961265E3,-1.5895303E-2,1.8112831E-3,2.1875E-3,5.303535E-3,-2.155948E-2,1.1206825E3,8.8101556E2,2.2043325E3,2.0532808E2,-3.465704E-3,7.6535895E2,-5.303058E-2,1.424764E-2,-1.5527636E-2,-7.7994116E-2,1.5018749E-2,-4.105439E-2,1.5973381E2,-3.465704E-3,3.5959897E-3,4.2405E2,3.7567753E-2,2.8784417E-3,3.3113984E-3,1.6738212E-3,2.1027314E3,1.0468235E-2,-2.0301301E-2,1.510647E3,2.4708928E3,1.0049557E2,4.16721E3,4.335947E3,-1.4991142E-2,5.8223557E-2,2.544084E-2,-5.1925827E-2,2.468384E-2,-2.9578483E-2,-2.637969E-2,3.2193214E-2,9.678145E-3,1.876404E-2,-1.1018243E-2,3.0981207E-2,-1.6518025E-2,5.7702227E-3,3.9259907E-2,1.0270001E-2,1.9529264E-2,-6.3131884E-2,-2.0803632E-2,4.4290297E-2,-5.1197945E-3,-6.429573E-2,-2.8770447E-2,-1.5003023E-2,2.5769302E-3,-5.2123297E-2,7.656451E-2,7.8555085E-3,-5.5110764E-2,-3.1757753E-2,-1.5673595E-2,3.6618184E-2,-1.28863E-3,5.7035603E-2,1.1284395E-2,-1.7401153E-2,-2.237858E-3,2.5690436E-2,4.3485396E-2,-9.8080365E-3,9.051514E-3,4.575203E-2,-1.5775902E-3,1.33498525E-2],"split_indices":[34,15,44,41,24,37,2,44,38,17,38,34,41,41,4,45,4,0,44,0,27,34,38,37,38,34,41,4,38,38,34,44,40,39,37,41,39,40,41,0,0,0,0,0,0,37,40,34,4,0,44,34,0,4,44,40,41,41,41,2,4,0,0,0,0,0,0,0,0,0,0,0,0,0,0,0,0,0,0,0,0,0,0,0,0,0,0,0,0,0,0,0,0,0,0,0,0,0,0,0,0,0,0,0,0],"split_type":[0,0,0,0,0,0,0,0,0,0,0,0,0,0,0,0,0,0,0,0,0,0,0,0,0,0,0,0,0,0,0,0,0,0,0,0,0,0,0,0,0,0,0,0,0,0,0,0,0,0,0,0,0,0,0,0,0,0,0,0,0,0,0,0,0,0,0,0,0,0,0,0,0,0,0,0,0,0,0,0,0,0,0,0,0,0,0,0,0,0,0,0,0,0,0,0,0,0,0,0,0,0,0,0,0],"sum_hessian":[4.8234663E3,1.7475625E3,3.075904E3,1.7321554E3,1.5407101E1,4.9961987E2,2.5762842E3,1.3125085E2,1.6009045E3,5.4801817E0,9.926919E0,4.8640097E2,1.3218899E1,2.5570741E2,2.3205767E3,4.201675E1,8.923411E1,1.0604131E3,5.404914E2,2.988557E0,2.4916246E0,6.945668E0,2.981251E0,1.8401701E1,4.6799927E2,6.3628535E0,6.8560452E0,5.4507782E1,2.0119963E2,1.4205706E3,9.0000616E2,2.5437006E1,1.6579746E1,6.0900284E1,2.833382E1,9.6336285E2,9.705019E1,3.2358765E2,2.1690376E2,1.2463481E0,1.2452765E0,1.4905081E0,5.45516E0,1.2436115E0,1.7376395E0,3.9061143E0,1.4495586E1,1.1913149E2,3.4886777E2,1.2409378E0,5.121916E0,4.6519117E0,2.2041337E0,4.648648E1,8.0213E0,1.5031626E1,1.8616801E2,6.318107E2,7.887598E2,1.757462E2,7.2425995E2,2.3196836E1,2.2401695E0,1.4848831E0,1.5094863E1,5.2474636E1,8.42565E0,2.0369951E1,7.9638686E0,6.856819E2,2.77681E2,1.0216658E1,8.6833534E1,7.927087E1,2.4431679E2,3.962843E1,1.7727533E2,1.2227275E0,2.6833868E0,4.6768327E0,9.818753E0,1.1423236E2,4.899125E0,1.2661939E2,2.222484E2,2.195095E0,2.926821E0,3.1796682E0,1.4722433E0,3.278526E1,1.3701222E1,3.125669E0,4.8956313E0,7.36924E0,7.6623864E0,2.0855816E1,1.653122E2,5.8466455E2,4.71462E1,9.105859E0,7.7965393E2,1.4423178E2,3.1514427E1,5.857924E2,1.3846753E2],"tree_param":{"num_deleted":"0","num_feature":"48","num_nodes":"105","size_leaf_vector":"1"}},{"base_weights":[4.5289183E-3,1.3657244E-1,-7.432479E-2,7.122738E-2,2.6197374E-1,-3.4963116E-1,-4.58451E-2,-4.6726906E-1,9.010126E-2,7.5814366E-1,2.3236257E-1,-4.6011886E-1,-9.31278E-3,-1.6592348E-1,1.8584218E-2,-7.840959E-1,6.529964E-2,-7.101552E-2,1.21219136E-1,-3.6502007E-1,8.666095E-1,2.4310328E-1,-6.066956E-2,3.7676133E-2,-4.7781312E-1,-4.382827E-1,1.6919857E-1,1.8782373E-1,-2.3486683E-1,-4.453515E-2,1.02894954E-1,-1.5879366E-1,-1.0178899E0,6.240579E-1,-6.309321E-1,-1.9852647E-1,2.2194333E-1,1.7470676E-1,-1.0108112E-2,1.7989848E-2,-5.059011E-2,1.1508263E0,3.032201E-1,2.344095E-1,7.600972E-2,-7.013121E-1,-3.727332E-1,4.4369932E-2,-6.4325094E-1,-4.1447192E-1,3.1421906E-1,2.7994734E-1,-3.9615068E-1,-2.4608402E-1,6.853403E-1,-1.3205235E-1,4.148475E-2,3.7565422E-1,7.487531E-2,3.103658E-2,-3.0424802E-2,-5.7511277E-2,-2.1435998E-3,5.3548384E-2,1.6110316E-4,-3.8900238E-3,-6.368045E-2,-1.7145191E-3,-2.5955966E-2,2.0495735E-2,-2.9435167E-2,9.030476E-3,-6.157248E-2,-2.6398469E-2,3.432649E-3,6.460618E-2,-1.9789774E-2,4.5654926E-2,-1.1183668E-2,1.4352227E-2,4.088965E-3,1.728719E-2,-3.85238E-2,-3.493304E-2,-1.02643855E-2,-7.041166E-2,-1.812524E-2,3.1508084E-2,-5.6687552E-2,-1.9032335E-2,2.2114657E-2,-6.0101967E-2,1.5408876E-2,-5.414903E-2,6.874725E-3,-4.4391096E-2,-1.1639857E-2,5.397762E-2,-1.29993735E-2,3.2029837E-2,-7.6411553E-3,1.0239454E-2,-2.7135788E-3,1.0614996E-2,5.8316972E-2,-2.777741E-3,7.955134E-3],"categories":[],"categories_nodes":[],"categories_segments":[],"categories_sizes":[],"default_left":[0,0,0,0,0,0,0,0,0,0,0,0,0,0,0,0,0,0,0,0,0,0,0,0,0,0,0,0,0,0,0,0,0,0,0,0,0,0,0,0,0,0,0,0,0,0,0,0,0,0,0,0,0,0,0,0,0,0,0,0,0,0,0,0,0,0,0,0,0,0,0,0,0,0,0,0,0,0,0,0,0,0,0,0,0,0,0,0,0,0,0,0,0,0,0,0,0,0,0,0,0,0,0,0,0,0,0],"id":9,"left_children":[1,3,5,7,9,11,13,15,17,19,21,23,25,27,29,31,33,35,37,39,41,43,-1,-1,45,47,49,51,53,55,57,59,61,63,65,67,69,71,73,-1,-1,75,77,79,-1,81,83,-1,85,87,89,91,93,95,97,99,101,103,105,-1,-1,-1,-1,-1,-1,-1,-1,-1,-1,-1,-1,-1,-1,-1,-1,-1,-1,-1,-1,-1,-1,-1,-1,-1,-1,-1,-1,-1,-1,-1,-1,-1,-1,-1,-1,-1,-1,-1,-1,-1,-1,-1,-1,-1,-1,-1,-1],"loss_changes":[5.0211678E1,1.4756386E1,2.3657803E1,1.2103746E1,8.893555E0,1.0633526E1,2.1181646E1,6.8592243E0,5.761282E0,4.4978905E0,9.363459E0,4.9459953E0,5.462012E0,2.3359802E1,9.490147E0,3.5479908E0,6.6076694E0,7.0058894E0,6.759529E0,2.1110075E0,4.7106533E0,6.089012E0,0E0,0E0,4.6962547E0,6.2645035E0,4.3967705E0,8.529547E0,8.431782E0,7.6844654E0,5.8064327E0,3.2138329E0,2.309948E0,2.5947008E0,2.6057775E0,6.846958E0,8.925284E0,5.897032E0,1.1431088E1,0E0,0E0,5.0230045E0,4.0452404E0,4.6182003E0,0E0,5.0731277E0,7.80937E0,0E0,3.5116096E0,8.575923E0,3.8120399E0,6.0497913E0,8.115877E0,6.5432205E0,3.9718494E0,8.216069E0,8.067121E0,8.905999E0,7.628086E0,0E0,0E0,0E0,0E0,0E0,0E0,0E0,0E0,0E0,0E0,0E0,0E0,0E0,0E0,0E0,0E0,0E0,0E0,0E0,0E0,0E0,0E0,0E0,0E0,0E0,0E0,0E0,0E0,0E0,0E0,0E0,0E0,0E0,0E0,0E0,0E0,0E0,0E0,0E0,0E0,0E0,0E0,0E0,0E0,0E0,0E0,0E0,0E0],"parents":[2147483647,0,0,1,1,2,2,3,3,4,4,5,5,6,6,7,7,8,8,9,9,10,10,11,11,12,12,13,13,14,14,15,15,16,16,17,17,18,18,19,19,20,20,21,21,24,24,25,25,26,26,27,27,28,28,29,29,30,30,31,31,32,32,33,33,34,34,35,35,36,36,37,37,38,38,41,41,42,42,43,43,45,45,46,46,48,48,49,49,50,50,51,51,52,52,53,53,54,54,55,55,56,56,57,57,58,58],"right_children":[2,4,6,8,10,12,14,16,18,20,22,24,26,28,30,32,34,36,38,40,42,44,-1,-1,46,48,50,52,54,56,58,60,62,64,66,68,70,72,74,-1,-1,76,78,80,-1,82,84,-1,86,88,90,92,94,96,98,100,102,104,106,-1,-1,-1,-1,-1,-1,-1,-1,-1,-1,-1,-1,-1,-1,-1,-1,-1,-1,-1,-1,-1,-1,-1,-1,-1,-1,-1,-1,-1,-1,-1,-1,-1,-1,-1,-1,-1,-1,-1,-1,-1,-1,-1,-1,-1,-1,-1,-1],"split_conditions":[-3.1339775E-3,1.6479686E3,1.401E1,7.08E0,-8.617234E-2,4.83261E3,6.6061316E2,-1.0484652E-2,3.1182602E2,1.21E1,1.7E1,-7.369643E-2,8.757663E-4,-6.130881E-3,2.070531E-2,-6.6940404E-2,2.0826675E-2,1.290918E-1,1.3671832E3,5.133235E-2,4.222995E3,4.935E4,-6.066956E-2,3.7676133E-2,1.4971522E3,5.808144E2,5.21E0,1.9857894E-1,3.656869E3,1.3671832E3,7.583435E-3,5.03E0,6.026714E3,-1.9348548E-3,1.4474111E3,7.0588074E2,4.8200706E-1,5.8027095E-1,6.1723907E-3,1.7989848E-2,-5.059011E-2,3.15837E4,4.335947E3,3.6539204E3,7.600972E-2,8.248085E1,7.748908E-3,4.4369932E-2,1.1430267E3,1.2604849E3,1.510647E3,-6.389957E-2,3.1182602E2,-2.278899E-1,1.4635037E3,9.55E1,3.477466E-3,7.2028846E-3,1.3524991E3,3.103658E-2,-3.0424802E-2,-5.7511277E-2,-2.1435998E-3,5.3548384E-2,1.6110316E-4,-3.8900238E-3,-6.368045E-2,-1.7145191E-3,-2.5955966E-2,2.0495735E-2,-2.9435167E-2,9.030476E-3,-6.157248E-2,-2.6398469E-2,3.432649E-3,6.460618E-2,-1.9789774E-2,4.5654926E-2,-1.1183668E-2,1.4352227E-2,4.088965E-3,1.728719E-2,-3.85238E-2,-3.493304E-2,-1.02643855E-2,-7.041166E-2,-1.812524E-2,3.1508084E-2,-5.6687552E-2,-1.9032335E-2,2.2114657E-2,-6.0101967E-2,1.5408876E-2,-5.414903E-2,6.874725E-3,-4.4391096E-2,-1.1639857E-2,5.397762E-2,-1.29993735E-2,3.2029837E-2,-7.6411553E-3,1.0239454E-2,-2.7135788E-3,1.0614996E-2,5.8316972E-2,-2.777741E-3,7.955134E-3],"split_indices":[38,41,2,2,38,35,35,40,43,2,15,40,40,40,40,40,45,22,37,45,41,2,0,0,37,39,2,22,43,41,45,2,43,40,43,35,24,12,44,0,0,2,39,35,0,43,44,0,41,41,41,40,43,24,39,2,38,45,39,0,0,0,0,0,0,0,0,0,0,0,0,0,0,0,0,0,0,0,0,0,0,0,0,0,0,0,0,0,0,0,0,0,0,0,0,0,0,0,0,0,0,0,0,0,0,0,0],"split_type":[0,0,0,0,0,0,0,0,0,0,0,0,0,0,0,0,0,0,0,0,0,0,0,0,0,0,0,0,0,0,0,0,0,0,0,0,0,0,0,0,0,0,0,0,0,0,0,0,0,0,0,0,0,0,0,0,0,0,0,0,0,0,0,0,0,0,0,0,0,0,0,0,0,0,0,0,0,0,0,0,0,0,0,0,0,0,0,0,0,0,0,0,0,0,0,0,0,0,0,0,0,0,0,0,0,0,0],"sum_hessian":[4.82045E3,1.8020752E3,3.0183752E3,1.1857589E3,6.163162E2,2.81913E2,2.7364624E3,3.934812E1,1.1464108E3,3.3324364E1,5.829919E2,2.125534E2,6.935957E1,9.550111E2,1.7814512E3,2.437504E1,1.4973082E1,1.8536707E2,9.610437E2,2.7264698E0,3.0597895E1,5.7951843E2,3.473478E0,2.4567995E0,2.100966E2,1.9954031E1,4.9405544E1,1.5548674E2,7.9952435E2,1.01902686E3,7.624243E2,7.090387E0,1.7284653E1,8.364138E0,6.6089444E0,1.2937756E2,5.598951E1,6.826715E2,2.7837216E2,1.4949098E0,1.2315599E0,1.9644842E1,1.0953052E1,5.767756E2,2.7428482E0,6.537456E1,1.4472205E2,2.226187E0,1.7727844E1,9.462672E0,3.994287E1,1.3475015E2,2.0736597E1,7.906194E2,8.904962E0,5.0485205E2,5.141748E2,6.986934E1,6.92555E2,2.4548216E0,4.6355653E0,1.5060808E1,2.2238457E0,4.441717E0,3.9224203E0,4.154422E0,2.4545226E0,8.6282814E1,4.3094746E1,4.5851807E1,1.0137702E1,6.806857E2,1.985827E0,3.5995445E1,2.4237672E2,1.8151133E1,1.4937112E0,4.736998E0,6.2160535E0,4.2822134E2,1.4855421E2,3.802993E0,6.1571568E1,4.8040398E1,9.668165E1,3.681202E0,1.4046643E1,3.909162E0,5.55351E0,5.909393E0,3.4033478E1,1.7416136E0,1.3300853E2,8.616849E0,1.2119748E1,1.4702256E1,7.759171E2,6.1841254E0,2.7208362E0,1.2435202E1,4.9241687E2,1.8963304E2,3.2454178E2,5.8957344E1,1.0911994E1,2.7187848E2,4.206765E2],"tree_param":{"num_deleted":"0","num_feature":"48","num_nodes":"107","size_leaf_vector":"1"}},{"base_weights":[-1.3601961E-2,1.9362926E-1,-1.0561197E-1,1.998945E-1,-1.1224973E0,7.217656E-2,-1.512239E-1,9.666008E-1,1.9065966E-1,-7.3161654E-2,5.3985612E-3,3.473164E-2,4.3424895E-1,-4.3293083E-1,-1.2092904E-1,-5.2557564E-3,1.1124605E0,-1.670747E-1,2.0812942E-1,1.0135861E-1,-1.5610361E-1,5.396015E-1,-6.7767006E-1,-5.9478E-1,-2.8069043E-1,-2.310474E-1,-1.7365158E-3,4.3964678E-1,7.0716895E-2,1.3120444E-1,-5.8059263E-1,1.9571738E-1,5.750118E-1,-1.5956151E-1,1.6642721E-1,8.1276834E-1,-2.101481E-1,3.932143E-1,1.2394319E0,-5.664875E-2,1.3425273E-2,1.8856733E-1,-6.560789E-1,2.4529794E-1,-3.7480682E-1,-2.6791105E-1,1.7836535E-1,-9.653448E-2,8.571589E-2,6.155447E-2,-1.5534691E-2,2.904288E-2,-1.4913547E-2,-5.0516814E-2,-6.471394E-3,1.0498558E-2,-1.4406638E-2,4.7449987E-2,1.5122297E-2,1.0243715E-2,-2.0960161E-2,9.610434E-3,-2.8394077E-2,-1.2571438E-3,7.5891644E-2,-7.6586376E-3,-4.4321813E-2,4.4710767E-2,8.021641E-3,7.3065124E-2,-7.376211E-3,-1.4934774E-2,6.3880764E-2,-2.9765664E-2,-6.5470025E-2,2.499081E-2,-2.6901234E-2,1.292547E-2,-2.3017466E-2,-4.5374157E-3,-1.5637752E-2,-4.0997345E-2,1.1839818E-2,8.657823E-3,-9.911902E-3,2.0095155E-2,2.1278132E-3],"categories":[],"categories_nodes":[],"categories_segments":[],"categories_sizes":[],"default_left":[0,0,0,0,0,0,0,0,0,0,0,0,0,0,0,0,0,0,0,0,0,0,0,0,0,0,0,0,0,0,0,0,0,0,0,0,0,0,0,0,0,0,0,0,0,0,0,0,0,0,0,0,0,0,0,0,0,0,0,0,0,0,0,0,0,0,0,0,0,0,0,0,0,0,0,0,0,0,0,0,0,0,0,0,0,0,0],"id":10,"left_children":[1,3,5,7,9,11,13,15,17,-1,-1,19,21,23,25,-1,27,29,31,33,35,37,39,41,43,45,47,49,-1,51,53,55,57,59,61,63,65,67,69,-1,-1,71,73,75,77,79,81,83,85,-1,-1,-1,-1,-1,-1,-1,-1,-1,-1,-1,-1,-1,-1,-1,-1,-1,-1,-1,-1,-1,-1,-1,-1,-1,-1,-1,-1,-1,-1,-1,-1,-1,-1,-1,-1,-1,-1],"loss_changes":[9.1545006E1,1.2397438E1,2.6972641E1,1.0224762E1,3.1538086E0,9.197495E0,2.2531857E1,2.8135986E0,9.120785E0,0E0,0E0,7.859633E0,7.8159933E0,6.15477E0,3.137864E1,0E0,2.4797688E0,8.494128E0,6.2017975E0,7.800084E0,8.55077E0,5.5213356E0,2.8664882E0,6.0522194E0,6.7304296E0,1.8802574E1,9.534432E0,4.0528636E0,0E0,7.9875016E0,5.4499607E0,9.321117E0,4.2858295E0,8.78195E0,7.0563517E0,5.1548448E0,5.7356014E0,5.6843033E0,3.1948404E0,0E0,0E0,5.5485387E0,3.7750893E0,4.447191E0,6.302721E0,9.031845E0,6.2168345E0,1.5170744E1,8.1465435E0,0E0,0E0,0E0,0E0,0E0,0E0,0E0,0E0,0E0,0E0,0E0,0E0,0E0,0E0,0E0,0E0,0E0,0E0,0E0,0E0,0E0,0E0,0E0,0E0,0E0,0E0,0E0,0E0,0E0,0E0,0E0,0E0,0E0,0E0,0E0,0E0,0E0,0E0],"parents":[2147483647,0,0,1,1,2,2,3,3,4,4,5,5,6,6,7,7,8,8,11,11,12,12,13,13,14,14,16,16,17,17,18,18,19,19,20,20,21,21,22,22,23,23,24,24,25,25,26,26,27,27,29,29,30,30,31,31,32,32,33,33,34,34,35,35,36,36,37,37,38,38,41,41,42,42,43,43,44,44,45,45,46,46,47,47,48,48],"right_children":[2,4,6,8,10,12,14,16,18,-1,-1,20,22,24,26,-1,28,30,32,34,36,38,40,42,44,46,48,50,-1,52,54,56,58,60,62,64,66,68,70,-1,-1,72,74,76,78,80,82,84,86,-1,-1,-1,-1,-1,-1,-1,-1,-1,-1,-1,-1,-1,-1,-1,-1,-1,-1,-1,-1,-1,-1,-1,-1,-1,-1,-1,-1,-1,-1,-1,-1,-1,-1,-1,-1,-1,-1],"split_conditions":[-3.4537804E-3,6.1896104E-1,-3.1514068E-3,-1.0587379E-1,1.4244771E-2,-3.7906214E-3,1.42E1,3.6808822E-2,2.2078758E2,-7.3161654E-2,5.3985612E-3,-5.8657066E-3,1.2269938E-2,2.4695203E3,9.4886115E2,-5.2557564E-3,9.742E1,5.8741437E2,3.2175717E-1,-3.0354852E-2,1.9616322E2,1.9545E4,1.5455935E3,-1.7223804E-3,-8.580846E-3,1.7284218E-2,1.6320754E-2,1.4141075E3,7.0716895E-2,2.2870393E2,5.106497E2,2.513118E-1,3.4308764E-1,-5.6645166E-2,7.858724E3,4.7484464E-3,4.0385282E-1,-5.5440934E-3,5.1999E4,-5.664875E-2,1.3425273E-2,1.5798092E-2,5.4757297E-2,9.16216E3,1.0327294E3,-4.900359E-4,2.5970554E2,9.5878094E2,4.556832E-3,6.155447E-2,-1.5534691E-2,2.904288E-2,-1.4913547E-2,-5.0516814E-2,-6.471394E-3,1.0498558E-2,-1.4406638E-2,4.7449987E-2,1.5122297E-2,1.0243715E-2,-2.0960161E-2,9.610434E-3,-2.8394077E-2,-1.2571438E-3,7.5891644E-2,-7.6586376E-3,-4.4321813E-2,4.4710767E-2,8.021641E-3,7.3065124E-2,-7.376211E-3,-1.4934774E-2,6.3880764E-2,-2.9765664E-2,-6.5470025E-2,2.499081E-2,-2.6901234E-2,1.292547E-2,-2.3017466E-2,-4.5374157E-3,-1.5637752E-2,-4.0997345E-2,1.1839818E-2,8.657823E-3,-9.911902E-3,2.0095155E-2,2.1278132E-3],"split_indices":[34,27,36,36,44,36,0,44,37,0,0,36,38,37,4,0,3,4,27,38,37,1,4,34,42,44,40,39,0,39,43,17,11,40,43,44,11,40,1,0,0,42,44,37,43,36,4,37,36,0,0,0,0,0,0,0,0,0,0,0,0,0,0,0,0,0,0,0,0,0,0,0,0,0,0,0,0,0,0,0,0,0,0,0,0,0,0],"split_type":[0,0,0,0,0,0,0,0,0,0,0,0,0,0,0,0,0,0,0,0,0,0,0,0,0,0,0,0,0,0,0,0,0,0,0,0,0,0,0,0,0,0,0,0,0,0,0,0,0,0,0,0,0,0,0,0,0,0,0,0,0,0,0,0,0,0,0,0,0,0,0,0,0,0,0,0,0,0,0,0,0,0,0,0,0,0,0],"sum_hessian":[4.7990674E3,1.4752666E3,3.3238005E3,1.4691212E3,6.145423E0,6.7850525E2,2.6452954E3,1.6250883E1,1.4528704E3,4.664566E0,1.4808571E0,6.159053E2,6.259997E1,2.5556332E2,2.389732E3,1.9802421E0,1.427064E1,6.724789E1,1.3856224E3,4.568667E2,1.5903856E2,5.765223E1,4.947743E0,1.2246355E2,1.3309978E2,1.2416608E3,1.1480712E3,5.1806226E0,9.090018E0,3.9464226E1,2.7783663E1,1.3417626E3,4.3859848E1,9.09025E1,3.659642E2,7.6608715E0,1.5137769E2,4.897065E1,8.681578E0,3.2070613E0,1.7406818E0,8.7369175E0,1.1372663E2,1.9957415E1,1.13142365E2,1.1394133E3,1.022475E2,5.5084937E2,5.972218E2,2.2094433E0,2.9711795E0,1.9107025E1,2.03572E1,1.35948715E1,1.418879E1,1.3039165E3,3.784614E1,1.7443657E1,2.6416191E1,3.7906906E1,5.299559E1,3.542643E2,1.1699915E1,3.9413004E0,3.7195714E0,1.4074667E2,1.0631016E1,1.46338E1,3.433685E1,7.4381037E0,1.2434735E0,6.537591E0,2.1993268E0,1.0579758E2,7.929049E0,1.5336263E1,4.6211524E0,1.3223064E1,9.99193E1,2.3076517E2,9.0864813E2,4.9329953E0,9.73145E1,1.5065353E2,4.0019586E2,7.073147E1,5.2649036E2],"tree_param":{"num_deleted":"0","num_feature":"48","num_nodes":"87","size_leaf_vector":"1"}},{"base_weights":[3.6264E-3,1.7824152E-1,-9.012982E-2,1.14952505E-1,2.9465303E-1,-1.4297931E-1,2.791626E-2,-4.130378E-1,1.341834E-1,3.6508027E-1,5.9265677E-2,-8.006578E-3,-1.7712098E-1,-3.6092418E-1,6.0898475E-2,-1.6193897E-1,-1.197846E0,7.72604E-1,1.197234E-1,4.3853143E-1,1.3609986E-1,3.061039E-1,-3.3124357E-1,3.893497E-2,-5.2747303E-1,-2.8931928E-1,-1.20273985E-1,-7.9169184E-1,-1.8838917E-1,-1.6610008E-1,1.0658526E-1,-5.354427E-1,5.248294E-1,-6.742861E-2,-6.5360474E-3,9.358402E-1,-3.9311726E-2,8.509404E-2,3.5322288E-1,5.354727E-1,1.9656628E-1,3.8515538E-1,-1.6013516E-1,1.786952E-1,9.3587285E-1,-1.1064131E0,-1.17781684E-1,-1.0999965E-2,5.1411426E-1,2.0861387E-2,-9.8786634E-1,-5.764742E-1,-2.4788848E-1,-3.743E-1,-8.678013E-2,-9.473608E-1,2.0108882E-2,6.879604E-1,-3.7440494E-1,2.6573813E-1,-3.0993426E-1,5.77377E-1,8.304625E-2,-4.418E-3,-5.935669E-2,7.6702364E-2,3.027302E-3,-1.4748322E-2,5.7397682E-2,3.6105525E-3,3.0451898E-2,4.5765094E-2,1.0217924E-2,1.5732829E-2,3.476597E-2,4.9752756E-3,3.6451463E-2,4.8360664E-2,7.377726E-3,-5.4886024E-2,-2.1006216E-3,3.9019387E-2,1.2771651E-3,2.996705E-3,5.3843148E-2,-6.4471126E-2,3.345225E-3,1.2443235E-2,-2.9912774E-2,-1.667752E-2,2.9449994E-3,3.739477E-2,-6.0671326E-3,-3.977726E-2,1.5755204E-2,-5.4665036E-2,1.6179968E-2,3.218665E-2,-3.3244435E-2,-1.1602685E-2,-5.1704347E-2,-3.7185106E-2,-1.1700957E-2,-9.584767E-4,-1.0142926E-2,1.5309206E-2,-5.319484E-2,5.2093457E-2,-3.394605E-2,-4.227038E-2,-5.898976E-3,6.3175657E-3,7.146426E-2,-9.759183E-3,-4.7826756E-2,-1.0204045E-2,4.2045012E-2,6.5993182E-3,-8.084592E-3],"categories":[],"categories_nodes":[],"categories_segments":[],"categories_sizes":[],"default_left":[0,0,0,0,0,0,0,0,0,0,0,0,0,0,0,0,0,0,0,0,0,0,0,0,0,0,0,0,0,0,0,0,0,0,0,0,0,0,0,0,0,0,0,0,0,0,0,0,0,0,0,0,0,0,0,0,0,0,0,0,0,0,0,0,0,0,0,0,0,0,0,0,0,0,0,0,0,0,0,0,0,0,0,0,0,0,0,0,0,0,0,0,0,0,0,0,0,0,0,0,0,0,0,0,0,0,0,0,0,0,0,0,0,0,0,0,0,0,0],"id":11,"left_children":[1,3,5,7,9,11,13,15,17,19,21,23,25,27,29,31,33,35,37,39,41,43,45,47,49,51,53,55,57,59,61,63,65,-1,-1,67,-1,69,71,73,75,77,79,81,83,85,87,89,91,93,95,97,99,101,103,105,-1,107,109,111,113,115,117,-1,-1,-1,-1,-1,-1,-1,-1,-1,-1,-1,-1,-1,-1,-1,-1,-1,-1,-1,-1,-1,-1,-1,-1,-1,-1,-1,-1,-1,-1,-1,-1,-1,-1,-1,-1,-1,-1,-1,-1,-1,-1,-1,-1,-1,-1,-1,-1,-1,-1,-1,-1,-1,-1,-1,-1],"loss_changes":[7.84679E1,1.2302757E1,1.9459906E1,1.1086055E1,9.744068E0,9.926178E0,1.240131E1,7.37784E0,9.590853E0,7.563137E0,1.3293404E1,1.0651603E1,1.0931511E1,5.4709806E0,9.254441E0,8.0445175E0,1.2965956E0,6.6006956E0,8.273318E0,7.9333725E0,8.289917E0,6.6027217E0,8.719577E0,9.515257E0,9.15942E0,6.727398E0,9.691494E0,4.3420544E0,9.273075E0,9.375296E0,8.175231E0,5.7511535E0,5.139467E0,0E0,0E0,5.9047203E0,0E0,6.00118E0,1.0883598E1,8.397057E0,5.075315E0,8.276988E0,5.673508E0,6.5607166E0,1.659667E0,2.5403662E0,7.733583E0,8.218428E0,5.755561E0,4.4549465E0,3.0776367E0,8.202017E0,6.0646057E0,6.7094707E0,7.9309235E0,3.1236515E0,0E0,5.5623055E0,5.4884596E0,5.969369E0,8.174899E0,7.413436E0,8.499816E0,0E0,0E0,0E0,0E0,0E0,0E0,0E0,0E0,0E0,0E0,0E0,0E0,0E0,0E0,0E0,0E0,0E0,0E0,0E0,0E0,0E0,0E0,0E0,0E0,0E0,0E0,0E0,0E0,0E0,0E0,0E0,0E0,0E0,0E0,0E0,0E0,0E0,0E0,0E0,0E0,0E0,0E0,0E0,0E0,0E0,0E0,0E0,0E0,0E0,0E0,0E0,0E0,0E0,0E0,0E0,0E0],"parents":[2147483647,0,0,1,1,2,2,3,3,4,4,5,5,6,6,7,7,8,8,9,9,10,10,11,11,12,12,13,13,14,14,15,15,16,16,17,17,18,18,19,19,20,20,21,21,22,22,23,23,24,24,25,25,26,26,27,27,28,28,29,29,30,30,31,31,32,32,35,35,37,37,38,38,39,39,40,40,41,41,42,42,43,43,44,44,45,45,46,46,47,47,48,48,49,49,50,50,51,51,52,52,53,53,54,54,55,55,57,57,58,58,59,59,60,60,61,61,62,62],"right_children":[2,4,6,8,10,12,14,16,18,20,22,24,26,28,30,32,34,36,38,40,42,44,46,48,50,52,54,56,58,60,62,64,66,-1,-1,68,-1,70,72,74,76,78,80,82,84,86,88,90,92,94,96,98,100,102,104,106,-1,108,110,112,114,116,118,-1,-1,-1,-1,-1,-1,-1,-1,-1,-1,-1,-1,-1,-1,-1,-1,-1,-1,-1,-1,-1,-1,-1,-1,-1,-1,-1,-1,-1,-1,-1,-1,-1,-1,-1,-1,-1,-1,-1,-1,-1,-1,-1,-1,-1,-1,-1,-1,-1,-1,-1,-1,-1,-1,-1,-1],"split_conditions":[-3.2626428E-3,1.6681603E3,2.113309E-2,1.014E1,-7.0119705E-3,-4.900359E-4,1.323E1,1.2734868E3,1.5095634E2,3.0282278E-2,2.3829011E3,3.7837303E-1,5.6978054E-3,1.3980586E3,5.951762E2,2.0788662E3,1.608854E3,4.5454547E-2,2.7849741E-2,3.8076462E3,-1.4820058E-2,2.8986858E3,1.3671832E3,1.6921E4,1.7117776E-1,2.5284471E2,1.34E1,4.6961265E3,1.3524991E3,3.2353824E2,3.787454E2,5.99E0,2.4092214E3,-6.742861E-2,-6.5360474E-3,6.1357105E1,-3.9311726E-2,-3.5150645E-3,3.3043478E-2,1.510647E3,4.201681E-3,4.1537E2,3.6868498E-2,-2.781916E-2,1.1430267E3,1.00922E3,1.4020612E-2,3.570748E2,2.3033443E-1,3.9997716E-2,2.047349E-2,-1.2576471E-1,6.617288E3,1.381225E3,1.1201657E-2,8.285364E1,2.0108882E-2,1.062E1,2.9675417E-2,3.116468E2,7E0,7.1271E3,1.38293E4,-4.418E-3,-5.935669E-2,7.6702364E-2,3.027302E-3,-1.4748322E-2,5.7397682E-2,3.6105525E-3,3.0451898E-2,4.5765094E-2,1.0217924E-2,1.5732829E-2,3.476597E-2,4.9752756E-3,3.6451463E-2,4.8360664E-2,7.377726E-3,-5.4886024E-2,-2.1006216E-3,3.9019387E-2,1.2771651E-3,2.996705E-3,5.3843148E-2,-6.4471126E-2,3.345225E-3,1.2443235E-2,-2.9912774E-2,-1.667752E-2,2.9449994E-3,3.739477E-2,-6.0671326E-3,-3.977726E-2,1.5755204E-2,-5.4665036E-2,1.6179968E-2,3.218665E-2,-3.3244435E-2,-1.1602685E-2,-5.1704347E-2,-3.7185106E-2,-1.1700957E-2,-9.584767E-4,-1.0142926E-2,1.5309206E-2,-5.319484E-2,5.2093457E-2,-3.394605E-2,-4.227038E-2,-5.898976E-3,6.3175657E-3,7.146426E-2,-9.759183E-3,-4.7826756E-2,-1.0204045E-2,4.2045012E-2,6.5993182E-3,-8.084592E-3],"split_indices":[36,41,46,0,36,36,2,41,4,42,37,11,44,4,35,4,41,42,42,35,36,4,4,1,22,41,1,37,37,37,37,3,4,0,0,4,0,36,42,37,42,3,42,42,39,0,45,35,17,22,45,24,4,4,36,4,0,0,42,37,15,0,1,0,0,0,0,0,0,0,0,0,0,0,0,0,0,0,0,0,0,0,0,0,0,0,0,0,0,0,0,0,0,0,0,0,0,0,0,0,0,0,0,0,0,0,0,0,0,0,0,0,0,0,0,0,0,0,0],"split_type":[0,0,0,0,0,0,0,0,0,0,0,0,0,0,0,0,0,0,0,0,0,0,0,0,0,0,0,0,0,0,0,0,0,0,0,0,0,0,0,0,0,0,0,0,0,0,0,0,0,0,0,0,0,0,0,0,0,0,0,0,0,0,0,0,0,0,0,0,0,0,0,0,0,0,0,0,0,0,0,0,0,0,0,0,0,0,0,0,0,0,0,0,0,0,0,0,0,0,0,0,0,0,0,0,0,0,0,0,0,0,0,0,0,0,0,0,0,0,0],"sum_hessian":[4.791048E3,1.6734502E3,3.117598E3,1.0853627E3,5.880876E2,2.1533342E3,9.6426355E2,3.7423058E1,1.0479396E3,4.5223053E2,1.3585707E2,4.3497528E2,1.7183589E3,7.4618095E1,8.8964545E2,2.9265821E1,8.157237E0,2.204854E1,1.025891E3,3.41705E2,1.1052555E2,8.3373436E1,5.248363E1,3.9977472E2,3.520056E1,5.7647906E2,1.1418799E3,2.0313318E1,5.430478E1,1.4861314E2,7.410323E2,1.9099028E1,1.0166795E1,6.916564E0,1.2406735E0,2.0320322E1,1.728219E0,8.9458344E2,1.313076E2,2.4309718E2,9.8607796E1,5.9881138E1,5.064441E1,7.04121E1,1.2961338E1,1.0428865E1,4.2054768E1,3.6264273E2,3.7132008E1,1.6501614E1,1.869895E1,7.105893E1,5.0542014E2,1.318349E2,1.010045E3,1.8152842E1,2.1604755E0,9.036063E0,4.5268715E1,3.6919857E1,1.1169328E2,3.4166046E1,7.068663E2,1.2001302E1,7.097725E0,2.477439E0,7.6893554E0,2.929726E0,1.7390594E1,8.7422534E2,2.0358076E1,2.641644E1,1.0489117E2,1.0332711E2,1.3977007E2,8.44082E1,1.4199593E1,1.6468071E1,4.3413067E1,4.738676E0,4.5905735E1,1.3455105E1,5.6956993E1,1.9945791E0,1.0966759E1,8.936094E0,1.4927708E0,2.4126238E1,1.792853E1,6.3919064E1,2.9872366E2,2.701602E1,1.0115989E1,3.9203882E0,1.2581225E1,1.7461496E1,1.2374524E0,4.3766046E0,6.668232E1,4.9671106E2,8.709077E0,3.5101215E1,9.673368E1,6.39013E2,3.71032E2,1.4056178E0,1.6747225E1,7.3665223E0,1.6695411E0,1.5147982E1,3.0120735E1,3.3960197E1,2.9596612E0,9.596456E1,1.5728725E1,8.672872E0,2.5493174E1,5.894542E2,1.1741205E2],"tree_param":{"num_deleted":"0","num_feature":"48","num_nodes":"119","size_leaf_vector":"1"}},{"base_weights":[-3.7407891E-3,1.826341E-1,-9.4904326E-2,1.8824895E-1,-8.6871684E-1,-3.2997987E-1,-7.107036E-2,1.9277085E-1,-9.42237E-1,-6.8891905E-2,-1.5327834E-1,-4.2555693E-1,-6.8982295E-3,-8.990115E-2,2.2336866E-1,1.7843078E-1,5.253102E-1,-7.1041524E-2,4.432061E-3,3.9366085E-2,-5.6409936E-2,-5.959976E-1,-2.9441178E-1,4.428486E-1,-2.0073824E-1,-2.3174772E-1,-6.1442178E-2,5.1760113E-1,2.714038E-2,2.2563057E-1,6.730259E-2,6.510101E-1,-4.1036758E-1,-6.5897554E-1,4.704384E-3,7.3381346E-1,-3.420795E-1,7.532774E-1,-3.8909993E-1,-1.0204731E-1,-6.2701024E-2,2.4252197E-1,-2.8954732E-1,3.1634173E-1,-7.260949E-2,-4.3674868E-1,6.2409025E-1,-2.5103018E-1,3.4552613E-1,1.199532E-2,-1.55053735E-2,1.4000935E-2,-3.128909E-3,-5.2920993E-2,3.5397243E-2,8.63821E-3,-5.7846196E-2,-2.319645E-2,-4.643313E-2,2.6477177E-2,-4.2136542E-2,5.635878E-2,-2.4149956E-2,9.988814E-3,-2.1562798E-2,6.248645E-2,-3.2939322E-3,-6.3598506E-2,2.9774759E-2,6.731048E-3,-2.3521723E-2,1.5761249E-2,-5.7543408E-2,-2.3362031E-2,-9.496527E-3,3.281419E-2,3.5565973E-3,1.6602407E-3,-5.3378246E-3,2.3566445E-2,-5.9916675E-2,3.7213635E-2,8.421873E-3,-1.9838827E-2,3.9271347E-2,2.7266068E-2,-6.116248E-3],"categories":[],"categories_nodes":[],"categories_segments":[],"categories_sizes":[],"default_left":[0,0,0,0,0,0,0,0,0,0,0,0,0,0,0,0,0,0,0,0,0,0,0,0,0,0,0,0,0,0,0,0,0,0,0,0,0,0,0,0,0,0,0,0,0,0,0,0,0,0,0,0,0,0,0,0,0,0,0,0,0,0,0,0,0,0,0,0,0,0,0,0,0,0,0,0,0,0,0,0,0,0,0,0,0,0,0],"id":12,"left_children":[1,3,5,7,9,11,13,15,17,-1,19,21,23,25,27,29,31,-1,-1,-1,-1,33,35,37,39,41,43,45,47,49,51,53,55,57,59,61,63,65,67,69,-1,71,73,75,77,79,81,83,85,-1,-1,-1,-1,-1,-1,-1,-1,-1,-1,-1,-1,-1,-1,-1,-1,-1,-1,-1,-1,-1,-1,-1,-1,-1,-1,-1,-1,-1,-1,-1,-1,-1,-1,-1,-1,-1,-1],"loss_changes":[8.191431E1,9.511921E0,1.8115646E1,8.238224E0,2.9179106E0,9.191517E0,1.632518E1,7.3958015E0,3.3075948E0,0E0,5.1952786E0,4.9603157E0,6.1035604E0,1.1146332E1,1.0208665E1,7.8902473E0,7.843151E0,0E0,0E0,0E0,0E0,3.7459793E0,6.7122574E0,5.740196E0,4.955231E0,1.2724857E1,9.743435E0,7.4661446E0,9.587507E0,8.161774E0,1.2470245E1,6.31361E0,3.7879272E0,4.27993E0,5.0634985E0,3.4922066E0,6.206856E0,6.467347E0,6.3127546E0,4.0564213E0,0E0,5.4981146E0,7.203163E0,5.4831896E0,8.092606E0,5.8855944E0,3.3842869E0,9.047719E0,4.781738E0,0E0,0E0,0E0,0E0,0E0,0E0,0E0,0E0,0E0,0E0,0E0,0E0,0E0,0E0,0E0,0E0,0E0,0E0,0E0,0E0,0E0,0E0,0E0,0E0,0E0,0E0,0E0,0E0,0E0,0E0,0E0,0E0,0E0,0E0,0E0,0E0,0E0,0E0],"parents":[2147483647,0,0,1,1,2,2,3,3,4,4,5,5,6,6,7,7,8,8,10,10,11,11,12,12,13,13,14,14,15,15,16,16,21,21,22,22,23,23,24,24,25,25,26,26,27,27,28,28,29,29,30,30,31,31,32,32,33,33,34,34,35,35,36,36,37,37,38,38,39,39,41,41,42,42,43,43,44,44,45,45,46,46,47,47,48,48],"right_children":[2,4,6,8,10,12,14,16,18,-1,20,22,24,26,28,30,32,-1,-1,-1,-1,34,36,38,40,42,44,46,48,50,52,54,56,58,60,62,64,66,68,70,-1,72,74,76,78,80,82,84,86,-1,-1,-1,-1,-1,-1,-1,-1,-1,-1,-1,-1,-1,-1,-1,-1,-1,-1,-1,-1,-1,-1,-1,-1,-1,-1,-1,-1,-1,-1,-1,-1,-1,-1,-1,-1,-1,-1],"split_conditions":[-2.9635779E-3,6.1896104E-1,1.34E1,1.2787993E-1,3.847593E2,4.9517627E3,4.5722104E3,3.2838244E-2,2.2900863E-1,-6.8891905E-2,0E0,2.0782397E3,6.019773E3,3.570748E2,2.1265906E3,-1.4253204E-3,1.8700844E-1,-7.1041524E-2,4.432061E-3,3.9366085E-2,-5.6409936E-2,7.011157E3,-1.964575E-3,1.199E1,2.7142145E-2,-5.190079E-3,3.8438232E2,6.535267E2,4.335947E3,7.858724E3,-8.055394E-3,2.127633E2,3.5149106E3,6.5E0,1.1335595E4,4.0339376E-3,8.2624725E2,3.8076462E3,5.6066807E3,5.8074854E3,-6.2701024E-2,6.731445E-1,3.3061774E2,5.876496E-3,3.278745E-4,3.1134347E-3,1.7403916E-2,3.9713576E-2,3.5662767E-2,1.199532E-2,-1.55053735E-2,1.4000935E-2,-3.128909E-3,-5.2920993E-2,3.5397243E-2,8.63821E-3,-5.7846196E-2,-2.319645E-2,-4.643313E-2,2.6477177E-2,-4.2136542E-2,5.635878E-2,-2.4149956E-2,9.988814E-3,-2.1562798E-2,6.248645E-2,-3.2939322E-3,-6.3598506E-2,2.9774759E-2,6.731048E-3,-2.3521723E-2,1.5761249E-2,-5.7543408E-2,-2.3362031E-2,-9.496527E-3,3.281419E-2,3.5565973E-3,1.6602407E-3,-5.3378246E-3,2.3566445E-2,-5.9916675E-2,3.7213635E-2,8.421873E-3,-1.9838827E-2,3.9271347E-2,2.7266068E-2,-6.116248E-3],"split_indices":[34,27,1,18,43,35,43,38,25,0,42,39,35,35,37,38,42,0,0,0,0,43,34,1,34,38,35,39,37,39,34,39,39,1,43,38,43,37,37,37,0,11,43,44,34,34,34,45,38,0,0,0,0,0,0,0,0,0,0,0,0,0,0,0,0,0,0,0,0,0,0,0,0,0,0,0,0,0,0,0,0,0,0,0,0,0,0],"split_type":[0,0,0,0,0,0,0,0,0,0,0,0,0,0,0,0,0,0,0,0,0,0,0,0,0,0,0,0,0,0,0,0,0,0,0,0,0,0,0,0,0,0,0,0,0,0,0,0,0,0,0,0,0,0,0,0,0,0,0,0,0,0,0,0,0,0,0,0,0,0,0,0,0,0,0,0,0,0,0,0,0,0,0,0,0,0,0],"sum_hessian":[4.8191357E3,1.5826205E3,3.2365154E3,1.5750298E3,7.5906596E0,2.9675568E2,2.9397598E3,1.569581E3,5.448792E0,3.8938491E0,3.6968107E0,2.2876352E2,6.799217E1,2.7637024E3,1.7605736E2,1.5061672E3,6.341377E1,3.4628596E0,1.9859324E0,1.9794594E0,1.7173513E0,9.793688E1,1.3082663E2,2.0091454E1,4.790072E1,4.606358E2,2.3030664E3,6.9783485E1,1.0627387E2,1.0564346E3,4.4973267E2,5.617183E1,7.2419405E0,8.855563E1,9.381245E0,5.1585608E0,1.25668076E2,1.4700682E1,5.390772E0,4.479992E1,3.1007988E0,4.9692474E1,4.1094333E2,6.533953E1,2.237727E3,6.693686E0,6.30898E1,5.683192E1,4.944195E1,1.0295522E3,2.688233E1,1.7005844E2,2.7967422E2,1.2435969E0,5.492823E1,4.497527E0,2.7444134E0,5.296781E1,3.5587826E1,6.0249534E0,3.3562913E0,3.954005E0,1.2045559E0,1.758394E1,1.0808414E2,8.826019E0,5.8746624E0,2.6883247E0,2.7024472E0,2.7662724E1,1.7137196E1,4.7963646E1,1.7288309E0,1.4629553E2,2.6464777E2,2.6678232E1,3.86613E1,5.4595526E2,1.6917717E3,3.227039E0,3.466647E0,4.942112E1,1.3668682E1,5.036657E1,6.465354E0,3.4530262E1,1.4911691E1],"tree_param":{"num_deleted":"0","num_feature":"48","num_nodes":"87","size_leaf_vector":"1"}},{"base_weights":[-8.243404E-3,1.43604E-1,-9.726945E-2,-3.9399076E-2,1.786611E-1,7.0850566E-2,-1.42973E-1,3.4230927E-1,-1.17374554E-1,9.1081387E-1,1.7066841E-1,-3.050597E-1,1.0775416E-1,-4.3004578E-1,-1.1216597E-1,1.3290669E0,1.4073968E-1,-2.058261E-1,1.8940197E-1,6.314558E-1,7.031263E-2,-1.5913427E-1,1.8615918E-1,2.2484417E-1,-5.305147E-1,1.4500605E-1,-2.568008E-1,-5.4773676E-1,-6.1234325E-2,-2.1659239E-1,-2.169353E-3,7.356977E-2,2.5597528E-2,-4.6139342E-1,3.071182E-1,-2.5028625E-1,4.6391696E-1,4.619501E-1,-6.2730885E-1,8.24577E-1,-1.6433224E-2,-8.598702E-1,1.8498758E-2,4.4775033E-1,1.676047E-1,8.114056E-1,-1.2917554E-1,-3.336349E-1,-1.1200595E0,5.546606E-2,3.420285E-1,-5.040628E-1,1.511942E-1,-2.9621506E-1,-6.7824864E-1,7.318268E-1,-2.2212896E-1,-2.271131E-1,4.143727E-1,-5.3223047E-2,1.056766E-1,3.7720814E-2,-3.920852E-2,-5.345012E-2,2.021869E-2,-3.1002124E-3,-2.3768948E-2,-4.337582E-2,5.0132472E-2,3.077702E-2,-2.088592E-2,2.0116128E-2,-4.1616425E-2,5.307848E-2,-1.0943683E-2,-2.4963825E-3,-5.9414696E-2,-9.435273E-3,2.896894E-2,4.6120428E-2,1.2380301E-2,8.886397E-3,-1.9452078E-2,-1.7159097E-2,7.1283095E-2,-1.7887322E-2,4.5092758E-2,-3.9643142E-2,-1.5524243E-3,-6.715733E-2,-2.0938457E-3,-2.604318E-3,1.7780261E-2,3.7336376E-2,1.06000025E-2,2.8345544E-2,-3.3031054E-2,4.764783E-2,-7.2778575E-3,-2.1673711E-2,2.2122573E-2,-4.4047363E-2,-2.2087695E-2,-1.8917326E-2,5.748263E-2,-2.9499004E-2,3.3077653E-3,-1.8125825E-2,-9.100078E-3,-1.3440794E-4,6.2310692E-2,1.3499116E-2,-4.5208083E-3,7.8578135E-3,-1.5519696E-2],"categories":[],"categories_nodes":[],"categories_segments":[],"categories_sizes":[],"default_left":[0,0,0,0,0,0,0,0,0,0,0,0,0,0,0,0,0,0,0,0,0,0,0,0,0,0,0,0,0,0,0,0,0,0,0,0,0,0,0,0,0,0,0,0,0,0,0,0,0,0,0,0,0,0,0,0,0,0,0,0,0,0,0,0,0,0,0,0,0,0,0,0,0,0,0,0,0,0,0,0,0,0,0,0,0,0,0,0,0,0,0,0,0,0,0,0,0,0,0,0,0,0,0,0,0,0,0,0,0,0,0,0,0,0,0],"id":13,"left_children":[1,3,5,7,9,11,13,15,17,19,21,23,25,27,29,31,33,35,37,39,-1,41,43,45,47,49,51,53,55,57,59,-1,-1,61,63,65,67,69,71,73,-1,75,77,79,81,83,85,87,89,91,93,95,97,99,101,103,105,107,109,111,113,-1,-1,-1,-1,-1,-1,-1,-1,-1,-1,-1,-1,-1,-1,-1,-1,-1,-1,-1,-1,-1,-1,-1,-1,-1,-1,-1,-1,-1,-1,-1,-1,-1,-1,-1,-1,-1,-1,-1,-1,-1,-1,-1,-1,-1,-1,-1,-1,-1,-1,-1,-1,-1,-1],"loss_changes":[6.508489E1,1.1423294E1,2.3330517E1,8.579446E0,8.584682E0,9.041546E0,2.1059055E1,9.543508E0,6.5236297E0,1.3123884E0,7.5839767E0,7.085997E0,8.077897E0,9.990944E0,2.4772703E1,1.9803143E-1,4.323489E0,5.653854E0,1.2310667E1,2.4925084E0,0E0,8.340215E0,6.782196E0,3.8649087E0,4.4090977E0,9.46904E0,5.650243E0,5.542198E0,7.4350915E0,7.438343E0,5.794302E0,0E0,0E0,4.294814E0,4.8897142E0,7.3891716E0,9.425333E0,5.8056545E0,3.2768135E0,2.7694492E0,0E0,3.5438128E0,6.4234486E0,8.604055E0,7.512043E0,5.4202023E0,3.1870732E0,4.4656954E0,2.32298E0,1.1993682E1,8.674736E0,6.1815987E0,5.2824163E0,6.4316096E0,5.0953026E0,5.0019703E0,5.145069E0,6.58506E0,6.42115E0,8.610097E0,7.291236E0,0E0,0E0,0E0,0E0,0E0,0E0,0E0,0E0,0E0,0E0,0E0,0E0,0E0,0E0,0E0,0E0,0E0,0E0,0E0,0E0,0E0,0E0,0E0,0E0,0E0,0E0,0E0,0E0,0E0,0E0,0E0,0E0,0E0,0E0,0E0,0E0,0E0,0E0,0E0,0E0,0E0,0E0,0E0,0E0,0E0,0E0,0E0,0E0,0E0,0E0,0E0,0E0,0E0,0E0],"parents":[2147483647,0,0,1,1,2,2,3,3,4,4,5,5,6,6,7,7,8,8,9,9,10,10,11,11,12,12,13,13,14,14,15,15,16,16,17,17,18,18,19,19,21,21,22,22,23,23,24,24,25,25,26,26,27,27,28,28,29,29,30,30,33,33,34,34,35,35,36,36,37,37,38,38,39,39,41,41,42,42,43,43,44,44,45,45,46,46,47,47,48,48,49,49,50,50,51,51,52,52,53,53,54,54,55,55,56,56,57,57,58,58,59,59,60,60],"right_children":[2,4,6,8,10,12,14,16,18,20,22,24,26,28,30,32,34,36,38,40,-1,42,44,46,48,50,52,54,56,58,60,-1,-1,62,64,66,68,70,72,74,-1,76,78,80,82,84,86,88,90,92,94,96,98,100,102,104,106,108,110,112,114,-1,-1,-1,-1,-1,-1,-1,-1,-1,-1,-1,-1,-1,-1,-1,-1,-1,-1,-1,-1,-1,-1,-1,-1,-1,-1,-1,-1,-1,-1,-1,-1,-1,-1,-1,-1,-1,-1,-1,-1,-1,-1,-1,-1,-1,-1,-1,-1,-1,-1,-1,-1,-1,-1],"split_conditions":[-2.0408162E-3,3.9826843E2,-2.3165445E-3,6.2504E3,-1.0587379E-1,-3.817087E-2,1.34E1,1.9628206E2,1.4795381E-2,7.858724E3,1.014E1,-8.339861E-2,9.942546E-3,4.83261E3,9.800768E2,4.7105746E-3,-1.4234875E-2,1.3835163E-2,1.1561487E3,1.7042107E4,7.031263E-2,8.810161E2,3.4270422E2,3.4555E2,3.250618E3,1.0362585E-2,2.0646827E-2,8.916381E-4,5.239712E3,2.6225528E-2,2.604641E3,7.356977E-2,2.5597528E-2,-5.2187614E-2,2.5971872E2,-5.790925E-3,2.9232855E2,1.1206478E3,1.6774602E-2,-7.369643E-2,-1.6433224E-2,2.403108E2,4.9517627E3,-6.495148E-3,2.7921423E-1,1.4972511E3,3.9131333E3,7.481163E2,6.18E3,1.6858309E3,5.373006E2,-1.2460371E-3,2.4268603E-2,4.4511973E3,2.2642285E3,2.722323E-3,6.61E0,9.5E2,9.0960724E2,4.8309012E2,8.025681E-2,3.7720814E-2,-3.920852E-2,-5.345012E-2,2.021869E-2,-3.1002124E-3,-2.3768948E-2,-4.337582E-2,5.0132472E-2,3.077702E-2,-2.088592E-2,2.0116128E-2,-4.1616425E-2,5.307848E-2,-1.0943683E-2,-2.4963825E-3,-5.9414696E-2,-9.435273E-3,2.896894E-2,4.6120428E-2,1.2380301E-2,8.886397E-3,-1.9452078E-2,-1.7159097E-2,7.1283095E-2,-1.7887322E-2,4.5092758E-2,-3.9643142E-2,-1.5524243E-3,-6.715733E-2,-2.0938457E-3,-2.604318E-3,1.7780261E-2,3.7336376E-2,1.06000025E-2,2.8345544E-2,-3.3031054E-2,4.764783E-2,-7.2778575E-3,-2.1673711E-2,2.2122573E-2,-4.4047363E-2,-2.2087695E-2,-1.8917326E-2,5.748263E-2,-2.9499004E-2,3.3077653E-3,-1.8125825E-2,-9.100078E-3,-1.3440794E-4,6.2310692E-2,1.3499116E-2,-4.5208083E-3,7.8578135E-3,-1.5519696E-2],"split_indices":[34,43,36,0,36,38,1,43,45,35,0,40,38,35,4,40,34,38,4,4,0,4,4,2,37,42,45,38,35,34,4,0,0,36,39,42,4,41,45,40,0,35,43,34,16,41,43,39,1,41,43,34,45,37,35,40,0,2,41,37,38,0,0,0,0,0,0,0,0,0,0,0,0,0,0,0,0,0,0,0,0,0,0,0,0,0,0,0,0,0,0,0,0,0,0,0,0,0,0,0,0,0,0,0,0,0,0,0,0,0,0,0,0,0,0],"split_type":[0,0,0,0,0,0,0,0,0,0,0,0,0,0,0,0,0,0,0,0,0,0,0,0,0,0,0,0,0,0,0,0,0,0,0,0,0,0,0,0,0,0,0,0,0,0,0,0,0,0,0,0,0,0,0,0,0,0,0,0,0,0,0,0,0,0,0,0,0,0,0,0,0,0,0,0,0,0,0,0,0,0,0,0,0,0,0,0,0,0,0,0,0,0,0,0,0,0,0,0,0,0,0,0,0,0,0,0,0,0,0,0,0,0,0],"sum_hessian":[4.812517E3,1.7784642E3,3.034053E3,2.8590024E2,1.492564E3,6.4839374E2,2.3856592E3,4.79218E1,2.3797844E2,1.4898107E1,1.4776659E3,5.7313736E1,5.9108E2,2.2994809E2,2.155711E3,7.179908E0,4.074189E1,1.849746E2,5.3003857E1,1.0980934E1,3.9171717E0,6.587597E1,1.4117899E3,1.7107471E1,4.020626E1,5.3682684E2,5.4253174E1,1.73953E2,5.599509E1,1.1053585E3,1.0503525E3,5.432873E0,1.7470351E0,8.436517E0,3.2305374E1,1.7404697E2,1.0927618E1,4.0067223E1,1.2936632E1,9.259605E0,1.7213292E0,1.25454235E1,5.3330547E1,9.197303E1,1.3198169E3,5.952699E0,1.1154773E1,3.13146E1,8.891663E0,3.699697E2,1.6685712E2,3.3634064E1,2.061911E1,6.0543503E1,1.134095E2,8.845669E0,4.7149418E1,1.0878596E3,1.7498919E1,7.13223E2,3.371295E2,1.489337E0,6.94718E0,1.4728968E0,3.0832478E1,9.546738E1,7.857959E1,2.9720778E0,7.95554E0,3.4367E1,5.7002254E0,1.9883845E0,1.0948247E1,7.5316277E0,1.7279773E0,3.9517741E0,8.593649E0,3.9428246E1,1.3902304E1,2.6208576E1,6.576446E1,1.2969117E3,2.290511E1,2.220409E0,3.7322903E0,9.665118E0,1.489655E0,1.1794338E1,1.9520262E1,7.1636744E0,1.7279886E0,2.7297705E2,9.6992645E1,3.9420967E1,1.2743615E2,3.9553664E0,2.9678698E1,4.972667E0,1.5646442E1,5.1404648E1,9.138856E0,5.960085E1,5.380865E1,2.4446535E0,6.4010158E0,2.0256094E1,2.6893326E1,2.7010306E2,8.1775653E2,1.23192E1,5.1797185E0,7.295869E1,6.4026434E2,3.0056357E2,3.656592E1],"tree_param":{"num_deleted":"0","num_feature":"48","num_nodes":"115","size_leaf_vector":"1"}},{"base_weights":[8.822891E-3,1.4959872E-1,-7.454309E-2,6.717203E-1,1.4060485E-1,-2.802693E-1,-5.2100345E-2,3.7300685E-1,1.0006754E0,-9.904761E-2,1.5950997E-1,-3.797685E-1,1.5528524E-2,-1.2363818E-1,2.4243912E-2,6.4760524E-1,-9.042194E-1,1.2067573E0,3.4532046E-1,4.6173166E-2,-5.151524E-1,3.701947E-1,1.3378553E-1,-5.234238E-2,-4.4846648E-1,-4.9418938E-1,1.6899766E-1,6.544495E-2,-1.6752476E-1,-7.452628E-1,3.367324E-2,8.715316E-1,-3.3273685E-1,-1.4297865E-2,-5.593521E-2,1.2716864E-2,1.3413827E0,4.0920284E-2,-1.4728746E-2,-5.003498E-1,1.340535E-1,-1.1527053E0,-2.2206268E-1,-5.0480526E-2,4.7197363E-1,1.4471798E-1,-3.244615E-1,-5.7950634E-1,2.9651174E-1,9.917274E-2,-4.9588016E-1,4.2283815E-1,-7.80668E-1,6.7028093E-1,1.0138908E-3,1.3775405E-1,-3.3909014E-1,-7.72288E-1,-1.5428607E-1,-1.0083616E0,3.0651484E-2,2.7170712E-1,6.2863445E-3,5.317938E-2,-9.732861E-3,-3.5538472E-2,9.620863E-3,7.580429E-2,1.4987798E-2,-3.999348E-2,2.5527999E-2,9.427368E-3,-5.4709565E-2,-1.08023705E-5,-7.328471E-2,9.973331E-3,-3.3993732E-2,-3.9817587E-2,6.7763696E-3,5.4518607E-2,1.9979775E-2,-1.5254083E-2,7.7659637E-3,-3.387501E-2,1.2088714E-2,-3.7381493E-2,4.045059E-2,5.844721E-2,3.6672454E-3,-2.0231271E-2,2.8947204E-2,-3.809794E-2,-1.839001E-2,6.5056205E-2,-1.1193392E-2,-6.0929436E-2,-5.219042E-3,4.4385027E-2,-2.4914308E-2,-2.9541766E-2,1.2646354E-2,1.1386779E-2,-1.3640623E-2,-2.3907205E-2,3.7866108E-2,2.4986798E-2,-5.498531E-2,-1.4498605E-3,-1.0543799E-2,-6.491249E-2,-2.6646465E-2,2.5253547E-2,3.5117292E-3,2.2673087E-2,