{"learner":{"attributes":{},"feature_names":["sentiment_mean_BTC","sentiment_mean_MACRO","sentiment_mean_TECH","sentiment_count_BTC","sentiment_count_MACRO","sentiment_count_TECH","sentiment_std_BTC","sentiment_std_MACRO","sentiment_std_TECH","sentiment_total","total_count","sentiment_mean_BTC_roll_mean","sentiment_mean_BTC_roll_std","sentiment_mean_MACRO_roll_mean","sentiment_mean_MACRO_roll_std","sentiment_mean_TECH_roll_mean","sentiment_mean_TECH_roll_std","sentiment_total_roll_mean","sentiment_total_roll_std","sentiment_mean_BTC_lag1","sentiment_mean_MACRO_lag1","sentiment_mean_TECH_lag1","sentiment_total_lag1","sentiment_mean_BTC_shock","sentiment_mean_MACRO_shock","sentiment_mean_TECH_shock","sentiment_total_shock","div_btc_macro","fear_greed_index"],"feature_types":["float","float","float","float","float","float","float","float","float","float","float","float","float","float","float","float","float","float","float","float","float","float","float","float","float","float","float","float","float"],"gradient_booster":{"model":{"cats":{"enc":[],"feature_segments":[],"sorted_idx":[]},"gbtree_model_param":{"num_parallel_tree":"1","num_trees":"100"},"iteration_indptr":[0,1,2,3,4,5,6,7,8,9,10,11,12,13,14,15,16,17,18,19,20,21,22,23,24,25,26,27,28,29,30,31,32,33,34,35,36,37,38,39,40,41,42,43,44,45,46,47,48,49,50,51,52,53,54,55,56,57,58,59,60,61,62,63,64,65,66,67,68,69,70,71,72,73,74,75,76,77,78,79,80,81,82,83,84,85,86,87,88,89,90,91,92,93,94,95,96,97,98,99,100],"tree_info":[0,0,0,0,0,0,0,0,0,0,0,0,0,0,0,0,0,0,0,0,0,0,0,0,0,0,0,0,0,0,0,0,0,0,0,0,0,0,0,0,0,0,0,0,0,0,0,0,0,0,0,0,0,0,0,0,0,0,0,0,0,0,0,0,0,0,0,0,0,0,0,0,0,0,0,0,0,0,0,0,0,0,0,0,0,0,0,0,0,0,0,0,0,0,0,0,0,0,0,0],"trees":[{"base_weights":[-3.3332316E-11,1.244581E-4,-1.0879393E-3,1.2084846E-4,1.1860116E-2,-9.856537E-4,-2.059588E-2,1.12386304E-4,1.4339691E-2,-2.08676E-3,-2.0998743E-4,-8.751074E-3,-3.295631E-2,1.061155E-4,1.0641598E-2,1.11439405E-2,3.783011E-3,-8.688046E-4,-5.0856643E-3,-6.8920356E-4,1.6026369E-3,-3.9783726E-3,-9.2559576E-4,-1.1057397E-2,-2.0171858E-3,-2.2026838E-3,1.25506E-4,6.049765E-3,2.1681865E-3,7.731104E-3,-1.3756791E-4,-6.1332965E-3,-3.299844E-4,-6.8098833E-3,-1.1696348E-3,-3.1412814E-3,-2.1626044E-4,7.000121E-4,1.0200121E-2,-1.0439177E-3,1.0105191E-3,-6.524531E-5,-1.050033E-3,1.9664504E-3,3.5064902E-5,2.866745E-3,-7.569179E-5,3.2714766E-3,-7.4462534E-4,-5.429312E-4,6.413675E-4,-1.4435116E-3,-6.5469025E-3,-1.4491148E-4,3.6957224E-3,-2.58707E-3,-2.9361542E-4,-1.1344358E-4,-7.3573324E-3,-6.2172033E-4,-2.5998023E-3,2.3343465E-4,-4.986238E-4,4.0227204E-4,-9.785714E-4,-3.5400848E-5,4.953659E-3],"categories":[],"categories_nodes":[],"categories_segments":[],"categories_sizes":[],"default_left":[0,0,0,0,0,0,0,0,0,0,0,0,0,0,0,0,0,0,0,0,0,0,0,0,0,0,0,0,0,0,0,0,0,0,0,0,0,0,0,0,0,0,0,0,0,0,0,0,0,0,0,0,0,0,0,0,0,0,0,0,0,0,0,0,0,0,0],"id":0,"left_children":[1,3,5,7,-1,9,11,13,15,17,19,21,23,25,27,-1,29,31,33,35,37,-1,39,-1,-1,41,43,-1,45,47,49,51,53,55,57,59,61,63,65,-1,-1,-1,-1,-1,-1,-1,-1,-1,-1,-1,-1,-1,-1,-1,-1,-1,-1,-1,-1,-1,-1,-1,-1,-1,-1,-1,-1],"loss_changes":[3.3001748E-3,3.106449E-3,4.972144E-3,2.6298321E-3,0E0,2.1262488E-3,1.6148868E-3,1.4420825E-3,2.9894044E-3,3.7540365E-3,1.2710544E-3,2.700793E-4,3.6627054E-4,9.782955E-4,1.0054177E-3,0E0,1.5585167E-4,2.0772147E-3,1.9974057E-3,1.3410859E-3,2.3675126E-3,0E0,5.5590754E-5,0E0,0E0,4.680071E-4,1.2003449E-3,0E0,1.4546461E-4,1.8914093E-4,2.669927E-5,1.3050006E-3,1.2953179E-3,2.170193E-3,1.691354E-3,1.0863263E-3,1.3972878E-3,7.102635E-4,1.8906831E-3,0E0,0E0,0E0,0E0,0E0,0E0,0E0,0E0,0E0,0E0,0E0,0E0,0E0,0E0,0E0,0E0,0E0,0E0,0E0,0E0,0E0,0E0,0E0,0E0,0E0,0E0,0E0,0E0],"parents":[2147483647,0,0,1,1,2,2,3,3,5,5,6,6,7,7,8,8,9,9,10,10,11,11,12,12,13,13,14,14,16,16,17,17,18,18,19,19,20,20,22,22,25,25,26,26,28,28,29,29,30,30,31,31,32,32,33,33,34,34,35,35,36,36,37,37,38,38],"right_children":[2,4,6,8,-1,10,12,14,16,18,20,22,24,26,28,-1,30,32,34,36,38,-1,40,-1,-1,42,44,-1,46,48,50,52,54,56,58,60,62,64,66,-1,-1,-1,-1,-1,-1,-1,-1,-1,-1,-1,-1,-1,-1,-1,-1,-1,-1,-1,-1,-1,-1,-1,-1,-1,-1,-1,-1],"split_conditions":[8.027476E-2,2.19E2,2.26E2,7.7406794E-2,1.1860116E-2,1.9993007E-1,-1.1481252E-1,2.1E1,-1.4779808E-1,1.3E1,1.4E1,1.7704935E-1,2.759358E-1,-4.8802618E-2,-1.2336739E-2,1.11439405E-2,5.1757812E-2,2.2804995E-1,2.3033443E-1,1.6383351E-1,5.481722E-1,-3.9783726E-3,1.157784E-1,-1.1057397E-2,-2.0171858E-3,-2.8363392E-1,0E0,6.049765E-3,-1.13398924E-1,3.9578465E-1,2.030126E-1,5E0,1.17E2,5.829814E-1,4.3128857E-1,1.5840061E-1,2.9253134E-1,3.4106517E-1,1.0485731E-1,-1.0439177E-3,1.0105191E-3,-6.524531E-5,-1.050033E-3,1.9664504E-3,3.5064902E-5,2.866745E-3,-7.569179E-5,3.2714766E-3,-7.4462534E-4,-5.429312E-4,6.413675E-4,-1.4435116E-3,-6.5469025E-3,-1.4491148E-4,3.6957224E-3,-2.58707E-3,-2.9361542E-4,-1.1344358E-4,-7.3573324E-3,-6.2172033E-4,-2.5998023E-3,2.3343465E-4,-4.986238E-4,4.0227204E-4,-9.785714E-4,-3.5400848E-5,4.953659E-3],"split_indices":[17,4,4,17,0,9,27,3,19,3,3,20,0,0,11,0,19,6,12,11,6,0,0,0,0,9,27,0,0,0,19,3,4,6,12,17,17,11,22,0,0,0,0,0,0,0,0,0,0,0,0,0,0,0,0,0,0,0,0,0,0,0,0,0,0,0,0],"split_type":[0,0,0,0,0,0,0,0,0,0,0,0,0,0,0,0,0,0,0,0,0,0,0,0,0,0,0,0,0,0,0,0,0,0,0,0,0,0,0,0,0,0,0,0,0,0,0,0,0,0,0,0,0,0,0,0,0,0,0,0,0,0,0,0,0,0,0],"sum_hessian":[2.4371E4,2.187E4,2.501E3,2.1869E4,1E0,2.489E3,1.2E1,2.1857E4,1.2E1,1.028E3,1.461E3,7E0,5E0,2.1845E4,1.2E1,3E0,9E0,7.32E2,2.96E2,1.156E3,3.05E2,4E0,3E0,4E0,1E0,1.81E2,2.1664E4,5E0,7E0,4E0,5E0,6.7E1,6.65E2,2.05E2,9.1E1,1.86E2,9.7E2,2.77E2,2.8E1,2E0,1E0,7.2E1,1.09E2,2.8E1,2.1636E4,1E0,6E0,3E0,1E0,3E0,2E0,6.3E1,4E0,6.58E2,7E0,1.56E2,4.9E1,8.9E1,2E0,1.57E2,2.9E1,5.75E2,3.95E2,2.39E2,3.8E1,1.1E1,1.7E1],"tree_param":{"num_deleted":"0","num_feature":"29","num_nodes":"67","size_leaf_vector":"1"}},{"base_weights":[1.7788008E-7,-2.5797885E-6,1.0081098E-2,7.3627148E-6,-1.6147045E-2,-5.7319645E-3,1.8931256E-5,-2.6516698E-3,-2.0813392E-2,-3.9102486E-3,-2.0981014E-2,8.864602E-5,-6.563143E-4,-1.4238468E-3,8.5894123E-4,-8.957412E-3,-2.630861E-2,2.72772E-4,-5.8081537E-3,-1.52671E-3,-1.0032495E-2,2.3920299E-3,7.168906E-5,-5.2040315E-4,-8.049124E-3,-2.9840276E-3,-7.5000455E-4,-9.0712E-3,-3.2973604E-3,-5.6865066E-4,1.4965263E-3,-3.1521001E-3,-8.095316E-4,5.598054E-5,-7.4300007E-4,8.239052E-3,5.226509E-4,1.7993854E-5,9.325884E-4,-1.4073465E-3,-9.5012336E-5,-3.4758248E-3,4.3920949E-4],"categories":[],"categories_nodes":[],"categories_segments":[],"categories_sizes":[],"default_left":[0,0,0,0,0,0,0,0,0,0,0,0,0,0,0,0,0,0,0,0,0,0,0,0,0,0,0,0,0,0,0,0,0,0,0,0,0,0,0,0,0,0,0],"id":1,"left_children":[1,3,-1,5,7,9,11,13,15,17,19,21,23,-1,-1,25,27,29,31,33,-1,35,37,39,41,-1,-1,-1,-1,-1,-1,-1,-1,-1,-1,-1,-1,-1,-1,-1,-1,-1,-1],"loss_changes":[2.2585737E-3,3.9120642E-3,0E0,1.6173072E-3,8.894219E-4,1.2791513E-3,1.1443943E-3,7.1342336E-5,4.8100576E-4,3.5883818E-4,1.1610091E-3,8.6048E-4,2.2816532E-3,0E0,0E0,7.075956E-6,8.890033E-5,1.6282784E-4,4.2462174E-4,5.344867E-6,0E0,2.57532E-3,7.7771454E-4,1.8972871E-3,1.3965156E-3,0E0,0E0,0E0,0E0,0E0,0E0,0E0,0E0,0E0,0E0,0E0,0E0,0E0,0E0,0E0,0E0,0E0,0E0],"parents":[2147483647,0,0,1,1,3,3,4,4,5,5,6,6,7,7,8,8,9,9,10,10,11,11,12,12,15,15,16,16,17,17,18,18,19,19,21,21,22,22,23,23,24,24],"right_children":[2,4,-1,6,8,10,12,14,16,18,20,22,24,-1,-1,26,28,30,32,34,-1,36,38,40,42,-1,-1,-1,-1,-1,-1,-1,-1,-1,-1,-1,-1,-1,-1,-1,-1,-1,-1],"split_conditions":[3.86E2,2.32E2,1.0081098E-2,-5.4343885E-1,5.839261E-1,5E0,1.4372543E-2,1.059389E-1,1.5E1,-3.1635437E-2,-1.3181618E-1,-3.5132847E-3,5.0644577E-1,-1.4238468E-3,8.5894123E-4,2.0561464E-1,1.8E1,7.2789714E-2,1.0283454E-1,-6.115305E-1,-1.0032495E-2,1.09440155E-1,3.8516358E-1,4.8049748E-2,5.9132385E-1,-2.9840276E-3,-7.5000455E-4,-9.0712E-3,-3.2973604E-3,-5.6865066E-4,1.4965263E-3,-3.1521001E-3,-8.095316E-4,5.598054E-5,-7.4300007E-4,8.239052E-3,5.226509E-4,1.7993854E-5,9.325884E-4,-1.4073465E-3,-9.5012336E-5,-3.4758248E-3,4.3920949E-4],"split_indices":[4,10,0,0,7,3,22,0,3,17,11,27,12,0,0,1,3,6,17,0,0,12,12,22,12,0,0,0,0,0,0,0,0,0,0,0,0,0,0,0,0,0,0],"split_type":[0,0,0,0,0,0,0,0,0,0,0,0,0,0,0,0,0,0,0,0,0,0,0,0,0,0,0,0,0,0,0,0,0,0,0,0,0,0,0,0,0,0,0],"sum_hessian":[2.4371E4,2.437E4,1E0,2.4356E4,1.4E1,4.8E1,2.4308E4,4E0,1E1,4.4E1,4E0,2.2034E4,2.274E3,3E0,1E0,4E0,6E0,1.4E1,3E1,2E0,2E0,1.6E2,2.1874E4,2.234E3,4E1,3E0,1E0,4E0,2E0,1E1,4E0,1.1E1,1.9E1,1E0,1E0,3E0,1.57E2,2.1791E4,8.3E1,1.03E2,2.131E3,2.9E1,1.1E1],"tree_param":{"num_deleted":"0","num_feature":"29","num_nodes":"43","size_leaf_vector":"1"}},{"base_weights":[-4.977119E-7,-2.8417571E-6,8.568934E-3,5.115303E-6,-1.2115299E-2,4.6643632E-5,-1.1749876E-3,-1.5386607E-2,-1.8411E-3,1.2861085E-5,1.6218828E-3,1.3391959E-3,-1.619729E-3,-1.7574595E-2,-8.8933297E-4,-3.5182084E-3,7.301E-4,7.925481E-5,-1.2158554E-3,6.822274E-3,8.59738E-4,-1.6471706E-3,3.352069E-3,-1.1910098E-3,-6.2014656E-3,-1.608001E-3,-1.9958243E-2,-1.214537E-3,-2.891196E-4,2.2627624E-5,5.039815E-3,-1.3292405E-3,-2.7819467E-4,-2.5426147E-3,2.4861498E-3,3.093103E-4,-2.9063057E-3,-9.667692E-4,3.2116116E-3,5.1273324E-4,2.6570763E-3,-4.0710246E-4,1.3999977E-3,-2.5795272E-3,1.2308701E-3,-6.664353E-3,-2.6378883E-3],"categories":[],"categories_nodes":[],"categories_segments":[],"categories_sizes":[],"default_left":[0,0,0,0,0,0,0,0,0,0,0,0,0,0,0,0,0,0,0,0,0,0,0,0,0,0,0,0,0,0,0,0,0,0,0,0,0,0,0,0,0,0,0,0,0,0,0],"id":2,"left_children":[1,3,-1,5,7,9,11,13,15,17,19,21,23,25,-1,27,-1,29,31,33,35,37,39,41,43,-1,45,-1,-1,-1,-1,-1,-1,-1,-1,-1,-1,-1,-1,-1,-1,-1,-1,-1,-1,-1,-1],"loss_changes":[1.6318938E-3,2.348928E-3,0E0,1.1936865E-3,5.094325E-4,1.2520886E-3,9.280067E-4,2.7405587E-4,4.4408374E-5,1.8793517E-3,1.9520797E-3,7.569185E-4,1.3754665E-3,1.8417672E-4,0E0,1.5164005E-6,0E0,1.3981276E-3,1.0914339E-3,1.4820292E-3,7.9049764E-4,1.0269644E-3,6.6318054E-4,6.3350744E-4,1.5172262E-3,0E0,6.2035397E-6,0E0,0E0,0E0,0E0,0E0,0E0,0E0,0E0,0E0,0E0,0E0,0E0,0E0,0E0,0E0,0E0,0E0,0E0,0E0,0E0],"parents":[2147483647,0,0,1,1,3,3,4,4,5,5,6,6,7,7,8,8,9,9,10,10,11,11,12,12,13,13,15,15,17,17,18,18,19,19,20,20,21,21,22,22,23,23,24,24,26,26],"right_children":[2,4,-1,6,8,10,12,14,16,18,20,22,24,26,-1,28,-1,30,32,34,36,38,40,42,44,-1,46,-1,-1,-1,-1,-1,-1,-1,-1,-1,-1,-1,-1,-1,-1,-1,-1,-1,-1,-1,-1],"split_conditions":[3.86E2,2.16E2,8.568934E-3,2.931567E-1,1.0532945E-1,3.728646E-1,-2.8858712E-1,2.0827729E-1,-1.6925511E-1,1.3501053E-1,1.3316149E-1,1.4222202E-1,5.0644577E-1,1.3E1,-8.8933297E-4,-2.6210532E-1,7.301E-4,8.7E1,1.5420778E-1,8.4876426E-2,2.4E1,5.4675144E-1,-3.48755E-1,1.9E1,6.059215E-1,-1.608001E-3,1.8E1,-1.214537E-3,-2.891196E-4,2.2627624E-5,5.039815E-3,-1.3292405E-3,-2.7819467E-4,-2.5426147E-3,2.4861498E-3,3.093103E-4,-2.9063057E-3,-9.667692E-4,3.2116116E-3,5.1273324E-4,2.6570763E-3,-4.0710246E-4,1.3999977E-3,-2.5795272E-3,1.2308701E-3,-6.664353E-3,-2.6378883E-3],"split_indices":[4,4,0,18,19,27,19,1,0,17,12,0,12,3,0,0,0,4,17,18,10,12,19,3,9,0,3,0,0,0,0,0,0,0,0,0,0,0,0,0,0,0,0,0,0,0,0],"split_type":[0,0,0,0,0,0,0,0,0,0,0,0,0,0,0,0,0,0,0,0,0,0,0,0,0,0,0,0,0,0,0,0,0,0,0,0,0,0,0,0,0,0,0,0,0,0,0],"sum_hessian":[2.4371E4,2.437E4,1E0,2.4355E4,1.5E1,2.3528E4,8.27E2,1.1E1,4E0,2.3035E4,4.93E2,1.24E2,7.03E2,9E0,2E0,3E0,1E0,2.1855E4,1.18E3,6.2E1,4.31E2,5E1,7.4E1,6.44E2,5.9E1,2E0,7E0,2E0,1E0,2.1851E4,4E0,9.6E1,1.084E3,5E0,5.7E1,4.25E2,6E0,4.5E1,5E0,5.8E1,1.6E1,6.27E2,1.7E1,4.8E1,1.1E1,5E0,2E0],"tree_param":{"num_deleted":"0","num_feature":"29","num_nodes":"47","size_leaf_vector":"1"}},{"base_weights":[-2.723582E-7,-2.2647905E-6,7.283594E-3,3.821205E-6,-9.26653E-3,1.8519715E-5,-1.7715575E-3,-4.955212E-3,-1.562619E-2,-1.8668284E-3,2.8719347E-5,-2.6487128E-3,7.826569E-3,-5.8644563E-3,6.2058505E-4,-1.738369E-2,-1.0258037E-3,-2.6942485E-3,1.1088109E-2,4.427693E-5,-1.513481E-3,-2.0042607E-3,-1.1718838E-2,2.3308877E-2,2.844011E-3,-2.561246E-3,-3.4992315E-3,-6.3078105E-3,-2.3840351E-3,-2.333296E-3,-5.0722936E-4,4.058547E-3,7.533933E-4,4.846762E-3,1.2876141E-5,-1.6914741E-3,2.2310685E-4,2.576191E-4,-1.2016639E-3,-9.879044E-5,-5.211733E-3,-1.5899367E-4,9.429546E-3,5.8780035E-5,2.2714091E-3,-2.457517E-4,-1.1428138E-3],"categories":[],"categories_nodes":[],"categories_segments":[],"categories_sizes":[],"default_left":[0,0,0,0,0,0,0,0,0,0,0,0,0,0,0,0,0,0,0,0,0,0,0,0,0,0,0,0,0,0,0,0,0,0,0,0,0,0,0,0,0,0,0,0,0,0,0],"id":3,"left_children":[1,3,-1,5,7,9,11,13,15,17,19,21,23,25,-1,27,-1,29,31,33,35,37,39,41,43,-1,45,-1,-1,-1,-1,-1,-1,-1,-1,-1,-1,-1,-1,-1,-1,-1,-1,-1,-1,-1,-1],"loss_changes":[1.1790285E-3,1.3741278E-3,0E0,6.356129E-4,3.6126538E-4,4.645892E-4,1.7045396E-3,8.238148E-5,6.928027E-5,1.4233668E-3,5.7656865E-4,1.0520404E-3,1.2451147E-3,3.3348537E-5,0E0,4.773028E-6,0E0,6.1428704E-4,1.334711E-4,5.192088E-4,2.2386652E-3,9.946711E-4,7.6698256E-4,7.912251E-4,1.7377408E-4,0E0,2.6979615E-6,0E0,0E0,0E0,0E0,0E0,0E0,0E0,0E0,0E0,0E0,0E0,0E0,0E0,0E0,0E0,0E0,0E0,0E0,0E0,0E0],"parents":[2147483647,0,0,1,1,3,3,4,4,5,5,6,6,7,7,8,8,9,9,10,10,11,11,12,12,13,13,15,15,17,17,18,18,19,19,20,20,21,21,22,22,23,23,24,24,26,26],"right_children":[2,4,-1,6,8,10,12,14,16,18,20,22,24,26,-1,28,-1,30,32,34,36,38,40,42,44,-1,46,-1,-1,-1,-1,-1,-1,-1,-1,-1,-1,-1,-1,-1,-1,-1,-1,-1,-1,-1,-1],"split_conditions":[3.86E2,2.16E2,7.283594E-3,4.3128857E-1,-1.1481252E-1,-1.0368065E-3,6.668835E-1,1.157784E-1,2.759358E-1,2.1E1,1.8E1,1.2E1,6.699477E-1,1.2104853E-1,6.2058505E-4,2.46E2,-1.0258037E-3,1.9142431E-1,-1.2336739E-2,0E0,1.73735E-1,1.251748E-1,-5.5115074E-2,5.7261094E-2,2.1475197E-1,-2.561246E-3,9E0,-6.3078105E-3,-2.3840351E-3,-2.333296E-3,-5.0722936E-4,4.058547E-3,7.533933E-4,4.846762E-3,1.2876141E-5,-1.6914741E-3,2.2310685E-4,2.576191E-4,-1.2016639E-3,-9.879044E-5,-5.211733E-3,-1.5899367E-4,9.429546E-3,5.8780035E-5,2.2714091E-3,-2.457517E-4,-1.1428138E-3],"split_indices":[4,4,0,12,27,17,6,0,0,3,3,3,6,1,0,4,0,12,11,17,0,19,11,0,11,0,3,0,0,0,0,0,0,0,0,0,0,0,0,0,0,0,0,0,0,0,0],"split_type":[0,0,0,0,0,0,0,0,0,0,0,0,0,0,0,0,0,0,0,0,0,0,0,0,0,0,0,0,0,0,0,0,0,0,0,0,0,0,0,0,0,0,0,0,0,0,0],"sum_hessian":[2.4371E4,2.437E4,1E0,2.4355E4,1.5E1,2.4156E4,1.99E2,1E1,5E0,1.29E2,2.4027E4,1.83E2,1.6E1,9E0,1E0,4E0,1E0,1.22E2,7E0,2.3788E4,2.39E2,1.72E2,1.1E1,3E0,1.3E1,3E0,6E0,2E0,2E0,1.9E1,1.03E2,5E0,2E0,1E0,2.3787E4,8.4E1,1.55E2,7.1E1,1.01E2,4E0,7E0,1E0,2E0,9E0,4E0,1E0,5E0],"tree_param":{"num_deleted":"0","num_feature":"29","num_nodes":"47","size_leaf_vector":"1"}},{"base_weights":[1.229794E-8,-1.6812594E-6,6.191055E-3,3.1145526E-6,-7.302001E-3,3.4907778E-5,-5.890977E-4,-3.7713053E-3,-1.2557942E-2,1.6005286E-5,2.6168032E-3,-4.5301497E-4,-6.2607937E-3,-4.500101E-3,5.2749726E-4,-1.3906954E-2,-8.719331E-4,1.3224749E-5,7.101815E-3,4.97651E-3,-5.985905E-4,-1.4541995E-3,1.7132326E-4,-1.7888687E-3,-2.0059863E-2,-1.9849655E-3,-2.6478285E-3,-5.046249E-3,-1.9072283E-3,2.7194576E-6,1.3659049E-3,9.236801E-4,2.9113002E-3,1.6133286E-4,2.4650083E-3,-4.589732E-3,7.868657E-5,-7.16022E-4,4.4402372E-4,-5.6044075E-5,1.220495E-3,-3.3434369E-3,6.5063906E-4,-9.620098E-3,-9.113292E-4,-3.0382967E-4,-9.2979026E-4],"categories":[],"categories_nodes":[],"categories_segments":[],"categories_sizes":[],"default_left":[0,0,0,0,0,0,0,0,0,0,0,0,0,0,0,0,0,0,0,0,0,0,0,0,0,0,0,0,0,0,0,0,0,0,0,0,0,0,0,0,0,0,0,0,0,0,0],"id":4,"left_children":[1,3,-1,5,7,9,11,13,15,17,19,21,23,25,-1,27,-1,29,31,33,35,37,39,41,43,-1,45,-1,-1,-1,-1,-1,-1,-1,-1,-1,-1,-1,-1,-1,-1,-1,-1,-1,-1,-1,-1],"loss_changes":[8.5182796E-4,8.532749E-4,0E0,4.5860358E-4,2.4955423E-4,1.1281174E-3,9.549918E-4,5.2242292E-5,3.7699996E-5,4.5205545E-4,1.2776598E-3,7.584685E-4,1.7536592E-3,2.1682936E-5,0E0,3.054738E-6,0E0,4.3320033E-4,6.434764E-5,1.3906658E-3,9.151991E-4,1.2786638E-3,1.0447113E-3,8.7580556E-4,1.3332944E-3,0E0,2.0284351E-6,0E0,0E0,0E0,0E0,0E0,0E0,0E0,0E0,0E0,0E0,0E0,0E0,0E0,0E0,0E0,0E0,0E0,0E0,0E0,0E0],"parents":[2147483647,0,0,1,1,3,3,4,4,5,5,6,6,7,7,8,8,9,9,10,10,11,11,12,12,13,13,15,15,17,17,18,18,19,19,20,20,21,21,22,22,23,23,24,24,26,26],"right_children":[2,4,-1,6,8,10,12,14,16,18,20,22,24,26,-1,28,-1,30,32,34,36,38,40,42,44,-1,46,-1,-1,-1,-1,-1,-1,-1,-1,-1,-1,-1,-1,-1,-1,-1,-1,-1,-1,-1,-1],"split_conditions":[3.86E2,2.16E2,6.191055E-3,2.707747E-1,-1.1481252E-1,2.3876263E-1,2.2E1,1.157784E-1,2.759358E-1,6.1774397E-1,1.9830774E-1,3.7905627E-1,3.4106517E-1,1.2104853E-1,5.2749726E-4,2.46E2,-8.719331E-4,2.4E1,-5.4343885E-1,1.3629922E-1,2.012464E-1,3.8540846E-1,6.5446097E-1,1.22544594E-1,3.9079946E-1,-1.9849655E-3,1.5639603E-1,-5.046249E-3,-1.9072283E-3,2.7194576E-6,1.3659049E-3,9.236801E-4,2.9113002E-3,1.6133286E-4,2.4650083E-3,-4.589732E-3,7.868657E-5,-7.16022E-4,4.4402372E-4,-5.6044075E-5,1.220495E-3,-3.3434369E-3,6.5063906E-4,-9.620098E-3,-9.113292E-4,-3.0382967E-4,-9.2979026E-4],"split_indices":[4,4,0,22,27,19,10,0,0,12,18,19,11,1,0,4,0,3,19,12,12,0,6,18,19,0,1,0,0,0,0,0,0,0,0,0,0,0,0,0,0,0,0,0,0,0,0],"split_type":[0,0,0,0,0,0,0,0,0,0,0,0,0,0,0,0,0,0,0,0,0,0,0,0,0,0,0,0,0,0,0,0,0,0,0,0,0,0,0,0,0,0,0,0,0,0,0],"sum_hessian":[2.4371E4,2.437E4,1E0,2.4355E4,1.5E1,2.3115E4,1.24E3,1E1,5E0,2.2948E4,1.67E2,1.212E3,2.8E1,9E0,1E0,4E0,1E0,2.294E4,8E0,9.6E1,7.1E1,4.65E2,7.47E2,2.2E1,6E0,3E0,6E0,2E0,2E0,2.292E4,2E1,4E0,4E0,4.1E1,5.5E1,3E0,6.8E1,3.53E2,1.12E2,6.85E2,6.2E1,6E0,1.6E1,3E0,3E0,2E0,4E0],"tree_param":{"num_deleted":"0","num_feature":"29","num_nodes":"47","size_leaf_vector":"1"}},{"base_weights":[-5.3865693E-7,-1.9782033E-6,5.2623963E-3,6.3736334E-6,-3.3861094E-3,3.2898301E-6,9.374557E-3,3.0322594E-3,-9.09694E-3,-3.7688038E-3,7.484535E-6,1.1186493E-2,7.8774994E-4,9.97012E-3,7.8889914E-4,-1.177675E-2,-4.274391E-3,5.8572427E-3,-8.130152E-3,-8.8694424E-7,1.8810764E-3,3.6896172E-3,8.4380043E-4,4.987651E-3,-1.3336674E-3,-2.41129E-3,4.499223E-3,-3.2217978E-3,-1.3714126E-2,-1.2264918E-3,-3.2476627E-3,2.8384672E-3,7.4344774E-4,-1.1019884E-2,-7.813068E-4,1.2956486E-6,-1.0773181E-3,3.732938E-4,3.749602E-3,-1.3914234E-4,-1.6303502E-3,2.0119299E-3,1.5278556E-4,-1.4395692E-3,-1.7132986E-4,-5.1377057E-3,-2.7473513E-3,-1.2088616E-3,1.6513867E-4],"categories":[],"categories_nodes":[],"categories_segments":[],"categories_sizes":[],"default_left":[0,0,0,0,0,0,0,0,0,0,0,0,0,0,0,0,0,0,0,0,0,0,0,0,0,0,0,0,0,0,0,0,0,0,0,0,0,0,0,0,0,0,0,0,0,0,0,0,0],"id":5,"left_children":[1,3,-1,5,7,9,11,13,15,17,19,21,-1,23,25,27,29,31,33,35,37,-1,-1,-1,-1,39,41,43,45,47,-1,-1,-1,-1,-1,-1,-1,-1,-1,-1,-1,-1,-1,-1,-1,-1,-1,-1,-1],"loss_changes":[6.154842E-4,6.8883656E-4,0E0,7.02334E-4,2.2268372E-3,3.8460188E-4,6.845221E-5,4.4349406E-4,3.6321417E-4,1.1811489E-3,3.808113E-4,2.128951E-5,0E0,7.455026E-4,2.8394492E-4,2.872988E-4,2.4629675E-4,8.6166285E-5,2.907345E-3,4.5178123E-4,7.146249E-4,0E0,0E0,0E0,0E0,7.401887E-5,9.345742E-5,1.8157189E-5,9.187055E-5,5.202695E-5,0E0,0E0,0E0,0E0,0E0,0E0,0E0,0E0,0E0,0E0,0E0,0E0,0E0,0E0,0E0,0E0,0E0,0E0,0E0],"parents":[2147483647,0,0,1,1,3,3,4,4,5,5,6,6,7,7,8,8,9,9,10,10,11,11,13,13,14,14,15,15,16,16,17,17,18,18,19,19,20,20,25,25,26,26,27,27,28,28,29,29],"right_children":[2,4,-1,6,8,10,12,14,16,18,20,22,-1,24,26,28,30,32,34,36,38,-1,-1,-1,-1,40,42,44,46,48,-1,-1,-1,-1,-1,-1,-1,-1,-1,-1,-1,-1,-1,-1,-1,-1,-1,-1,-1],"split_conditions":[3.86E2,2.6E1,5.2623963E-3,2.5E1,-1.2576471E-1,0E0,1.9315489E-1,1.2652978E-1,2.0478885E-1,3E0,4.113923E-1,2.3312569E-1,7.8774994E-4,1.67E2,1.6375361E-1,2.3961744E-1,2.94166E-1,4.6044798E-3,-5.4343885E-1,3.9060676E-1,7.3540014E-1,3.6896172E-3,8.4380043E-4,4.987651E-3,-1.3336674E-3,-1.6925511E-1,-2.8864357E-1,1.9934933E-1,1.78E2,1.4529951E-1,-3.2476627E-3,2.8384672E-3,7.4344774E-4,-1.1019884E-2,-7.813068E-4,1.2956486E-6,-1.0773181E-3,3.732938E-4,3.749602E-3,-1.3914234E-4,-1.6303502E-3,2.0119299E-3,1.5278556E-4,-1.4395692E-3,-1.7132986E-4,-5.1377057E-3,-2.7473513E-3,-1.2088616E-3,1.6513867E-4],"split_indices":[4,10,0,3,27,23,12,17,17,3,11,11,0,4,9,12,19,6,0,11,19,0,0,0,0,0,27,12,10,18,0,0,0,0,0,0,0,0,0,0,0,0,0,0,0,0,0,0,0],"split_type":[0,0,0,0,0,0,0,0,0,0,0,0,0,0,0,0,0,0,0,0,0,0,0,0,0,0,0,0,0,0,0,0,0,0,0,0,0,0,0,0,0,0,0,0,0,0,0,0,0],"sum_hessian":[2.4371E4,2.437E4,1E0,2.4311E4,5.9E1,2.4304E4,7E0,2.8E1,3.1E1,2.6E1,2.4278E4,5E0,2E0,6E0,2.2E1,1.9E1,1.2E1,8E0,1.8E1,2.4171E4,1.07E2,4E0,1E0,4E0,2E0,1.2E1,1E1,4E0,1.5E1,9E0,3E0,3E0,5E0,2E0,1.6E1,2.4137E4,3.4E1,1.02E2,5E0,8E0,4E0,6E0,4E0,2E0,2E0,7E0,8E0,3E0,6E0],"tree_param":{"num_deleted":"0","num_feature":"29","num_nodes":"49","size_leaf_vector":"1"}},{"base_weights":[-5.545367E-7,-1.7781549E-6,4.473037E-3,4.467725E-6,-2.532579E-3,2.0901311E-6,7.227336E-3,2.262209E-3,-6.7987125E-3,2.3616067E-5,-6.105797E-4,8.586114E-3,6.301999E-4,7.501081E-3,5.69413E-4,-8.718523E-3,-3.3221801E-3,-6.8931906E-3,2.8036253E-5,-7.4957096E-4,2.6450574E-3,9.973634E-4,3.1157292E-3,1.2635381E-2,-1.066934E-3,-1.8240178E-3,3.3462483E-3,-5.2712513E-3,-1.2346161E-2,-9.629164E-4,-2.5169384E-3,-5.8709723E-3,4.206477E-4,5.573854E-3,7.936177E-6,3.0645804E-4,-3.0741846E-4,-1.8882683E-3,1.3210067E-3,4.1765156E-3,1.1235051E-3,-1.0203772E-4,-1.239066E-3,1.5263361E-3,7.165332E-5,-2.1446222E-3,-3.6390597E-4,-3.2904043E-4,-4.0845694E-3,-1.1059231E-3,5.362747E-5],"categories":[],"categories_nodes":[],"categories_segments":[],"categories_sizes":[],"default_left":[0,0,0,0,0,0,0,0,0,0,0,0,0,0,0,0,0,0,0,0,0,0,0,0,0,0,0,0,0,0,0,0,0,0,0,0,0,0,0,0,0,0,0,0,0,0,0,0,0,0,0],"id":6,"left_children":[1,3,-1,5,7,9,11,13,15,17,19,21,-1,23,25,27,29,31,33,35,37,-1,-1,39,-1,41,43,45,47,49,-1,-1,-1,-1,-1,-1,-1,-1,-1,-1,-1,-1,-1,-1,-1,-1,-1,-1,-1,-1,-1],"loss_changes":[4.4469305E-4,3.8524557E-4,0E0,4.1749596E-4,1.2426925E-3,3.2055585E-4,3.7691527E-5,2.529107E-4,1.8461258E-4,7.1809115E-4,3.752994E-4,2.2285967E-5,0E0,4.4234566E-4,1.5896537E-4,1.8502912E-4,1.4734724E-4,1.6048071E-3,6.8837253E-4,3.8701246E-4,5.6212523E-4,0E0,0E0,5.0429953E-6,0E0,4.3083226E-5,5.831312E-5,8.2759856E-5,1.135529E-4,3.1752417E-5,0E0,0E0,0E0,0E0,0E0,0E0,0E0,0E0,0E0,0E0,0E0,0E0,0E0,0E0,0E0,0E0,0E0,0E0,0E0,0E0,0E0],"parents":[2147483647,0,0,1,1,3,3,4,4,5,5,6,6,7,7,8,8,9,9,10,10,11,11,13,13,14,14,15,15,16,16,17,17,18,18,19,19,20,20,23,23,25,25,26,26,27,27,28,28,29,29],"right_children":[2,4,-1,6,8,10,12,14,16,18,20,22,-1,24,26,28,30,32,34,36,38,-1,-1,40,-1,42,44,46,48,50,-1,-1,-1,-1,-1,-1,-1,-1,-1,-1,-1,-1,-1,-1,-1,-1,-1,-1,-1,-1,-1],"split_conditions":[3.86E2,2.6E1,4.473037E-3,2.5E1,-1.2576471E-1,2.931567E-1,1.9315489E-1,1.2652978E-1,2.0478885E-1,-9.7624816E-2,1.7E1,5.185534E-1,6.301999E-4,1.67E2,1.6375361E-1,1.653001E-1,2.94166E-1,1.9142431E-1,-9.5100515E-2,-3.239822E-1,-1.0624257E-1,9.973634E-4,3.1157292E-3,9E0,-1.066934E-3,-1.6925511E-1,5.1974066E-2,-5.2327987E-2,-1.75989E-1,1.6380782E-1,-2.5169384E-3,-5.8709723E-3,4.206477E-4,5.573854E-3,7.936177E-6,3.0645804E-4,-3.0741846E-4,-1.8882683E-3,1.3210067E-3,4.1765156E-3,1.1235051E-3,-1.0203772E-4,-1.239066E-3,1.5263361E-3,7.165332E-5,-2.1446222E-3,-3.6390597E-4,-3.2904043E-4,-4.0845694E-3,-1.1059231E-3,5.362747E-5],"split_indices":[4,10,0,3,27,18,12,17,17,17,3,6,0,4,9,17,19,12,11,22,0,0,0,3,0,0,11,19,19,0,0,0,0,0,0,0,0,0,0,0,0,0,0,0,0,0,0,0,0,0,0],"split_type":[0,0,0,0,0,0,0,0,0,0,0,0,0,0,0,0,0,0,0,0,0,0,0,0,0,0,0,0,0,0,0,0,0,0,0,0,0,0,0,0,0,0,0,0,0,0,0,0,0,0,0],"sum_hessian":[2.4371E4,2.437E4,1E0,2.4311E4,5.9E1,2.4304E4,7E0,2.8E1,3.1E1,2.348E4,8.24E2,5E0,2E0,6E0,2.2E1,1.9E1,1.2E1,1.4E1,2.3466E4,7.91E2,3.3E1,2E0,3E0,4E0,2E0,1.2E1,1E1,1.1E1,8E0,9E0,3E0,5E0,9E0,1E0,2.3465E4,1.06E2,6.85E2,5E0,2.8E1,3E0,1E0,8E0,4E0,6E0,4E0,7E0,4E0,1E0,7E0,2E0,7E0],"tree_param":{"num_deleted":"0","num_feature":"29","num_nodes":"51","size_leaf_vector":"1"}},{"base_weights":[-2.74293E-7,-1.3143604E-6,3.802081E-3,1.9785211E-5,-6.135122E-4,1.608308E-5,3.5043282E-3,-1.9139653E-3,6.168527E-4,2.1553733E-5,-2.777986E-3,1.2580588E-3,1.2237795E-2,6.673516E-4,-3.241796E-3,-5.458227E-3,1.117591E-3,1.9487032E-5,6.0856584E-3,-5.655499E-3,-2.0018674E-3,-1.1536621E-3,6.2463097E-3,5.4068808E-3,7.120163E-4,-4.4354615E-3,2.1675406E-3,-7.852045E-3,-3.05293E-3,-7.460426E-3,6.8457318E-3,6.1889575E-4,5.09276E-3,-7.1592757E-4,7.3240844E-6,4.5052934E-3,1.8161675E-4,1.0303213E-3,-1.158502E-3,3.6080007E-4,-1.2055257E-3,2.8614406E-3,9.0658566E-4,-7.391813E-4,-3.6718468E-3,4.8022596E-3,4.3827956E-4,-1.3389776E-3,1.2608296E-4,-5.7440335E-3,-1.7475184E-3,5.5364817E-3,-2.0109143E-4,-3.785386E-4,4.2737077E-4,9.67391E-4,5.593671E-3],"categories":[],"categories_nodes":[],"categories_segments":[],"categories_sizes":[],"default_left":[0,0,0,0,0,0,0,0,0,0,0,0,0,0,0,0,0,0,0,0,0,0,0,0,0,0,0,0,0,0,0,0,0,0,0,0,0,0,0,0,0,0,0,0,0,0,0,0,0,0,0,0,0,0,0,0,0],"id":7,"left_children":[1,3,-1,5,7,9,11,13,15,17,19,21,23,25,27,29,31,33,35,-1,37,39,41,-1,-1,43,45,-1,47,49,51,53,55,-1,-1,-1,-1,-1,-1,-1,-1,-1,-1,-1,-1,-1,-1,-1,-1,-1,-1,-1,-1,-1,-1,-1,-1],"loss_changes":[3.2128074E-4,3.148151E-4,0E0,3.0387318E-4,1.3004066E-3,3.5981662E-4,4.7504704E-4,1.3560465E-3,1.2776664E-3,2.942868E-4,5.3611526E-4,2.5984176E-4,2.4255959E-4,1.0430638E-3,1.0504895E-3,8.393912E-4,7.64036E-4,2.784123E-4,3.8250594E-4,0E0,4.682309E-4,1.0608747E-4,4.5474357E-5,0E0,0E0,4.468033E-4,1.0034572E-3,0E0,1.27545E-3,4.2358926E-4,4.4864655E-4,5.245494E-4,1.0285627E-3,0E0,0E0,0E0,0E0,0E0,0E0,0E0,0E0,0E0,0E0,0E0,0E0,0E0,0E0,0E0,0E0,0E0,0E0,0E0,0E0,0E0,0E0,0E0,0E0],"parents":[2147483647,0,0,1,1,3,3,4,4,5,5,6,6,7,7,8,8,9,9,10,10,11,11,12,12,13,13,14,14,15,15,16,16,17,17,18,18,20,20,21,21,22,22,25,25,26,26,28,28,29,29,30,30,31,31,32,32],"right_children":[2,4,-1,6,8,10,12,14,16,18,20,22,24,26,28,30,32,34,36,-1,38,40,42,-1,-1,44,46,-1,48,50,52,54,56,-1,-1,-1,-1,-1,-1,-1,-1,-1,-1,-1,-1,-1,-1,-1,-1,-1,-1,-1,-1,-1,-1,-1,-1],"split_conditions":[3.86E2,1.3E1,3.802081E-3,7.3540014E-1,1.9765185E-1,6.6471803E-1,4.045923E-1,1.06099345E-1,2.820742E-1,1E0,-4.3534058E-1,4.7775382E-1,5.6611097E-1,-1.1350376E-1,1.0715955E-1,2.5716275E-1,5.481722E-1,-5.5681145E-1,1.3021928E-1,-5.655499E-3,2.106671E-1,2.1839468E-1,8.327003E-2,5.4068808E-3,7.120163E-4,2.8001538E-1,4.4716454E-1,-7.852045E-3,2.3009144E-1,3.3142638E-1,4.0627125E-1,1.0897415E-1,3.1413856E-1,-7.1592757E-4,7.3240844E-6,4.5052934E-3,1.8161675E-4,1.0303213E-3,-1.158502E-3,3.6080007E-4,-1.2055257E-3,2.8614406E-3,9.0658566E-4,-7.391813E-4,-3.6718468E-3,4.8022596E-3,4.3827956E-4,-1.3389776E-3,1.2608296E-4,-5.7440335E-3,-1.7475184E-3,5.5364817E-3,-2.0109143E-4,-3.785386E-4,4.2737077E-4,9.67391E-4,5.593671E-3],"split_indices":[4,3,0,19,27,19,11,11,6,23,0,0,0,19,11,12,6,27,12,0,0,0,11,0,0,18,6,0,18,0,0,22,11,0,0,0,0,0,0,0,0,0,0,0,0,0,0,0,0,0,0,0,0,0,0,0,0],"split_type":[0,0,0,0,0,0,0,0,0,0,0,0,0,0,0,0,0,0,0,0,0,0,0,0,0,0,0,0,0,0,0,0,0,0,0,0,0,0,0,0,0,0,0,0,0,0,0,0,0,0,0,0,0,0,0,0,0],"sum_hessian":[2.4371E4,2.437E4,1E0,2.3559E4,8.11E2,2.3535E4,2.4E1,3.94E2,4.17E2,2.349E4,4.5E1,2E1,4E0,1.34E2,2.6E2,3.1E1,3.86E2,2.3483E4,7E0,1E0,4.4E1,1.4E1,6E0,2E0,2E0,3E1,1.04E2,1E0,2.59E2,2.7E1,4E0,3.44E2,4.2E1,4.7E1,2.3436E4,2E0,5E0,1.1E1,3.3E1,8E0,6E0,2E0,4E0,2.5E1,5E0,4E0,1E2,1.84E2,7.5E1,2E0,2.5E1,1E0,3E0,1.03E2,2.41E2,3.8E1,4E0],"tree_param":{"num_deleted":"0","num_feature":"29","num_nodes":"57","size_leaf_vector":"1"}},{"base_weights":[1.057703E-7,-6.3485622E-6,1.7415553E-3,-3.3007967E-3,-3.0891597E-6,3.9260355E-3,4.0797825E-4,5.166617E-3,-7.857418E-3,1.5659356E-3,-1.3243267E-5,1.851312E-2,2.4358078E-3,-5.221361E-3,9.313503E-4,6.108623E-3,-3.5541432E-4,-8.611238E-3,-2.8290218E-3,2.9785547E-3,-9.398162E-4,-4.5213094E-3,-4.6238038E-6,6.3416397E-4,7.6967403E-3,-6.725713E-4,4.890801E-3,-1.3393724E-3,-2.2088687E-3,4.4961525E-3,-2.2166879E-4,2.223066E-3,4.4076677E-4,2.7483013E-3,-1.0723502E-2,5.1452074E-4,4.2401096E-3,4.97853E-3,-2.1532255E-3,-2.9831699E-3,-1.0513309E-2,2.151745E-7,-4.656826E-3,1.1778213E-3,-3.9867107E-3,5.7989787E-3,-1.5830799E-3,-5.377621E-4,-6.495549E-5,2.5454215E-3,4.1857394E-3,2.2320603E-3,-1.8813377E-3,1.4318775E-3,-2.0173031E-3,-8.373251E-4,-4.1975826E-3,3.6994362E-4,-2.2685572E-3,4.042329E-3,1.0281054E-3,8.624182E-5,2.883628E-3,-2.7068597E-4,-1.7492556E-3,6.7802076E-4,-1.2110714E-3,-3.8684462E-3,1.2808169E-3,-7.4495745E-7,3.2422754E-3,-3.4212353E-4,-2.0775225E-3,-8.836083E-4,7.710257E-4,3.2821184E-3,1.1312789E-3,1.8223825E-4,-8.946242E-4,1.5667811E-4,1.3444618E-3,5.0542934E-5,1.7961654E-3,-5.2510295E-5,-1.0328769E-3],"categories":[],"categories_nodes":[],"categories_segments":[],"categories_sizes":[],"default_left":[0,0,0,0,0,0,0,0,0,0,0,0,0,0,0,0,0,0,0,0,0,0,0,0,0,0,0,0,0,0,0,0,0,0,0,0,0,0,0,0,0,0,0,0,0,0,0,0,0,0,0,0,0,0,0,0,0,0,0,0,0,0,0,0,0,0,0,0,0,0,0,0,0,0,0,0,0,0,0,0,0,0,0,0,0],"id":8,"left_children":[1,3,5,7,9,11,13,15,17,19,21,23,25,27,29,31,-1,-1,33,35,37,39,41,-1,-1,43,45,47,-1,49,51,-1,-1,53,55,57,59,61,63,65,67,69,71,73,-1,75,77,-1,-1,79,-1,81,83,-1,-1,-1,-1,-1,-1,-1,-1,-1,-1,-1,-1,-1,-1,-1,-1,-1,-1,-1,-1,-1,-1,-1,-1,-1,-1,-1,-1,-1,-1,-1,-1],"loss_changes":[2.7394976E-4,2.6073906E-4,2.6058385E-4,9.665834E-4,3.8653213E-4,6.940002E-4,1.727985E-4,6.1083876E-5,1.5960034E-3,5.549882E-4,9.366298E-4,2.9717025E-4,2.4748303E-4,3.1705407E-5,2.1884177E-4,3.7421763E-5,0E0,0E0,6.4589246E-4,3.086698E-4,4.2005838E-4,3.9259752E-4,5.416375E-4,0E0,0E0,3.6583326E-4,1.150101E-4,1.1384063E-6,0E0,2.0429248E-4,1.7116676E-4,0E0,0E0,2.0470168E-4,1.1650706E-4,2.1246079E-4,4.4937397E-4,2.1459989E-4,2.1556225E-4,2.19073E-4,3.7189946E-4,7.0097035E-4,1.9150513E-4,8.7937675E-5,0E0,1.2557727E-4,1.1005202E-5,0E0,0E0,4.4664404E-5,0E0,1.3072568E-4,6.601083E-5,0E0,0E0,0E0,0E0,0E0,0E0,0E0,0E0,0E0,0E0,0E0,0E0,0E0,0E0,0E0,0E0,0E0,0E0,0E0,0E0,0E0,0E0,0E0,0E0,0E0,0E0,0E0,0E0,0E0,0E0,0E0,0E0],"parents":[2147483647,0,0,1,1,2,2,3,3,4,4,5,5,6,6,7,7,8,8,9,9,10,10,11,11,12,12,13,13,14,14,15,15,18,18,19,19,20,20,21,21,22,22,25,25,26,26,27,27,29,29,30,30,33,33,34,34,35,35,36,36,37,37,38,38,39,39,40,40,41,41,42,42,43,43,45,45,46,46,49,49,51,51,52,52],"right_children":[2,4,6,8,10,12,14,16,18,20,22,24,26,28,30,32,-1,-1,34,36,38,40,42,-1,-1,44,46,48,-1,50,52,-1,-1,54,56,58,60,62,64,66,68,70,72,74,-1,76,78,-1,-1,80,-1,82,84,-1,-1,-1,-1,-1,-1,-1,-1,-1,-1,-1,-1,-1,-1,-1,-1,-1,-1,-1,-1,-1,-1,-1,-1,-1,-1,-1,-1,-1,-1,-1,-1],"split_conditions":[7.361488E-1,0E0,7.8382266E-1,3E0,-2.7832043E-1,-2.4151702E-1,-3.121252E-1,3.2156327E-1,-5.4343885E-1,3.9254302E-1,-2.0128876E-1,-4.6226314E-1,-4.3089736E-2,-8.44769E-2,-1.10649824E-1,7.2789714E-2,-3.5541432E-4,-8.611238E-3,5.0932133E-1,2.9821372E-1,-5.5115074E-2,1.4E1,1.0282163E-1,6.3416397E-4,7.6967403E-3,-5.206357E-2,2.5674963E-1,-3.48755E-1,-2.2088687E-3,2.2016661E-1,8.268504E-1,2.223066E-3,4.4076677E-4,1.3E1,-2.7766454E-1,7E0,-1.9141684E-1,-9.5100515E-2,5.4675144E-1,-5.5115074E-2,5.6962395E-1,1.7629009E-2,-1.0296629E-1,-1.7585646E-1,-3.9867107E-3,1.9934933E-1,1.73735E-1,-5.377621E-4,-6.495549E-5,8.7698656E-1,4.1857394E-3,3.3636716E-1,3E0,1.4318775E-3,-2.0173031E-3,-8.373251E-4,-4.1975826E-3,3.6994362E-4,-2.2685572E-3,4.042329E-3,1.0281054E-3,8.624182E-5,2.883628E-3,-2.7068597E-4,-1.7492556E-3,6.7802076E-4,-1.2110714E-3,-3.8684462E-3,1.2808169E-3,-7.4495745E-7,3.2422754E-3,-3.4212353E-4,-2.0775225E-3,-8.836083E-4,7.710257E-4,3.2821184E-3,1.1312789E-3,1.8223825E-4,-8.946242E-4,1.5667811E-4,1.3444618E-3,5.0542934E-5,1.7961654E-3,-5.2510295E-5,-1.0328769E-3],"split_indices":[6,23,6,3,27,0,0,11,0,12,9,0,9,11,0,6,0,0,6,6,11,3,13,0,0,0,11,0,0,11,6,0,0,3,0,3,22,11,12,11,6,20,27,0,0,12,0,0,0,6,0,19,3,0,0,0,0,0,0,0,0,0,0,0,0,0,0,0,0,0,0,0,0,0,0,0,0,0,0,0,0,0,0,0,0],"split_type":[0,0,0,0,0,0,0,0,0,0,0,0,0,0,0,0,0,0,0,0,0,0,0,0,0,0,0,0,0,0,0,0,0,0,0,0,0,0,0,0,0,0,0,0,0,0,0,0,0,0,0,0,0,0,0,0,0,0,0,0,0,0,0,0,0,0,0,0,0,0,0,0,0,0,0,0,0,0,0,0,0,0,0,0,0],"sum_hessian":[2.4371E4,2.4282E4,8.9E1,2.3E1,2.4259E4,3.3E1,5.6E1,8E0,1.5E1,1.55E2,2.4104E4,2E0,3.1E1,4E0,5.2E1,7E0,1E0,2E0,1.3E1,9.9E1,5.6E1,4.5E1,2.4059E4,1E0,1E0,1.4E1,1.7E1,2E0,2E0,1.2E1,4E1,5E0,2E0,8E0,5E0,3.4E1,6.5E1,9E0,4.7E1,3.7E1,8E0,2.4035E4,2.4E1,1.3E1,1E0,1.5E1,2E0,1E0,1E0,1.1E1,1E0,1.6E1,2.4E1,7E0,1E0,2E0,3E0,3.2E1,2E0,4E0,6.1E1,5E0,4E0,3.6E1,1.1E1,6E0,3.1E1,7E0,1E0,2.403E4,5E0,1E1,1.4E1,3E0,1E1,3E0,1.2E1,1E0,1E0,6E0,5E0,1.1E1,5E0,1.2E1,1.2E1],"tree_param":{"num_deleted":"0","num_feature":"29","num_nodes":"85","size_leaf_vector":"1"}},{"base_weights":[1.3429006E-7,-1.630367E-5,5.164653E-4,-1.5046203E-5,-4.457651E-3,7.48305E-3,2.466986E-4,1.5074662E-5,-5.961538E-4,1.1659516E-2,4.8813075E-3,3.4480956E-3,-2.1249058E-5,4.219352E-6,1.3290752E-3,-2.6128527E-3,-2.6514995E-4,1.5004611E-2,-3.0162514E-3,1.0193337E-3,8.96E-3,1.092397E-4,-4.7539105E-3,1.7143622E-5,-2.9508187E-3,-2.267572E-3,2.509771E-3,5.3478143E-5,-3.7494067E-3,-2.8273168E-3,6.0823033E-5,9.951727E-3,5.2628475E-3,-7.3794676E-3,-3.621107E-4,1.7087688E-3,-3.8802952E-3,1.4359707E-2,4.709278E-3,-2.4766344E-4,2.1826013E-3,-1.2050081E-3,-1.0158613E-2,7.030203E-6,-1.6029504E-3,-4.123305E-3,-6.6444563E-4,-4.2700535E-4,-6.038628E-3,4.8027537E-3,6.282826E-4,1.2399168E-3,-5.438999E-4,-9.225494E-4,-3.404639E-3,-1.1713299E-3,1.7275596E-3,-1.8301449E-4,3.5808643E-4,1.14948125E-4,4.4683507E-3,-2.5146166E-3,-3.5497936E-4,1.274795E-3,-5.577056E-4,2.64314E-3,1.9362557E-4,8.688347E-4,4.736286E-3,1.6854802E-3,-6.5709226E-4,-1.6267759E-4,5.985211E-4,3.2521677E-3,-7.153424E-5,-2.1825805E-3,8.218593E-4,-5.0367974E-3,-1.2445394E-3],"categories":[],"categories_nodes":[],"categories_segments":[],"categories_sizes":[],"default_left":[0,0,0,0,0,0,0,0,0,0,0,0,0,0,0,0,0,0,0,0,0,0,0,0,0,0,0,0,0,0,0,0,0,0,0,0,0,0,0,0,0,0,0,0,0,0,0,0,0,0,0,0,0,0,0,0,0,0,0,0,0,0,0,0,0,0,0,0,0,0,0,0,0,0,0,0,0,0,0],"id":9,"left_children":[1,3,5,7,-1,9,11,13,15,-1,17,19,21,23,25,27,29,31,33,35,37,39,41,43,45,47,49,51,53,55,57,-1,59,61,63,65,-1,67,69,71,73,75,77,-1,-1,-1,-1,-1,-1,-1,-1,-1,-1,-1,-1,-1,-1,-1,-1,-1,-1,-1,-1,-1,-1,-1,-1,-1,-1,-1,-1,-1,-1,-1,-1,-1,-1,-1,-1],"loss_changes":[2.06864E-4,4.4063863E-4,1.411427E-3,4.1344075E-4,0E0,2.096429E-3,6.219832E-4,3.203184E-4,7.76318E-4,0E0,2.2038908E-3,7.405446E-4,4.1428392E-4,8.5073285E-4,7.870556E-4,4.9719086E-4,8.3620433E-4,1.9492575E-3,1.8261724E-4,4.069072E-4,3.2257126E-4,4.8375354E-4,3.3301258E-4,7.4793265E-4,7.4013055E-4,6.649739E-4,7.4611563E-4,3.8821527E-4,5.5434066E-4,1.0675028E-3,6.763344E-4,0E0,4.172881E-4,2.7355214E-5,8.383126E-5,2.8882566E-4,0E0,6.886036E-5,8.129388E-5,3.6975165E-4,2.014873E-3,3.072634E-4,2.0931097E-4,0E0,0E0,0E0,0E0,0E0,0E0,0E0,0E0,0E0,0E0,0E0,0E0,0E0,0E0,0E0,0E0,0E0,0E0,0E0,0E0,0E0,0E0,0E0,0E0,0E0,0E0,0E0,0E0,0E0,0E0,0E0,0E0,0E0,0E0,0E0,0E0],"parents":[2147483647,0,0,1,1,2,2,3,3,5,5,6,6,7,7,8,8,10,10,11,11,12,12,13,13,14,14,15,15,16,16,17,17,18,18,19,19,20,20,21,21,22,22,23,23,24,24,25,25,26,26,27,27,28,28,29,29,30,30,32,32,33,33,34,34,35,35,37,37,38,38,39,39,40,40,41,41,42,42],"right_children":[2,4,6,8,-1,10,12,14,16,-1,18,20,22,24,26,28,30,32,34,36,38,40,42,44,46,48,50,52,54,56,58,-1,60,62,64,66,-1,68,70,72,74,76,78,-1,-1,-1,-1,-1,-1,-1,-1,-1,-1,-1,-1,-1,-1,-1,-1,-1,-1,-1,-1,-1,-1,-1,-1,-1,-1,-1,-1,-1,-1,-1,-1,-1,-1,-1,-1],"split_conditions":[3.8116258E-1,1E0,3.8824624E-1,1.7944665E-1,-4.457651E-3,9.132729E-2,1.3316149E-1,1.5420778E-1,3.3368823E-1,1.1659516E-2,9E0,1.2365816E-1,5.185534E-1,1.4021915E-1,1.6307038E-1,1.7083767E-1,1.900062E-1,1.6984698E-1,1.5886611E-1,5.4386634E-1,7E0,3.5494542E-1,3.2860136E-1,3.5129404E-1,1.4119187E-1,1.6150726E-1,1.6680178E-1,2.6178506E-1,3.2575092E-1,3.0685005E-1,2.1093419E-1,9.951727E-3,3.1277248E-1,1.6E1,1.6898741E-1,2.4565154E-1,-3.8802952E-3,4.4726577E-1,1.3021928E-1,6.059215E-1,1.3024597E-1,1.9577888E-1,2.3455907E-1,7.030203E-6,-1.6029504E-3,-4.123305E-3,-6.6444563E-4,-4.2700535E-4,-6.038628E-3,4.8027537E-3,6.282826E-4,1.2399168E-3,-5.438999E-4,-9.225494E-4,-3.404639E-3,-1.1713299E-3,1.7275596E-3,-1.8301449E-4,3.5808643E-4,1.14948125E-4,4.4683507E-3,-2.5146166E-3,-3.5497936E-4,1.274795E-3,-5.577056E-4,2.64314E-3,1.9362557E-4,8.688347E-4,4.736286E-3,1.6854802E-3,-6.5709226E-4,-1.6267759E-4,5.985211E-4,3.2521677E-3,-7.153424E-5,-2.1825805E-3,8.218593E-4,-5.0367974E-3,-1.2445394E-3],"split_indices":[27,23,0,17,0,12,12,17,6,0,3,12,6,11,18,0,11,12,12,0,3,6,19,9,17,18,12,18,6,27,12,0,11,3,12,11,0,0,12,19,11,12,11,0,0,0,0,0,0,0,0,0,0,0,0,0,0,0,0,0,0,0,0,0,0,0,0,0,0,0,0,0,0,0,0,0,0,0,0],"split_type":[0,0,0,0,0,0,0,0,0,0,0,0,0,0,0,0,0,0,0,0,0,0,0,0,0,0,0,0,0,0,0,0,0,0,0,0,0,0,0,0,0,0,0,0,0,0,0,0,0,0,0,0,0,0,0,0,0,0,0,0,0,0,0,0,0,0,0,0,0,0,0,0,0,0,0,0,0,0,0],"sum_hessian":[2.4371E4,2.362E4,7.51E2,2.3619E4,1E0,2.7E1,7.24E2,2.2456E4,1.163E3,1E0,2.6E1,5.5E1,6.69E2,2.2273E4,1.83E2,1.63E2,1E3,1.1E1,1.5E1,3.9E1,1.6E1,6.52E2,1.7E1,2.2177E4,9.6E1,4.5E1,1.38E2,4.9E1,1.14E2,1.12E2,8.88E2,3E0,8E0,5E0,1E1,3.8E1,1E0,6E0,1E1,5.57E2,9.5E1,1.1E1,6E0,2.2152E4,2.5E1,5E0,9.1E1,4.4E1,1E0,3E0,1.35E2,1.5E1,3.4E1,1.06E2,8E0,1E2,1.2E1,5.58E2,3.3E2,6E0,2E0,4E0,1E0,2E0,8E0,4E0,3.4E1,1E0,5E0,9E0,1E0,4.93E2,6.4E1,2E1,7.5E1,4E0,7E0,2E0,4E0],"tree_param":{"num_deleted":"0","num_feature":"29","num_nodes":"79","size_leaf_vector":"1"}},{"base_weights":[5.385162E-7,-3.880196E-6,1.5798953E-3,1.2896233E-5,-4.987273E-4,7.0836907E-3,3.934839E-4,8.905544E-6,4.4759624E-3,-1.1912049E-4,-2.5778809E-3,1.5731465E-2,3.7809894E-3,-4.222894E-3,8.21567E-4,2.7663554E-3,2.6695177E-6,3.135156E-3,3.4427247E-3,-6.2278286E-4,2.1019764E-3,-9.207065E-4,-8.435957E-3,5.379849E-4,6.541175E-3,1.7002391E-4,2.7464796E-3,-1.8170079E-3,-2.076966E-3,3.6605536E-3,-9.8637625E-5,1.0530754E-3,1.0028152E-2,-5.0177686E-3,9.318422E-6,8.456484E-3,1.6088764E-3,1.3483063E-3,-1.2469644E-3,2.9138932E-3,-4.04634E-3,-2.7086113E-3,2.4718412E-3,-1.8395837E-2,-5.9039844E-3,4.8276022E-4,-2.559591E-4,-6.8929204E-4,-5.6266697E-5,2.0188412E-3,3.5041654E-3,1.2800245E-3,-2.1202797E-3,2.220475E-5,1.8652594E-3,-2.6956756E-4,4.4518183E-3,-9.298488E-4,-4.3118657E-3,-2.0696889E-3,3.7697769E-6,3.2610244E-3,1.8235468E-4,9.252122E-4,-2.1850222E-4,2.738139E-4,3.695086E-3,-8.764192E-4,-1.2427464E-4,3.6321743E-3,4.0539433E-4,-2.944765E-3,2.6720285E-4,-5.5920566E-4,-8.387691E-3,3.7428604E-3,-3.525871E-5,-7.0462716E-3,-2.1516478E-3,1.4939965E-4,-2.3129939E-3,-1.0427056E-4,4.2868356E-4,8.9601224E-4,-1.9907027E-4,-8.623989E-4,6.624847E-4,-1.9017742E-4,-1.2459251E-3],"categories":[],"categories_nodes":[],"categories_segments":[],"categories_sizes":[],"default_left":[0,0,0,0,0,0,0,0,0,0,0,0,0,0,0,0,0,0,0,0,0,0,0,0,0,0,0,0,0,0,0,0,0,0,0,0,0,0,0,0,0,0,0,0,0,0,0,0,0,0,0,0,0,0,0,0,0,0,0,0,0,0,0,0,0,0,0,0,0,0,0,0,0,0,0,0,0,0,0,0,0,0,0,0,0,0,0,0,0],"id":10,"left_children":[1,3,5,7,9,11,13,15,17,19,21,23,25,27,29,31,33,35,-1,37,39,41,43,-1,-1,45,-1,47,-1,49,51,53,55,57,59,61,63,65,67,69,71,73,75,77,79,81,-1,-1,-1,83,-1,85,87,-1,-1,-1,-1,-1,-1,-1,-1,-1,-1,-1,-1,-1,-1,-1,-1,-1,-1,-1,-1,-1,-1,-1,-1,-1,-1,-1,-1,-1,-1,-1,-1,-1,-1,-1,-1],"loss_changes":[1.7009155E-4,2.0178089E-4,4.412367E-4,4.1867202E-4,6.287339E-4,2.8325175E-4,1.16112424E-4,4.0389845E-4,1.611142E-4,7.5642014E-4,1.186299E-3,2.1481613E-4,1.9249464E-4,1.990384E-5,1.3882086E-4,6.488385E-4,7.823835E-4,1.4070944E-4,0E0,6.7958626E-4,6.357807E-4,5.9505383E-4,5.722813E-4,0E0,0E0,2.6518778E-6,0E0,2.701734E-6,0E0,1.4758368E-4,1.16987634E-4,2.2201744E-4,5.390445E-4,5.117668E-4,5.2521453E-4,6.916636E-5,5.7410703E-5,6.242149E-4,5.8301253E-4,1.578192E-3,4.3600771E-4,1.312765E-3,8.822361E-4,1.17283314E-4,2.6976445E-4,5.210524E-6,0E0,0E0,0E0,3.3136428E-5,0E0,1.02763595E-4,4.873221E-5,0E0,0E0,0E0,0E0,0E0,0E0,0E0,0E0,0E0,0E0,0E0,0E0,0E0,0E0,0E0,0E0,0E0,0E0,0E0,0E0,0E0,0E0,0E0,0E0,0E0,0E0,0E0,0E0,0E0,0E0,0E0,0E0,0E0,0E0,0E0,0E0],"parents":[2147483647,0,0,1,1,2,2,3,3,4,4,5,5,6,6,7,7,8,8,9,9,10,10,11,11,12,12,13,13,14,14,15,15,16,16,17,17,19,19,20,20,21,21,22,22,25,25,27,27,29,29,30,30,31,31,32,32,33,33,34,34,35,35,36,36,37,37,38,38,39,39,40,40,41,41,42,42,43,43,44,44,45,45,49,49,51,51,52,52],"right_children":[2,4,6,8,10,12,14,16,18,20,22,24,26,28,30,32,34,36,-1,38,40,42,44,-1,-1,46,-1,48,-1,50,52,54,56,58,60,62,64,66,68,70,72,74,76,78,80,82,-1,-1,-1,84,-1,86,88,-1,-1,-1,-1,-1,-1,-1,-1,-1,-1,-1,-1,-1,-1,-1,-1,-1,-1,-1,-1,-1,-1,-1,-1,-1,-1,-1,-1,-1,-1,-1,-1,-1,-1,-1,-1],"split_conditions":[7.691418E-1,2.931567E-1,7.8382266E-1,7.2980505E-1,5.947717E-1,-2.4151702E-1,-3.121252E-1,-2.7832043E-1,5.547029E-1,4.9614203E-1,9E0,-4.6226314E-1,1.9753458E-2,8.268504E-1,-1.10649824E-1,2.7722555E-1,-2.0128876E-1,1.472541E-1,3.4427247E-3,8.327003E-2,4.2494017E-1,3.3460185E-1,3.1181782E-1,5.379849E-4,6.541175E-3,-5.206357E-2,2.7464796E-3,8.047953E-1,-2.076966E-3,2.2016661E-1,8.7698656E-1,2.0561464E-1,5.2364254E-1,3.4726608E-1,-9.7624816E-2,-2.5811766E-3,-4.061687E-2,7.7406794E-2,2.9024103E-1,5.172704E-1,1.06099345E-1,3.3057705E-1,4.651954E-1,6.1301845E-1,1.1E1,2.694235E-1,-2.559591E-4,-6.8929204E-4,-5.6266697E-5,4E0,3.5041654E-3,-4.577928E-2,3E0,2.220475E-5,1.8652594E-3,-2.6956756E-4,4.4518183E-3,-9.298488E-4,-4.3118657E-3,-2.0696889E-3,3.7697769E-6,3.2610244E-3,1.8235468E-4,9.252122E-4,-2.1850222E-4,2.738139E-4,3.695086E-3,-8.764192E-4,-1.2427464E-4,3.6321743E-3,4.0539433E-4,-2.944765E-3,2.6720285E-4,-5.5920566E-4,-8.387691E-3,3.7428604E-3,-3.525871E-5,-7.0462716E-3,-2.1516478E-3,1.4939965E-4,-2.3129939E-3,-1.0427056E-4,4.2868356E-4,8.9601224E-4,-1.9907027E-4,-8.623989E-4,6.624847E-4,-1.9017742E-4,-1.2459251E-3],"split_indices":[6,18,6,6,6,0,0,27,19,6,3,0,0,6,0,18,9,12,0,11,12,19,12,0,0,0,0,6,0,11,6,20,6,19,17,0,0,11,0,6,11,19,19,6,3,12,0,0,0,3,0,0,3,0,0,0,0,0,0,0,0,0,0,0,0,0,0,0,0,0,0,0,0,0,0,0,0,0,0,0,0,0,0,0,0,0,0,0,0],"split_type":[0,0,0,0,0,0,0,0,0,0,0,0,0,0,0,0,0,0,0,0,0,0,0,0,0,0,0,0,0,0,0,0,0,0,0,0,0,0,0,0,0,0,0,0,0,0,0,0,0,0,0,0,0,0,0,0,0,0,0,0,0,0,0,0,0,0,0,0,0,0,0,0,0,0,0,0,0,0,0,0,0,0,0,0,0,0,0,0,0],"sum_hessian":[2.4371E4,2.4304E4,6.7E1,2.3508E4,7.96E2,1.1E1,5.6E1,2.3488E4,2E1,6.74E2,1.22E2,2E0,9E0,4E0,5.2E1,5.2E1,2.3436E4,1.8E1,2E0,5.5E2,1.24E2,9.6E1,2.6E1,1E0,1E0,6E0,3E0,3E0,1E0,1.2E1,4E1,4.3E1,9E0,3E1,2.3406E4,3E0,1.5E1,1.32E2,4.18E2,1.1E2,1.4E1,6.3E1,3.3E1,4E0,2.2E1,5E0,1E0,2E0,1E0,1.1E1,1E0,2.4E1,1.6E1,3.7E1,6E0,3E0,6E0,2.6E1,4E0,1E1,2.3396E4,2E0,1E0,9E0,6E0,1.28E2,4E0,1.38E2,2.8E2,1.5E1,9.5E1,6E0,8E0,6.2E1,1E0,6E0,2.7E1,2E0,2E0,5E0,1.7E1,3E0,2E0,8E0,3E0,4E0,2E1,1E1,6E0],"tree_param":{"num_deleted":"0","num_feature":"29","num_nodes":"89","size_leaf_vector":"1"}},{"base_weights":[5.294885E-7,-2.2105607E-7,2.7438076E-3,1.3176044E-6,-4.1653505E-3,-3.9604865E-6,1.1650767E-3,1.1874133E-3,-8.685044E-3,1.3559177E-5,-4.6389643E-4,1.551192E-3,-5.78612E-3,7.8061037E-4,-6.706607E-4,-2.9271694E-3,-6.594444E-4,4.6255263E-6,4.6430724E-3,-1.9878391E-3,2.2077364E-4,2.142711E-3,-2.4467332E-3,-2.7801986E-3,7.8419846E-4,3.6410408E-6,-1.0689056E-3,5.1399358E-3,9.019952E-4,-3.1576708E-6,-1.2529166E-3,-1.1207076E-3,2.1096565E-4,5.5134844E-4,3.1724905E-3,-2.3416651E-4,-3.6160576E-3,-4.512682E-4,8.041575E-4],"categories":[],"categories_nodes":[],"categories_segments":[],"categories_sizes":[],"default_left":[0,0,0,0,0,0,0,0,0,0,0,0,0,0,0,0,0,0,0,0,0,0,0,0,0,0,0,0,0,0,0,0,0,0,0,0,0,0,0],"id":11,"left_children":[1,3,-1,5,7,9,11,13,15,17,19,21,23,-1,-1,-1,-1,25,27,29,31,33,35,-1,37,-1,-1,-1,-1,-1,-1,-1,-1,-1,-1,-1,-1,-1,-1],"loss_changes":[1.6729391E-4,1.5619241E-4,0E0,1.4965254E-4,2.2804842E-4,1.9544316E-4,3.0421134E-4,3.0027819E-5,1.3327983E-5,9.663188E-4,9.2906307E-4,2.535518E-4,1.4450331E-4,0E0,0E0,0E0,0E0,6.2498904E-4,8.6824107E-4,1.1943313E-3,1.1765253E-3,2.1708349E-4,2.1468435E-4,0E0,1.7050927E-5,0E0,0E0,0E0,0E0,0E0,0E0,0E0,0E0,0E0,0E0,0E0,0E0,0E0,0E0],"parents":[2147483647,0,0,1,1,3,3,4,4,5,5,6,6,7,7,8,8,9,9,10,10,11,11,12,12,17,17,18,18,19,19,20,20,21,21,22,22,24,24],"right_children":[2,4,-1,6,8,10,12,14,16,18,20,22,24,-1,-1,-1,-1,26,28,30,32,34,36,-1,38,-1,-1,-1,-1,-1,-1,-1,-1,-1,-1,-1,-1,-1,-1],"split_conditions":[3.86E2,1.677913E-1,2.7438076E-3,4.113923E-1,7.7406794E-2,3.2525855E-1,1.8E1,2.4512307E-1,8.8362604E-2,3.1309837E-1,3.9898428E-1,4.9364433E-1,2.1E1,7.8061037E-4,-6.706607E-4,-2.9271694E-3,-6.594444E-4,3.0174968E-1,1.42919E-1,4.4716454E-1,1.5555209E-1,7.9071033E-1,4.9821597E-1,-2.7801986E-3,2.3439492E-1,3.6410408E-6,-1.0689056E-3,5.1399358E-3,9.019952E-4,-3.1576708E-6,-1.2529166E-3,-1.1207076E-3,2.1096565E-4,5.5134844E-4,3.1724905E-3,-2.3416651E-4,-3.6160576E-3,-4.512682E-4,8.041575E-4],"split_indices":[4,14,0,11,17,22,3,0,11,19,19,11,3,0,0,0,0,19,6,6,12,19,6,0,0,0,0,0,0,0,0,0,0,0,0,0,0,0,0],"split_type":[0,0,0,0,0,0,0,0,0,0,0,0,0,0,0,0,0,0,0,0,0,0,0,0,0,0,0,0,0,0,0,0,0,0,0,0,0,0,0],"sum_hessian":[2.4371E4,2.437E4,1E0,2.4362E4,8E0,2.4253E4,1.09E2,4E0,4E0,2.3364E4,8.89E2,1.04E2,5E0,3E0,1E0,3E0,1E0,2.332E4,4.4E1,2.75E2,6.14E2,9.1E1,1.3E1,3E0,2E0,2.3272E4,4.8E1,4E0,4E1,1.45E2,1.3E2,6.6E1,5.48E2,8.9E1,2E0,1.2E1,1E0,1E0,1E0],"tree_param":{"num_deleted":"0","num_feature":"29","num_nodes":"39","size_leaf_vector":"1"}},{"base_weights":[3.510628E-7,9.362697E-4,-5.6779113E-6,6.266795E-3,6.0579E-4,-1.6515546E-3,8.304121E-6,-7.068885E-4,8.36026E-3,-5.936953E-4,2.6448052E-3,4.0637734E-4,-2.9825298E-3,1.4516448E-5,-3.0303267E-3,-3.5530466E-4,3.720482E-5,3.5981697E-3,1.3524075E-3,5.3216126E-3,-1.2058357E-3,4.272312E-3,-1.9800335E-3,-2.2750693E-4,5.0889617E-3,-3.9957557E-3,2.4860327E-3,1.3345379E-3,6.015398E-7,-1.2259656E-2,-1.7029109E-3,6.374408E-5,7.840766E-3,-4.0590838E-3,1.6868598E-4,2.7079927E-3,7.4333074E-3,-5.4442687E-3,1.7317059E-3,-1.8093373E-3,1.526819E-3,-2.7246284E-3,-8.95052E-3,1.4800733E-2,2.9546962E-4,1.798701E-3,-9.985249E-3,-5.9155766E-3,2.098523E-6,-4.26874E-3,-4.556379E-3,2.0148125E-3,-3.505009E-3,3.0867981E-3,5.887288E-4,-2.1737037E-4,-1.8522271E-3,-1.3068902E-3,6.78455E-4,2.2459098E-3,6.2302995E-4,2.4702735E-3,-3.2669026E-4,-4.958087E-4,-2.6468006E-3,1.2971605E-3,4.410216E-5,-8.02551E-5,-2.0149234E-3,1.9101688E-3,-4.6861643E-4,1.9090982E-3,-1.1254534E-3,-5.558246E-3,-8.5159397E-4,6.9154114E-3,-2.5508125E-4,1.157778E-3,-6.969716E-4,4.517317E-4,3.9062342E-3,-1.8394627E-3,-5.0800145E-3,3.0202453E-4,-3.9520455E-3,4.0975725E-4,-1.6257637E-6,1.5466855E-3,-3.4676183E-3,1.13930284E-4,3.7358166E-3,-1.9110058E-3,1.1663385E-3],"categories":[],"categories_nodes":[],"categories_segments":[],"categories_sizes":[],"default_left":[0,0,0,0,0,0,0,0,0,0,0,0,0,0,0,0,0,0,0,0,0,0,0,0,0,0,0,0,0,0,0,0,0,0,0,0,0,0,0,0,0,0,0,0,0,0,0,0,0,0,0,0,0,0,0,0,0,0,0,0,0,0,0,0,0,0,0,0,0,0,0,0,0,0,0,0,0,0,0,0,0,0,0,0,0,0,0,0,0,0,0,0,0],"id":12,"left_children":[1,3,5,7,9,11,13,15,17,19,21,23,25,27,29,-1,-1,-1,-1,31,33,35,37,39,-1,41,43,45,47,49,51,-1,53,55,57,59,61,63,65,67,69,71,73,75,77,79,81,83,85,87,-1,89,91,-1,-1,-1,-1,-1,-1,-1,-1,-1,-1,-1,-1,-1,-1,-1,-1,-1,-1,-1,-1,-1,-1,-1,-1,-1,-1,-1,-1,-1,-1,-1,-1,-1,-1,-1,-1,-1,-1,-1,-1],"loss_changes":[1.3752749E-4,2.71018E-4,5.573123E-4,1.3730221E-4,3.6354398E-4,5.599796E-4,4.5335546E-4,1.3370503E-6,4.3914595E-5,3.4679094E-4,4.224419E-4,8.5396325E-4,6.970038E-4,4.402061E-4,5.7942956E-4,0E0,0E0,0E0,0E0,1.14170165E-4,3.3796395E-4,1.8260774E-4,2.0230295E-4,2.2199117E-4,0E0,6.3691754E-4,5.351493E-4,1.3315175E-3,2.1006013E-4,7.5564196E-5,3.0184886E-4,0E0,6.6168664E-5,1.9299707E-4,5.6858367E-4,7.192341E-5,9.7702316E-5,8.78944E-5,3.222673E-5,3.159679E-4,5.7809975E-4,8.1714493E-4,1.1766044E-3,4.069921E-4,1.7695145E-4,7.7262556E-4,1.6393303E-4,3.1471194E-4,2.431118E-4,2.6570272E-4,0E0,2.5126763E-4,6.6017907E-4,0E0,0E0,0E0,0E0,0E0,0E0,0E0,0E0,0E0,0E0,0E0,0E0,0E0,0E0,0E0,0E0,0E0,0E0,0E0,0E0,0E0,0E0,0E0,0E0,0E0,0E0,0E0,0E0,0E0,0E0,0E0,0E0,0E0,0E0,0E0,0E0,0E0,0E0,0E0,0E0],"parents":[2147483647,0,0,1,1,2,2,3,3,4,4,5,5,6,6,7,7,8,8,9,9,10,10,11,11,12,12,13,13,14,14,19,19,20,20,21,21,22,22,23,23,25,25,26,26,27,27,28,28,29,29,30,30,32,32,33,33,34,34,35,35,36,36,37,37,38,38,39,39,40,40,41,41,42,42,43,43,44,44,45,45,46,46,47,47,48,48,49,49,51,51,52,52],"right_children":[2,4,6,8,10,12,14,16,18,20,22,24,26,28,30,-1,-1,-1,-1,32,34,36,38,40,-1,42,44,46,48,50,52,-1,54,56,58,60,62,64,66,68,70,72,74,76,78,80,82,84,86,88,-1,90,92,-1,-1,-1,-1,-1,-1,-1,-1,-1,-1,-1,-1,-1,-1,-1,-1,-1,-1,-1,-1,-1,-1,-1,-1,-1,-1,-1,-1,-1,-1,-1,-1,-1,-1,-1,-1,-1,-1,-1,-1],"split_conditions":[-2.8858712E-1,2.1968746E-1,-1.112688E-1,5E0,1.3643286E-1,8.027476E-2,5.202373E-1,-3.48755E-1,-1.0803269E-1,-3.7758863E-1,2.5693592E-1,7.7406794E-2,4.9025813E-1,-8.934334E-3,5.356141E-1,-3.5530466E-4,3.720482E-5,3.5981697E-3,1.3524075E-3,-1.3181618E-1,6.558496E-2,4.9025813E-1,3.9229494E-1,5.532627E-1,5.0889617E-3,3.184299E-1,3.6251877E-2,5.596547E-1,-7.5866187E-1,1.829193E-2,4.406137E-1,6.374408E-5,4.568029E-2,5E0,4E0,1.4174418E-1,6E0,3.5738048E-1,4.090356E-1,-1.3100526E-1,5.947717E-1,-2.0916346E-2,3.8820294E-1,6.7323196E-1,2.2366586E-1,4.2183775E-1,2.6700264E-1,3E0,-2.4443029E-1,-6.115305E-1,-4.556379E-3,4.358939E-1,5.2884716E-1,3.0867981E-3,5.887288E-4,-2.1737037E-4,-1.8522271E-3,-1.3068902E-3,6.78455E-4,2.2459098E-3,6.2302995E-4,2.4702735E-3,-3.2669026E-4,-4.958087E-4,-2.6468006E-3,1.2971605E-3,4.410216E-5,-8.02551E-5,-2.0149234E-3,1.9101688E-3,-4.6861643E-4,1.9090982E-3,-1.1254534E-3,-5.558246E-3,-8.5159397E-4,6.9154114E-3,-2.5508125E-4,1.157778E-3,-6.969716E-4,4.517317E-4,3.9062342E-3,-1.8394627E-3,-5.0800145E-3,3.0202453E-4,-3.9520455E-3,4.0975725E-4,-1.6257637E-6,1.5466855E-3,-3.4676183E-3,1.13930284E-4,3.7358166E-3,-1.9110058E-3,1.1663385E-3],"split_indices":[19,12,19,3,11,17,12,0,27,0,17,11,0,22,12,0,0,0,0,11,9,0,18,6,0,18,6,0,9,11,19,0,11,3,3,11,3,12,12,22,6,9,18,0,11,12,11,3,27,0,0,19,0,0,0,0,0,0,0,0,0,0,0,0,0,0,0,0,0,0,0,0,0,0,0,0,0,0,0,0,0,0,0,0,0,0,0,0,0,0,0,0,0],"split_type":[0,0,0,0,0,0,0,0,0,0,0,0,0,0,0,0,0,0,0,0,0,0,0,0,0,0,0,0,0,0,0,0,0,0,0,0,0,0,0,0,0,0,0,0,0,0,0,0,0,0,0,0,0,0,0,0,0,0,0,0,0,0,0,0,0,0,0,0,0,0,0,0,0,0,0,0,0,0,0,0,0,0,0,0,0,0,0,0,0,0,0,0,0],"sum_hessian":[2.4371E4,1.55E2,2.4216E4,8E0,1.47E2,2.03E2,2.4013E4,2E0,6E0,9.3E1,5.4E1,8E1,1.23E2,2.3965E4,4.8E1,1E0,1E0,2E0,4E0,8E0,8.5E1,4E1,1.4E1,7.8E1,2E0,1.04E2,1.9E1,2.49E2,2.3716E4,5E0,4.3E1,3E0,5E0,2.7E1,5.8E1,2.8E1,1.2E1,7E0,7E0,4.1E1,3.7E1,8.4E1,2E1,2E0,1.7E1,2.4E2,9E0,5E0,2.3711E4,2E0,3E0,1.4E1,2.9E1,3E0,2E0,1.1E1,1.6E1,1.8E1,4E1,2E0,2.6E1,1.1E1,1E0,4E0,3E0,2E0,5E0,3.2E1,9E0,1.4E1,2.3E1,8E0,7.6E1,7E0,1.3E1,1E0,1E0,7E0,1E1,2.35E2,5E0,7E0,2E0,3E0,2E0,1.29E2,2.3582E4,1E0,1E0,1.3E1,1E0,2.1E1,8E0],"tree_param":{"num_deleted":"0","num_feature":"29","num_nodes":"93","size_leaf_vector":"1"}},{"base_weights":[4.771743E-7,-1.6931392E-5,2.8208096E-4,-6.36232E-6,-1.8442117E-3,-9.031903E-4,7.0100714E-4,-1.3001809E-5,5.0385334E-3,-7.0377234E-3,-6.837668E-4,-3.7331046E-3,-4.8115608E-4,3.2039855E-3,4.6847216E-4,1.2945646E-5,-7.5418694E-4,8.209647E-3,-4.0227428E-4,-2.2671518E-3,-1.3489809E-2,-4.4776155E-3,2.264435E-3,-2.5360726E-3,-1.3520365E-2,3.402338E-3,-7.61538E-4,2.305438E-3,1.5249651E-2,2.5699072E-4,3.115817E-3,-6.994524E-7,1.6063612E-3,7.470407E-4,-1.3028594E-3,1.5469904E-2,4.5117047E-3,-2.0050914E-3,7.763622E-4,-6.3783466E-3,1.1823497E-3,-2.2059329E-2,-4.100241E-3,1.2201747E-3,-6.859652E-3,4.8016864E-3,1.2944489E-3,-3.087368E-3,3.1754442E-3,-4.875705E-3,-3.8886387E-4,5.3875633E-3,-4.4249413E-3,-1.7072435E-3,1.05687424E-4,-8.3274517E-4,7.697582E-3,7.0961155E-3,-1.0389886E-3,-1.4010612E-3,5.420733E-4,4.352506E-3,-5.8872043E-3,3.8290142E-7,-3.2357613E-3,8.8846334E-4,-8.595876E-4,1.0795229E-3,-4.696035E-4,-1.6206903E-3,-2.9659137E-4,5.800101E-3,1.5484747E-3,2.3822247E-3,-1.5519488E-5,1.02175E-3,-3.638221E-4,-3.574285E-4,-2.9912035E-3,6.2881975E-4,-4.0313118E-4,-8.015549E-3,-5.1340007E-4,-1.458499E-3,-4.3970034E-5,-9.718521E-4,9.409134E-4,-2.780572E-3,2.5849132E-4,-1.15545794E-4,2.5975902E-3,-1.3598416E-3,6.407568E-4,4.167581E-4,2.534202E-3,-3.298099E-3,-1.0303629E-5,-3.841564E-4,-4.019808E-3,-3.8000592E-4,7.552051E-4,-8.122645E-4,1.7864086E-3,6.3884985E-3,1.279097E-3,3.2906613E-4,-7.96611E-4,-2.073115E-4,-2.7251835E-3,3.4099736E-4,-1.3649263E-4,-9.050383E-4,1.5982619E-3,7.402874E-4,-2.5880449E-3],"categories":[],"categories_nodes":[],"categories_segments":[],"categories_sizes":[],"default_left":[0,0,0,0,0,0,0,0,0,0,0,0,0,0,0,0,0,0,0,0,0,0,0,0,0,0,0,0,0,0,0,0,0,0,0,0,0,0,0,0,0,0,0,0,0,0,0,0,0,0,0,0,0,0,0,0,0,0,0,0,0,0,0,0,0,0,0,0,0,0,0,0,0,0,0,0,0,0,0,0,0,0,0,0,0,0,0,0,0,0,0,0,0,0,0,0,0,0,0,0,0,0,0,0,0,0,0,0,0,0,0,0,0,0,0],"id":13,"left_children":[1,3,5,7,9,11,13,15,17,19,21,23,25,27,29,31,33,35,37,39,41,43,45,47,49,51,53,55,57,59,61,63,65,67,69,71,73,-1,75,77,79,81,83,85,87,-1,89,91,-1,-1,-1,93,95,97,99,101,103,-1,105,107,109,111,113,-1,-1,-1,-1,-1,-1,-1,-1,-1,-1,-1,-1,-1,-1,-1,-1,-1,-1,-1,-1,-1,-1,-1,-1,-1,-1,-1,-1,-1,-1,-1,-1,-1,-1,-1,-1,-1,-1,-1,-1,-1,-1,-1,-1,-1,-1,-1,-1,-1,-1,-1,-1],"loss_changes":[1.19484066E-4,4.43291E-4,7.0522504E-4,7.6453394E-4,7.9072337E-4,4.412967E-4,6.0904835E-4,4.3838096E-4,5.209051E-4,7.0813973E-4,1.2293077E-3,5.2806333E-4,3.5538207E-4,9.281434E-4,5.372289E-4,4.7885382E-4,6.360324E-4,4.4031662E-4,9.4030256E-5,2.2026504E-4,7.1419217E-4,6.598425E-4,8.056646E-4,3.509525E-4,1.4591438E-4,3.6569574E-4,2.486828E-4,1.427819E-3,8.4592076E-4,4.2191884E-4,8.1613334E-4,4.6536486E-4,1.1416887E-3,1.3704798E-3,7.22454E-4,1.3918127E-4,2.1948593E-4,0E0,6.166355E-5,1.1855256E-4,2.3590037E-5,4.282992E-4,1.7349914E-5,1.3834515E-4,6.403853E-4,0E0,7.330997E-4,3.3432466E-4,0E0,0E0,0E0,2.0847912E-4,1.4382541E-4,7.0628815E-4,5.294314E-4,7.0327875E-4,1.3566728E-3,0E0,1.3269811E-5,7.0833066E-4,4.5166054E-4,4.6874688E-4,2.2728863E-4,0E0,0E0,0E0,0E0,0E0,0E0,0E0,0E0,0E0,0E0,0E0,0E0,0E0,0E0,0E0,0E0,0E0,0E0,0E0,0E0,0E0,0E0,0E0,0E0,0E0,0E0,0E0,0E0,0E0,0E0,0E0,0E0,0E0,0E0,0E0,0E0,0E0,0E0,0E0,0E0,0E0,0E0,0E0,0E0,0E0,0E0,0E0,0E0,0E0,0E0,0E0,0E0],"parents":[2147483647,0,0,1,1,2,2,3,3,4,4,5,5,6,6,7,7,8,8,9,9,10,10,11,11,12,12,13,13,14,14,15,15,16,16,17,17,18,18,19,19,20,20,21,21,22,22,23,23,24,24,25,25,26,26,27,27,28,28,29,29,30,30,31,31,32,32,33,33,34,34,35,35,36,36,38,38,39,39,40,40,41,41,42,42,43,43,44,44,46,46,47,47,51,51,52,52,53,53,54,54,55,55,56,56,58,58,59,59,60,60,61,61,62,62],"right_children":[2,4,6,8,10,12,14,16,18,20,22,24,26,28,30,32,34,36,38,40,42,44,46,48,50,52,54,56,58,60,62,64,66,68,70,72,74,-1,76,78,80,82,84,86,88,-1,90,92,-1,-1,-1,94,96,98,100,102,104,-1,106,108,110,112,114,-1,-1,-1,-1,-1,-1,-1,-1,-1,-1,-1,-1,-1,-1,-1,-1,-1,-1,-1,-1,-1,-1,-1,-1,-1,-1,-1,-1,-1,-1,-1,-1,-1,-1,-1,-1,-1,-1,-1,-1,-1,-1,-1,-1,-1,-1,-1,-1,-1,-1,-1,-1],"split_conditions":[2.358342E-1,2.106671E-1,4E0,2.0227563E-1,6E0,3.2845116E-1,8.027476E-2,8E0,1.8887392E-1,2.7333507E-1,1.934444E-1,3.170178E-1,1.6076481E-1,7.7406794E-2,5.573897E-1,7.156429E-2,1.1035183E-2,1.7218441E-1,2.030975E-1,1.3643286E-1,1.9088964E-1,1.1E1,1.9798033E-1,5.6383926E-1,3.2653707E-1,4.7595862E-1,5.2884716E-1,7.4330024E-2,2.8994134E-2,1.6409792E-1,5.214628E-1,6.930399E-2,1.7083767E-1,-3.5132847E-3,4.8049748E-2,2.0634909E-1,1.1E1,-2.0050914E-3,5E0,2.281875E-1,2.382115E-1,2.3439492E-1,3.49619E-1,2.1539156E-1,5.375224E-1,4.8016864E-3,2E1,4.8611933E-1,3.1754442E-3,-4.875705E-3,-3.8886387E-4,1.22544594E-1,3.3868524E-1,5.2448463E-1,4.5303857E-1,4.1603768E-1,9.753242E-2,7.0961155E-3,3.196535E-1,1.5926054E-1,2.9446405E-1,1.3119508E-1,2.6987818E-1,3.8290142E-7,-3.2357613E-3,8.8846334E-4,-8.595876E-4,1.0795229E-3,-4.696035E-4,-1.6206903E-3,-2.9659137E-4,5.800101E-3,1.5484747E-3,2.3822247E-3,-1.5519488E-5,1.02175E-3,-3.638221E-4,-3.574285E-4,-2.9912035E-3,6.2881975E-4,-4.0313118E-4,-8.015549E-3,-5.1340007E-4,-1.458499E-3,-4.3970034E-5,-9.718521E-4,9.409134E-4,-2.780572E-3,2.5849132E-4,-1.15545794E-4,2.5975902E-3,-1.3598416E-3,6.407568E-4,4.167581E-4,2.534202E-3,-3.298099E-3,-1.0303629E-5,-3.841564E-4,-4.019808E-3,-3.8000592E-4,7.552051E-4,-8.122645E-4,1.7864086E-3,6.3884985E-3,1.279097E-3,3.2906613E-4,-7.96611E-4,-2.073115E-4,-2.7251835E-3,3.4099736E-4,-1.3649263E-4,-9.050383E-4,1.5982619E-3,7.402874E-4,-2.5880449E-3],"split_indices":[27,0,3,27,3,9,17,3,12,11,19,9,18,11,6,9,19,11,0,11,12,3,19,12,0,9,0,19,19,17,19,0,0,27,19,0,3,0,3,9,11,0,11,0,6,0,3,6,0,0,0,18,11,0,19,12,19,0,0,11,17,11,0,0,0,0,0,0,0,0,0,0,0,0,0,0,0,0,0,0,0,0,0,0,0,0,0,0,0,0,0,0,0,0,0,0,0,0,0,0,0,0,0,0,0,0,0,0,0,0,0,0,0,0,0],"split_type":[0,0,0,0,0,0,0,0,0,0,0,0,0,0,0,0,0,0,0,0,0,0,0,0,0,0,0,0,0,0,0,0,0,0,0,0,0,0,0,0,0,0,0,0,0,0,0,0,0,0,0,0,0,0,0,0,0,0,0,0,0,0,0,0,0,0,0,0,0,0,0,0,0,0,0,0,0,0,0,0,0,0,0,0,0,0,0,0,0,0,0,0,0,0,0,0,0,0,0,0,0,0,0,0,0,0,0,0,0,0,0,0,0,0,0],"sum_hessian":[2.4371E4,2.2953E4,1.418E3,2.2822E4,1.31E2,3.7E2,1.048E3,2.2793E4,2.9E1,2.3E1,1.08E2,4.7E1,3.23E2,8.8E1,9.6E2,2.2023E4,7.7E2,1.8E1,1.1E1,1.4E1,9E0,4.7E1,6.1E1,4.3E1,4E0,2.1E1,3.02E2,8.3E1,5E0,8.9E2,7E1,2.1837E4,1.86E2,2.06E2,5.64E2,5E0,1.3E1,1E0,1E1,6E0,8E0,4E0,5E0,1.4E1,3.3E1,3E0,5.8E1,4.2E1,1E0,3E0,1E0,1.7E1,4E0,1.44E2,1.58E2,5.3E1,3E1,3E0,2E0,1.3E2,7.6E2,6.2E1,8E0,2.1834E4,3E0,1.43E2,4.3E1,9.2E1,1.14E2,3.9E1,5.25E2,3E0,2E0,7E0,6E0,4E0,6E0,3E0,3E0,6E0,2E0,3E0,1E0,4E0,1E0,4E0,1E1,2.5E1,8E0,4.8E1,1E1,3.3E1,9E0,8E0,9E0,1E0,3E0,1.4E2,4E0,1.01E2,5.7E1,4.2E1,1.1E1,5E0,2.5E1,1E0,1E0,1.2E2,1E1,4.76E2,2.84E2,7E0,5.5E1,2E0,6E0],"tree_param":{"num_deleted":"0","num_feature":"29","num_nodes":"115","size_leaf_vector":"1"}},{"base_weights":[3.184606E-7,-1.1706746E-5,3.659866E-4,2.0641144E-6,-1.2925696E-3,2.196298E-3,-1.3569863E-4,-1.5194278E-6,3.982599E-3,-4.128897E-3,-5.664737E-4,5.7087797E-3,6.7891764E-5,-3.3304436E-6,-8.974582E-3,5.9237495E-6,-2.0860392E-3,6.8712886E-3,-2.7763941E-3,-1.080759E-2,-2.770463E-3,1.8209897E-4,-2.507994E-3,-9.492319E-3,6.9002495E-3,-8.1237033E-4,8.511619E-3,-4.7839375E-4,2.056708E-3,-2.1359704E-2,7.779296E-4,-9.043629E-6,1.5869461E-3,1.9538156E-3,-8.266238E-3,-1.126298E-3,9.881893E-3,9.685136E-4,-4.3152524E-3,-2.0095978E-3,-6.0079284E-3,-1.5273881E-3,1.4980637E-3,-1.1566807E-2,-1.1896003E-3,-4.528834E-3,-7.2441966E-4,1.5002782E-2,4.51231E-3,-8.544641E-3,5.016556E-4,2.788345E-3,2.0936476E-2,9.629311E-6,-6.122189E-3,5.351802E-3,3.158365E-4,-5.091052E-4,-8.204478E-3,1.1141107E-3,-1.0187232E-3,1.0352451E-6,-9.798473E-4,4.0415814E-3,3.3864277E-4,1.5003321E-3,-1.0379758E-4,-4.232415E-3,-7.8428426E-4,-1.1881569E-3,1.7171667E-4,-3.5953507E-4,3.743206E-3,2.7606433E-4,-1.6639166E-3,1.0242236E-3,-8.984495E-4,-5.6583784E-4,1.9186985E-3,1.2889218E-3,-1.8957077E-4,-6.606113E-4,-4.461692E-3,4.1198506E-4,-2.3633894E-3,-4.9164955E-4,1.6566068E-4,1.3498528E-3,9.272436E-3,5.328533E-4,3.0692942E-3,-1.1199021E-3,-5.892142E-3,1.9064099E-3,-6.2219515E-5,1.5979652E-4,1.2105686E-3,8.21647E-3,1.2049444E-3,6.2117423E-4,-1.8599058E-4,-5.5392263E-3,-1.374242E-3,-5.418502E-4,2.580005E-3,1.0791946E-3,-1.9173041E-3],"categories":[],"categories_nodes":[],"categories_segments":[],"categories_sizes":[],"default_left":[0,0,0,0,0,0,0,0,0,0,0,0,0,0,0,0,0,0,0,0,0,0,0,0,0,0,0,0,0,0,0,0,0,0,0,0,0,0,0,0,0,0,0,0,0,0,0,0,0,0,0,0,0,0,0,0,0,0,0,0,0,0,0,0,0,0,0,0,0,0,0,0,0,0,0,0,0,0,0,0,0,0,0,0,0,0,0,0,0,0,0,0,0,0,0,0,0,0,0,0,0,0,0,0,0,0,0],"id":14,"left_children":[1,3,5,7,9,11,13,15,17,19,21,23,25,27,29,31,33,35,37,-1,39,41,43,45,47,49,51,53,55,57,59,61,63,65,67,69,71,-1,73,75,-1,77,79,81,83,-1,85,87,89,91,93,95,97,99,101,103,105,-1,-1,-1,-1,-1,-1,-1,-1,-1,-1,-1,-1,-1,-1,-1,-1,-1,-1,-1,-1,-1,-1,-1,-1,-1,-1,-1,-1,-1,-1,-1,-1,-1,-1,-1,-1,-1,-1,-1,-1,-1,-1,-1,-1,-1,-1,-1,-1,-1,-1],"loss_changes":[1.07173684E-4,4.162203E-4,7.128524E-4,3.330373E-4,5.145819E-4,1.2481028E-3,7.136622E-4,3.6194126E-4,4.290947E-4,2.10998E-3,2.9258392E-4,1.206533E-3,7.873473E-4,5.901304E-4,1.1036906E-3,5.500784E-4,2.0884203E-3,3.7229358E-4,7.861474E-5,0E0,6.16228E-4,3.307333E-4,6.550526E-4,2.3473156E-4,1.0738561E-3,9.796853E-4,6.5273046E-4,1.3496671E-3,6.465155E-4,4.2459392E-4,8.612853E-5,9.371548E-4,1.1717924E-3,3.5914764E-4,1.0527004E-3,2.6339261E-5,3.3129787E-4,0E0,4.3777305E-5,2.7206048E-4,0E0,1.9397019E-4,4.97426E-4,1.8393743E-4,8.6789374E-4,0E0,4.4070416E-6,2.0326842E-3,7.172388E-4,6.741291E-4,3.4577827E-4,2.035126E-5,2.1748675E-4,5.877855E-4,6.5733935E-4,9.223074E-4,1.6736194E-3,0E0,0E0,0E0,0E0,0E0,0E0,0E0,0E0,0E0,0E0,0E0,0E0,0E0,0E0,0E0,0E0,0E0,0E0,0E0,0E0,0E0,0E0,0E0,0E0,0E0,0E0,0E0,0E0,0E0,0E0,0E0,0E0,0E0,0E0,0E0,0E0,0E0,0E0,0E0,0E0,0E0,0E0,0E0,0E0,0E0,0E0,0E0,0E0,0E0,0E0],"parents":[2147483647,0,0,1,1,2,2,3,3,4,4,5,5,6,6,7,7,8,8,9,9,10,10,11,11,12,12,13,13,14,14,15,15,16,16,17,17,18,18,20,20,21,21,22,22,23,23,24,24,25,25,26,26,27,27,28,28,29,29,30,30,31,31,32,32,33,33,34,34,35,35,36,36,38,38,39,39,41,41,42,42,43,43,44,44,46,46,47,47,48,48,49,49,50,50,51,51,52,52,53,53,54,54,55,55,56,56],"right_children":[2,4,6,8,10,12,14,16,18,20,22,24,26,28,30,32,34,36,38,-1,40,42,44,46,48,50,52,54,56,58,60,62,64,66,68,70,72,-1,74,76,-1,78,80,82,84,-1,86,88,90,92,94,96,98,100,102,104,106,-1,-1,-1,-1,-1,-1,-1,-1,-1,-1,-1,-1,-1,-1,-1,-1,-1,-1,-1,-1,-1,-1,-1,-1,-1,-1,-1,-1,-1,-1,-1,-1,-1,-1,-1,-1,-1,-1,-1,-1,-1,-1,-1,-1,-1,-1,-1,-1,-1,-1],"split_conditions":[2.746592E-1,2.5166526E-1,2.9562098E-1,2.4E1,1.2877244E-1,1.7333816E-1,2.4E1,2E1,2.6E1,4.3982342E-2,1.2E1,1.5213034E-1,5.75129E-1,1.4E1,2.5E1,2.2918579E-1,1.7260532E-1,1.7396574E-1,-1.5794475E-1,-1.080759E-2,4.8631552E-1,2.6107267E-1,2.9176835E-2,4.7058073E-1,2.7836785E-1,1.9088964E-1,1.2E1,1.2E1,4.1141266E-1,1.20467074E-1,3.4106517E-1,2.1979928E-1,7.911677E-2,2.1E1,2.1E1,5.255856E-2,4.845043E-1,9.685136E-4,4.8775667E-1,1.6598879E-1,-6.0079284E-3,5.356141E-1,2.6700264E-1,1.8805598E-1,3.342398E-1,-4.528834E-3,7.799979E-2,1.3438454E-1,2.8696376E-1,4.9293208E-1,2.0367837E-1,1.1435707E-2,-8.598541E-2,2.122059E-1,3.920527E-2,3.0610147E-1,3.0752137E-1,-5.091052E-4,-8.204478E-3,1.1141107E-3,-1.0187232E-3,1.0352451E-6,-9.798473E-4,4.0415814E-3,3.3864277E-4,1.5003321E-3,-1.0379758E-4,-4.232415E-3,-7.8428426E-4,-1.1881569E-3,1.7171667E-4,-3.5953507E-4,3.743206E-3,2.7606433E-4,-1.6639166E-3,1.0242236E-3,-8.984495E-4,-5.6583784E-4,1.9186985E-3,1.2889218E-3,-1.8957077E-4,-6.606113E-4,-4.461692E-3,4.1198506E-4,-2.3633894E-3,-4.9164955E-4,1.6566068E-4,1.3498528E-3,9.272436E-3,5.328533E-4,3.0692942E-3,-1.1199021E-3,-5.892142E-3,1.9064099E-3,-6.2219515E-5,1.5979652E-4,1.2105686E-3,8.21647E-3,1.2049444E-3,6.2117423E-4,-1.8599058E-4,-5.5392263E-3,-1.374242E-3,-5.418502E-4,2.580005E-3,1.0791946E-3,-1.9173041E-3],"split_indices":[11,17,11,3,12,12,3,3,3,0,10,0,6,3,3,11,17,12,0,0,19,17,9,6,17,12,3,3,6,12,11,17,18,3,10,0,6,0,6,0,0,12,11,19,27,0,0,12,11,6,12,0,0,0,0,6,0,0,0,0,0,0,0,0,0,0,0,0,0,0,0,0,0,0,0,0,0,0,0,0,0,0,0,0,0,0,0,0,0,0,0,0,0,0,0,0,0,0,0,0,0,0,0,0,0,0,0],"split_type":[0,0,0,0,0,0,0,0,0,0,0,0,0,0,0,0,0,0,0,0,0,0,0,0,0,0,0,0,0,0,0,0,0,0,0,0,0,0,0,0,0,0,0,0,0,0,0,0,0,0,0,0,0,0,0,0,0,0,0,0,0,0,0,0,0,0,0,0,0,0,0,0,0,0,0,0,0,0,0,0,0,0,0,0,0,0,0,0,0,0,0,0,0,0,0,0,0,0,0,0,0,0,0,0,0,0,0],"sum_hessian":[2.4371E4,2.3596E4,7.75E2,2.3346E4,2.5E2,1.66E2,6.09E2,2.3326E4,2E1,5E1,2E2,6.2E1,1.04E2,6.01E2,8E0,2.3244E4,8.2E1,1.4E1,6E0,1E0,4.9E1,1.45E2,5.5E1,4E0,5.8E1,9.5E1,9E0,4.89E2,1.12E2,3E0,5E0,2.3027E4,2.17E2,5E1,3.2E1,4E0,1E1,1E0,5E0,4.8E1,1E0,6.3E1,8.2E1,6E0,4.9E1,2E0,2E0,1.2E1,4.6E1,1.3E1,8.2E1,7E0,2E0,4.51E2,3.8E1,3.8E1,7.4E1,1E0,2E0,3E0,2E0,2.294E4,8.7E1,7E0,2.1E2,2.1E1,2.9E1,1.5E1,1.7E1,1E0,3E0,2E0,8E0,1E0,4E0,7E0,4.1E1,6.1E1,2E0,3.5E1,4.7E1,2E0,4E0,3.6E1,1.3E1,1E0,1E0,8E0,4E0,3.2E1,1.4E1,1E1,3E0,8E0,7.4E1,3E0,4E0,1E0,1E0,1.05E2,3.46E2,3E0,3.5E1,1.2E1,2.6E1,5E1,2.4E1],"tree_param":{"num_deleted":"0","num_feature":"29","num_nodes":"107","size_leaf_vector":"1"}},{"base_weights":[-5.354136E-7,-3.8434578E-6,1.6087064E-3,-1.2309793E-5,5.368609E-4,1.06634E-3,4.227699E-3,-4.7962194E-6,-1.7688923E-3,2.6210127E-3,1.704566E-4,3.705094E-3,-3.2533138E-4,-3.5688336E-6,-9.75928E-3,-8.052532E-4,-1.1637023E-2,1.937526E-3,6.0319183E-3,9.833455E-3,4.798829E-5,6.677603E-3,3.209083E-4,-1.9916603E-3,3.7063914E-3,5.329032E-6,-1.0772415E-3,-3.6681867E-3,-7.234893E-4,-2.6717177E-3,2.276043E-3,-1.8458005E-2,-2.4886357E-3,8.8150744E-5,3.3664568E-3,1.4818636E-3,5.2332347E-3,-4.6581996E-4,1.9721359E-3,2.9997765E-3,2.0204305E-3,6.615967E-4,-5.325417E-4,2.3984115E-3,-4.785598E-3,3.0077768E-3,8.7326847E-4,-4.445656E-7,1.6104203E-3,-5.0663936E-4,2.5322062E-3,-1.1304258E-3,1.803309E-3,1.1119962E-3,-4.4088694E-3,-4.2828778E-4,-6.7076082E-3,-1.1787899E-3,4.911029E-4,2.3575975E-3,-1.6891935E-4,3.1683778E-3,2.483762E-4,3.278269E-5,6.3405593E-4,1.0990625E-4,-7.053226E-4,-4.6885586E-3,7.4268255E-4,1.0536845E-3,-4.346927E-5,-3.4610898E-4,2.0406909E-4,1.7470153E-3,2.959628E-5,-3.3874164E-4,-1.9502741E-3,6.0647656E-4,-5.143383E-4],"categories":[],"categories_nodes":[],"categories_segments":[],"categories_sizes":[],"default_left":[0,0,0,0,0,0,0,0,0,0,0,0,0,0,0,0,0,0,0,0,0,0,0,0,0,0,0,0,0,0,0,0,0,0,0,0,0,0,0,0,0,0,0,0,0,0,0,0,0,0,0,0,0,0,0,0,0,0,0,0,0,0,0,0,0,0,0,0,0,0,0,0,0,0,0,0,0,0,0],"id":15,"left_children":[1,3,5,7,9,11,-1,13,15,17,19,21,23,25,27,29,31,33,-1,35,37,39,41,43,45,47,49,-1,-1,51,53,55,57,59,61,63,-1,65,67,-1,69,-1,71,73,75,-1,77,-1,-1,-1,-1,-1,-1,-1,-1,-1,-1,-1,-1,-1,-1,-1,-1,-1,-1,-1,-1,-1,-1,-1,-1,-1,-1,-1,-1,-1,-1,-1,-1],"loss_changes":[1.2974914E-4,1.1135207E-4,3.2350764E-4,3.1607552E-4,2.8591906E-4,1.8114704E-4,0E0,2.8548573E-4,9.6057955E-4,6.303009E-4,3.7821964E-4,1.6886895E-4,2.290817E-4,2.27816E-4,2.491448E-5,5.4668717E-4,5.156738E-4,1.4504786E-4,0E0,2.2839473E-4,3.1431843E-4,1.1902276E-4,1.5648704E-5,3.0585186E-4,1.7028474E-4,8.638646E-4,1.1551215E-3,0E0,0E0,5.8429985E-4,9.2857983E-4,3.0023104E-4,3.6150643E-5,1.3093174E-4,5.574484E-4,2.3700545E-6,0E0,3.9464532E-4,6.324074E-4,0E0,1.6660657E-5,0E0,6.058014E-6,7.819156E-5,8.673931E-5,0E0,2.7238266E-5,0E0,0E0,0E0,0E0,0E0,0E0,0E0,0E0,0E0,0E0,0E0,0E0,0E0,0E0,0E0,0E0,0E0,0E0,0E0,0E0,0E0,0E0,0E0,0E0,0E0,0E0,0E0,0E0,0E0,0E0,0E0,0E0],"parents":[2147483647,0,0,1,1,2,2,3,3,4,4,5,5,7,7,8,8,9,9,10,10,11,11,12,12,13,13,14,14,15,15,16,16,17,17,19,19,20,20,21,21,22,22,23,23,24,24,25,25,26,26,29,29,30,30,31,31,32,32,33,33,34,34,35,35,37,37,38,38,40,40,42,42,43,43,44,44,46,46],"right_children":[2,4,6,8,10,12,-1,14,16,18,20,22,24,26,28,30,32,34,-1,36,38,40,42,44,46,48,50,-1,-1,52,54,56,58,60,62,64,-1,66,68,-1,70,-1,72,74,76,-1,78,-1,-1,-1,-1,-1,-1,-1,-1,-1,-1,-1,-1,-1,-1,-1,-1,-1,-1,-1,-1,-1,-1,-1,-1,-1,-1,-1,-1,-1,-1,-1,-1],"split_conditions":[4.48807E-1,4.941295E-1,7.9071033E-1,4.5826712E-1,-8.6209804E-2,3.663213E-1,4.227699E-3,1E0,4.2183775E-1,-8.998126E-2,3.3903096E-2,4.9550098E-1,2.2375365E-1,3.3056447E-1,2.5804535E-1,3.0382648E-1,3.3875093E-1,3.8145426E-1,6.0319183E-3,3.2980537E-1,3.56909E-1,1.9254643E-1,1.7523989E-1,1.4008754E-1,2.4524203E-1,3.2515147E-1,4.408689E-1,-3.6681867E-3,-7.234893E-4,3.2639405E-1,3.796478E-1,-6.115305E-1,4.7775382E-1,1.964658E-1,4.2183775E-1,5.0281966E-1,5.2332347E-3,2.9562098E-1,-7.9052694E-2,2.9997765E-3,8E0,6.615967E-4,2.0527424E-1,2E0,4.8923975E-1,3.0077768E-3,5.4845506E-1,-4.445656E-7,1.6104203E-3,-5.0663936E-4,2.5322062E-3,-1.1304258E-3,1.803309E-3,1.1119962E-3,-4.4088694E-3,-4.2828778E-4,-6.7076082E-3,-1.1787899E-3,4.911029E-4,2.3575975E-3,-1.6891935E-4,3.1683778E-3,2.483762E-4,3.278269E-5,6.3405593E-4,1.0990625E-4,-7.053226E-4,-4.6885586E-3,7.4268255E-4,1.0536845E-3,-4.346927E-5,-3.4610898E-4,2.0406909E-4,1.7470153E-3,2.959628E-5,-3.3874164E-4,-1.9502741E-3,6.0647656E-4,-5.143383E-4],"split_indices":[11,9,19,0,19,19,0,23,12,22,11,0,12,17,0,19,19,12,0,6,11,12,12,12,12,17,0,0,0,11,11,19,0,12,12,0,0,11,19,0,3,0,12,3,19,0,0,0,0,0,0,0,0,0,0,0,0,0,0,0,0,0,0,0,0,0,0,0,0,0,0,0,0,0,0,0,0,0,0],"split_type":[0,0,0,0,0,0,0,0,0,0,0,0,0,0,0,0,0,0,0,0,0,0,0,0,0,0,0,0,0,0,0,0,0,0,0,0,0,0,0,0,0,0,0,0,0,0,0,0,0,0,0,0,0,0,0,0,0,0,0,0,0,0,0,0,0,0,0,0,0,0,0,0,0,0,0,0,0,0,0],"sum_hessian":[2.4371E4,2.4322E4,4.9E1,2.3948E4,3.74E2,4.8E1,1E0,2.3847E4,1.01E2,5.5E1,3.19E2,1.6E1,3.2E1,2.3845E4,2E0,9.3E1,8E0,5.4E1,1E0,3E0,3.16E2,8E0,8E0,2.3E1,9E0,2.365E4,1.95E2,1E0,1E0,5.8E1,3.5E1,4E0,4E0,2.4E1,3E1,2E0,1E0,2.5E2,6.6E1,4E0,4E0,2E0,6E0,9E0,1.4E1,2E0,7E0,2.3621E4,2.9E1,1.84E2,1.1E1,5.2E1,6E0,3.3E1,2E0,1E0,3E0,3E0,1E0,1E0,2.3E1,7E0,2.3E1,1E0,1E0,1.74E2,7.6E1,1E0,6.5E1,2E0,2E0,4E0,2E0,3E0,6E0,5E0,9E0,5E0,2E0],"tree_param":{"num_deleted":"0","num_feature":"29","num_nodes":"79","size_leaf_vector":"1"}},{"base_weights":[1.6430229E-7,-8.190704E-4,5.4416055E-6,-1.9361129E-5,-5.0087725E-3,1.1407135E-5,-8.189299E-4,-7.2000205E-4,4.7626216E-3,-8.954E-3,-2.2299574E-3,3.028558E-7,1.5708382E-3,-1.402813E-3,5.954221E-3,1.4401994E-4,-3.4406432E-3,-2.57454E-3,7.2182515E-3,-1.1958016E-2,-1.45847E-3,-5.599873E-3,4.319881E-3,8.591074E-6,-4.8179897E-3,1.328111E-2,1.1354899E-3,-1.0018083E-3,-1.00818E-2,6.256685E-3,1.7326865E-3,-4.5710517E-4,4.0393313E-3,-9.5719646E-4,-6.6721393E-3,-2.4269013E-5,-1.263001E-3,-5.3412607E-4,8.116509E-3,-1.6206298E-2,-8.915413E-4,1.6412839E-4,-6.928069E-4,1.7704201E-3,-7.4344296E-3,-3.872209E-4,5.7001514E-3,3.1657845E-3,7.705926E-6,-5.760365E-3,5.339075E-3,-1.2790816E-3,2.0880977E-2,1.5958891E-3,-3.574895E-3,-1.341256E-3,3.5638018E-3,-6.106017E-3,-1.9024858E-3,5.3392285E-3,-1.6061617E-3,-4.4320017E-4,9.871853E-4,-1.5683478E-4,2.2118003E-3,-9.895925E-4,3.0350382E-4,-1.0087465E-4,-3.344922E-3,2.8819703E-3,1.3324393E-4,-5.946651E-3,-2.6142277E-4,-6.62884E-4,2.6169035E-4,1.906485E-5,7.7762426E-4,4.6582823E-4,-2.6255772E-3,2.480303E-3,8.9740544E-4,-1.7632946E-6,1.6175024E-4,-9.838587E-4,-2.933693E-3,2.8026046E-3,-1.0004619E-3,-6.03452E-4,2.786529E-5,7.7216323E-3,9.4613753E-4,1.7671849E-3,3.2366777E-4,-5.312606E-3,-1.14775985E-5,-6.378822E-4,3.284001E-4,2.5760375E-3,6.6084706E-4,1.9594324E-3,-1.6931484E-3,2.5558253E-3,4.857839E-4,3.92187E-4,-1.7779582E-3],"categories":[],"categories_nodes":[],"categories_segments":[],"categories_sizes":[],"default_left":[0,0,0,0,0,0,0,0,0,0,0,0,0,0,0,0,0,0,0,0,0,0,0,0,0,0,0,0,0,0,0,0,0,0,0,0,0,0,0,0,0,0,0,0,0,0,0,0,0,0,0,0,0,0,0,0,0,0,0,0,0,0,0,0,0,0,0,0,0,0,0,0,0,0,0,0,0,0,0,0,0,0,0,0,0,0,0,0,0,0,0,0,0,0,0,0,0,0,0,0,0,0,0,0,0],"id":16,"left_children":[1,3,5,7,9,11,13,15,17,19,21,23,25,27,29,31,33,35,37,39,41,43,45,47,49,51,53,55,57,-1,59,61,63,65,67,-1,-1,-1,69,71,73,-1,-1,75,77,-1,79,-1,81,83,85,87,89,91,93,95,97,-1,99,101,103,-1,-1,-1,-1,-1,-1,-1,-1,-1,-1,-1,-1,-1,-1,-1,-1,-1,-1,-1,-1,-1,-1,-1,-1,-1,-1,-1,-1,-1,-1,-1,-1,-1,-1,-1,-1,-1,-1,-1,-1,-1,-1,-1,-1],"loss_changes":[1.0537314E-4,5.225879E-4,1.1910403E-4,4.4568887E-4,2.5410927E-4,4.1635404E-4,6.964753E-4,2.73176E-4,3.248787E-4,2.0772661E-4,3.7734926E-4,9.534909E-4,8.515874E-4,5.502305E-4,8.445584E-4,2.102461E-4,2.1832043E-4,2.0050735E-5,1.1953141E-4,3.1464593E-4,8.089467E-6,1.6189544E-4,5.3822412E-5,2.2237147E-4,4.2319758E-4,6.906416E-4,3.6353362E-4,2.449967E-4,5.493799E-4,0E0,1.53076E-4,3.0309698E-4,1.8633902E-4,8.170742E-5,3.3668597E-4,0E0,0E0,0E0,1.329204E-4,2.599717E-4,8.9020605E-6,0E0,0E0,4.0426794E-6,1.2015476E-4,0E0,1.0043033E-5,0E0,1.720643E-4,3.467711E-4,1.700396E-4,3.2014236E-6,2.6328547E-4,3.2891886E-4,7.4911374E-4,2.7960283E-4,5.6282777E-5,0E0,1.9463335E-4,5.718552E-5,9.585792E-5,0E0,0E0,0E0,0E0,0E0,0E0,0E0,0E0,0E0,0E0,0E0,0E0,0E0,0E0,0E0,0E0,0E0,0E0,0E0,0E0,0E0,0E0,0E0,0E0,0E0,0E0,0E0,0E0,0E0,0E0,0E0,0E0,0E0,0E0,0E0,0E0,0E0,0E0,0E0,0E0,0E0,0E0,0E0,0E0],"parents":[2147483647,0,0,1,1,2,2,3,3,4,4,5,5,6,6,7,7,8,8,9,9,10,10,11,11,12,12,13,13,14,14,15,15,16,16,17,17,18,18,19,19,20,20,21,21,22,22,23,23,24,24,25,25,26,26,27,27,28,28,30,30,31,31,32,32,33,33,34,34,38,38,39,39,40,40,43,43,44,44,46,46,48,48,49,49,50,50,51,51,52,52,53,53,54,54,55,55,56,56,58,58,59,59,60,60],"right_children":[2,4,6,8,10,12,14,16,18,20,22,24,26,28,30,32,34,36,38,40,42,44,46,48,50,52,54,56,58,-1,60,62,64,66,68,-1,-1,-1,70,72,74,-1,-1,76,78,-1,80,-1,82,84,86,88,90,92,94,96,98,-1,100,102,104,-1,-1,-1,-1,-1,-1,-1,-1,-1,-1,-1,-1,-1,-1,-1,-1,-1,-1,-1,-1,-1,-1,-1,-1,-1,-1,-1,-1,-1,-1,-1,-1,-1,-1,-1,-1,-1,-1,-1,-1,-1,-1,-1,-1],"split_conditions":[-1.0368065E-3,-1.0634815E-2,4.3128857E-1,1.7E1,2.012464E-1,3.6913198E-1,6.668835E-1,1.281383E-1,-2.8858712E-1,6.4982194E-1,5.734163E-1,3.584074E-1,2.8898241E-2,1.2E1,6.699477E-1,5.7261094E-2,-2.1178061E-1,-3.414251E-2,-1.895152E-1,1.4E1,-1.895152E-1,-2.1178061E-1,-2.2692646E-1,0E0,1.6E1,5E0,1.2E1,7E0,1.3E1,6.256685E-3,3.4845956E-2,4.1121417E-1,-1.426262E-1,4E0,4.8171797E-1,-2.4269013E-5,-1.263001E-3,-5.3412607E-4,2.5804535E-1,2.5804535E-1,-1.3973992E-1,1.6412839E-4,-6.928069E-4,-5.6285925E-2,2E0,-3.872209E-4,2.5832558E-1,3.1657845E-3,3.8221294E-1,5E0,2.8035957E-1,-6.693629E-1,3.4026185E-1,8.030221E-2,5.8836516E-2,2.2817016E-1,-7.7064675E-1,-6.106017E-3,7.278373E-2,7.017453E-1,2.4961461E-1,-4.4320017E-4,9.871853E-4,-1.5683478E-4,2.2118003E-3,-9.895925E-4,3.0350382E-4,-1.0087465E-4,-3.344922E-3,2.8819703E-3,1.3324393E-4,-5.946651E-3,-2.6142277E-4,-6.62884E-4,2.6169035E-4,1.906485E-5,7.7762426E-4,4.6582823E-4,-2.6255772E-3,2.480303E-3,8.9740544E-4,-1.7632946E-6,1.6175024E-4,-9.838587E-4,-2.933693E-3,2.8026046E-3,-1.0004619E-3,-6.03452E-4,2.786529E-5,7.7216323E-3,9.4613753E-4,1.7671849E-3,3.2366777E-4,-5.312606E-3,-1.14775985E-5,-6.378822E-4,3.284001E-4,2.5760375E-3,6.6084706E-4,1.9594324E-3,-1.6931484E-3,2.5558253E-3,4.857839E-4,3.92187E-4,-1.7779582E-3],"split_indices":[17,17,12,3,12,18,6,27,19,6,6,18,11,3,6,0,19,0,0,3,0,19,0,17,3,3,3,3,3,0,0,12,19,3,6,0,0,0,0,0,0,0,0,0,3,0,12,0,0,3,0,0,0,11,11,11,19,0,11,6,19,0,0,0,0,0,0,0,0,0,0,0,0,0,0,0,0,0,0,0,0,0,0,0,0,0,0,0,0,0,0,0,0,0,0,0,0,0,0,0,0,0,0,0,0],"split_type":[0,0,0,0,0,0,0,0,0,0,0,0,0,0,0,0,0,0,0,0,0,0,0,0,0,0,0,0,0,0,0,0,0,0,0,0,0,0,0,0,0,0,0,0,0,0,0,0,0,0,0,0,0,0,0,0,0,0,0,0,0,0,0,0,0,0,0,0,0,0,0,0,0,0,0,0,0,0,0,0,0,0,0,0,0,0,0,0,0,0,0,0,0,0,0,0,0,0,0,0,0,0,0,0,0],"sum_hessian":[2.4371E4,1.55E2,2.4216E4,1.31E2,2.4E1,2.4043E4,1.73E2,1.15E2,1.6E1,9E0,1.5E1,2.3874E4,1.69E2,1.6E2,1.3E1,8.8E1,2.7E1,4E0,1.2E1,6E0,3E0,1E1,5E0,2.3834E4,4E1,5E0,1.64E2,1.54E2,6E0,2E0,1.1E1,7.7E1,1.1E1,1.6E1,1.1E1,2E0,2E0,1E0,1.1E1,4E0,2E0,1E0,2E0,2E0,8E0,1E0,4E0,1E0,2.3833E4,3.7E1,3E0,2E0,3E0,1.5E2,1.4E1,1.44E2,1E1,2E0,4E0,5E0,6E0,6.1E1,1.6E1,5E0,6E0,7E0,9E0,5E0,6E0,9E0,2E0,3E0,1E0,1E0,1E0,1E0,1E0,1E0,7E0,1E0,3E0,2.324E4,5.93E2,2.4E1,1.3E1,2E0,1E0,1E0,1E0,2E0,1E0,1.5E1,1.35E2,2E0,1.2E1,1.09E2,3.5E1,1E0,9E0,1E0,3E0,2E0,3E0,4E0,2E0],"tree_param":{"num_deleted":"0","num_feature":"29","num_nodes":"105","size_leaf_vector":"1"}},{"base_weights":[3.2918427E-7,-2.8923178E-6,1.1517744E-3,6.1455166E-6,-7.92657E-4,5.578706E-3,1.9958233E-4,1.9153845E-6,4.6224785E-3,-2.2565336E-3,9.5634407E-4,1.30966725E-2,2.7654455E-3,-3.4099284E-3,6.122262E-4,2.0117643E-5,-3.793854E-4,9.3833795E-3,2.6702497E-3,2.3665586E-4,-3.361566E-3,-9.951394E-4,2.5828613E-3,3.9539588E-4,5.4981066E-3,5.750426E-6,2.0710654E-3,-3.2257137E-4,-1.615862E-3,-6.696579E-4,2.5364198E-3,3.557488E-6,2.516839E-3,8.5098725E-3,-4.4445868E-4,2.5644733E-4,1.3882734E-2,7.3321443E-3,1.16781615E-4,9.0428087E-4,-9.856604E-3,-6.9444044E-3,-1.8836098E-3,-2.3417205E-3,1.488919E-3,3.238699E-3,-8.884173E-3,4.5724335E-4,-2.2459638E-4,5.8618345E-4,-2.1320237E-3,2.6306459E-3,1.4188609E-3,2.9264913E-7,1.1759569E-3,-1.4353044E-4,1.5129261E-3,-2.5805854E-4,2.9914016E-3,-1.0870004E-4,-1.3788114E-3,3.4390544E-4,-2.2850416E-4,4.766975E-3,1.1791778E-3,9.097595E-4,3.1862739E-3,-9.1652485E-4,3.1699883E-4,-2.8225837E-5,1.9012284E-3,-3.514819E-3,-9.20653E-4,-8.6294045E-4,-4.4377893E-3,-1.03356586E-4,-2.569508E-3,1.1117584E-4,-1.2993456E-3,1.1646079E-3,-8.6554006E-4,7.6734676E-4,5.0053485E-3,-6.5330596E-4,-3.1181318E-3,-8.173848E-5,2.1233551E-4,-1.1214358E-3,4.081061E-4,2.4612076E-4,-1.1070832E-3,1.579045E-3,1.2818854E-5],"categories":[],"categories_nodes":[],"categories_segments":[],"categories_sizes":[],"default_left":[0,0,0,0,0,0,0,0,0,0,0,0,0,0,0,0,0,0,0,0,0,0,0,0,0,0,0,0,0,0,0,0,0,0,0,0,0,0,0,0,0,0,0,0,0,0,0,0,0,0,0,0,0,0,0,0,0,0,0,0,0,0,0,0,0,0,0,0,0,0,0,0,0,0,0,0,0,0,0,0,0,0,0,0,0,0,0,0,0,0,0,0,0],"id":17,"left_children":[1,3,5,7,9,11,13,15,17,19,21,23,25,27,29,31,33,35,37,39,41,43,45,-1,-1,47,-1,-1,-1,49,51,53,55,57,59,61,63,65,67,69,71,73,75,77,79,81,83,85,-1,87,89,-1,91,-1,-1,-1,-1,-1,-1,-1,-1,-1,-1,-1,-1,-1,-1,-1,-1,-1,-1,-1,-1,-1,-1,-1,-1,-1,-1,-1,-1,-1,-1,-1,-1,-1,-1,-1,-1,-1,-1,-1,-1],"loss_changes":[9.040842E-5,1.7348821E-4,2.8552627E-4,4.6926123E-4,7.062465E-4,2.1758184E-4,8.698588E-5,1.6664989E-4,1.7942017E-4,4.140538E-4,4.0250964E-4,1.606652E-4,1.1415939E-4,2.1892534E-5,1.2996138E-4,9.475194E-4,6.366102E-4,2.4283165E-4,2.0151172E-4,3.2562323E-4,5.376283E-4,1.9749586E-4,5.4768834E-4,0E0,0E0,2.726577E-6,0E0,0E0,0E0,6.0017737E-5,1.338248E-4,2.3021262E-4,1.1450001E-3,1.1812954E-4,3.6894664E-4,3.5912617E-6,1.7446291E-5,5.2634365E-5,3.9002294E-5,2.4468862E-4,1.9099098E-6,9.152321E-4,7.682957E-4,2.0665108E-4,2.310193E-4,5.61549E-4,1.7862068E-5,1.1069516E-6,0E0,6.53446E-5,7.203694E-5,0E0,1.0029849E-4,0E0,0E0,0E0,0E0,0E0,0E0,0E0,0E0,0E0,0E0,0E0,0E0,0E0,0E0,0E0,0E0,0E0,0E0,0E0,0E0,0E0,0E0,0E0,0E0,0E0,0E0,0E0,0E0,0E0,0E0,0E0,0E0,0E0,0E0,0E0,0E0,0E0,0E0,0E0,0E0],"parents":[2147483647,0,0,1,1,2,2,3,3,4,4,5,5,6,6,7,7,8,8,9,9,10,10,11,11,12,12,13,13,14,14,15,15,16,16,17,17,18,18,19,19,20,20,21,21,22,22,25,25,29,29,30,30,31,31,32,32,33,33,34,34,35,35,36,36,37,37,38,38,39,39,40,40,41,41,42,42,43,43,44,44,45,45,46,46,47,47,49,49,50,50,52,52],"right_children":[2,4,6,8,10,12,14,16,18,20,22,24,26,28,30,32,34,36,38,40,42,44,46,-1,-1,48,-1,-1,-1,50,52,54,56,58,60,62,64,66,68,70,72,74,76,78,80,82,84,86,-1,88,90,-1,92,-1,-1,-1,-1,-1,-1,-1,-1,-1,-1,-1,-1,-1,-1,-1,-1,-1,-1,-1,-1,-1,-1,-1,-1,-1,-1,-1,-1,-1,-1,-1,-1,-1,-1,-1,-1,-1,-1,-1,-1],"split_conditions":[7.691418E-1,6.287006E-1,7.8382266E-1,6.237077E-1,5.445615E-2,-2.4151702E-1,-2.8858712E-1,2.707747E-1,1.4391313E-1,5E0,1.6513407E-1,-4.6226314E-1,1.9753458E-2,4.2846534E-1,3.3636716E-1,2.3876263E-1,7.532353E-2,6.255401E-1,-4.061687E-2,3.4845956E-2,-1.0296629E-1,6.7831826E-1,4.8807785E-1,3.9539588E-4,5.4981066E-3,4.5791525E-1,2.0710654E-3,-3.2257137E-4,-1.615862E-3,1.7944665E-1,3.5562852E-1,5.6383926E-1,4.0255234E-1,6E0,2.3E1,8.5641995E-2,1.4222202E-1,1.1877446E-2,1.5754984E-1,2.6564705E-1,3.920527E-2,-1.3205257E-1,1.4E1,1.9092801E-1,7.017453E-1,4.3865952E-1,4E0,1.8042246E-1,-2.2459638E-4,1.541123E-1,7.105095E-2,2.6306459E-3,-1.10649824E-1,2.9264913E-7,1.1759569E-3,-1.4353044E-4,1.5129261E-3,-2.5805854E-4,2.9914016E-3,-1.0870004E-4,-1.3788114E-3,3.4390544E-4,-2.2850416E-4,4.766975E-3,1.1791778E-3,9.097595E-4,3.1862739E-3,-9.1652485E-4,3.1699883E-4,-2.8225837E-5,1.9012284E-3,-3.514819E-3,-9.20653E-4,-8.6294045E-4,-4.4377893E-3,-1.03356586E-4,-2.569508E-3,1.1117584E-4,-1.2993456E-3,1.1646079E-3,-8.6554006E-4,7.6734676E-4,5.0053485E-3,-6.5330596E-4,-3.1181318E-3,-8.173848E-5,2.1233551E-4,-1.1214358E-3,4.081061E-4,2.4612076E-4,-1.1070832E-3,1.579045E-3,1.2818854E-5],"split_indices":[6,6,6,6,9,0,0,22,12,3,19,0,0,19,19,19,12,6,0,0,27,6,12,0,0,19,0,0,0,17,19,12,6,3,10,0,0,11,12,11,0,0,3,18,6,12,3,12,0,12,19,0,0,0,0,0,0,0,0,0,0,0,0,0,0,0,0,0,0,0,0,0,0,0,0,0,0,0,0,0,0,0,0,0,0,0,0,0,0,0,0,0,0],"split_type":[0,0,0,0,0,0,0,0,0,0,0,0,0,0,0,0,0,0,0,0,0,0,0,0,0,0,0,0,0,0,0,0,0,0,0,0,0,0,0,0,0,0,0,0,0,0,0,0,0,0,0,0,0,0,0,0,0,0,0,0,0,0,0,0,0,0,0,0,0,0,0,0,0,0,0,0,0,0,0,0,0,0,0,0,0,0,0,0,0,0,0,0,0],"sum_hessian":[2.4371E4,2.4304E4,6.7E1,2.403E4,2.74E2,1.1E1,5.6E1,2.4009E4,2.1E1,1.49E2,1.25E2,2E0,9E0,5E0,5.1E1,2.2916E4,1.093E3,5E0,1.6E1,4.6E1,1.03E2,5.7E1,6.8E1,1E0,1E0,6E0,3E0,3E0,2E0,3.1E1,2E1,2.2766E4,1.5E2,7E0,1.086E3,2E0,3E0,5E0,1.1E1,4.4E1,2E0,2.9E1,7.4E1,3.7E1,2E1,6.5E1,3E0,4E0,2E0,1.7E1,1.4E1,2E0,1.8E1,2.2752E4,1.4E1,6.9E1,8.1E1,1E0,6E0,1.066E3,2E1,1E0,1E0,2E0,1E0,3E0,2E0,2E0,9E0,3.8E1,6E0,1E0,1E0,2E1,9E0,6.1E1,1.3E1,1.6E1,2.1E1,1.3E1,7E0,6.3E1,2E0,1E0,2E0,1E0,3E0,2E0,1.5E1,5E0,9E0,4E0,1.4E1],"tree_param":{"num_deleted":"0","num_feature":"29","num_nodes":"93","size_leaf_vector":"1"}},{"base_weights":[7.434901E-7,-8.781568E-6,4.1875712E-4,4.9647497E-6,-1.2038165E-3,-4.670374E-4,1.9046544E-3,-5.9726513E-6,5.757229E-4,-2.8381723E-3,-1.697867E-5,4.3755068E-4,-4.8883474E-3,-3.502761E-4,3.9714333E-3,1.517589E-5,-6.76376E-4,7.642967E-4,-8.602644E-3,-4.539027E-3,5.4908707E-4,6.530575E-3,-1.0682867E-3,3.5114416E-3,-1.2547318E-4,-1.790094E-2,-3.853098E-3,1.810941E-3,-3.962308E-3,1.0555082E-2,2.0198787E-3,-2.772246E-6,1.8091935E-3,-1.4529811E-3,2.6892072E-5,6.569164E-4,7.105098E-3,8.0096215E-4,-6.167218E-3,-6.9494726E-4,-8.572112E-3,3.0420606E-3,-2.8560588E-3,6.252781E-5,1.1003644E-2,-1.8672843E-3,3.9921873E-3,1.2530139E-2,1.1592273E-3,-7.9227355E-4,4.417119E-3,-2.5437728E-3,-9.595867E-3,-1.7730121E-3,-6.105001E-3,3.073021E-3,-2.7356923E-3,4.6929577E-3,-7.341775E-3,5.511975E-3,1.601403E-2,6.744113E-3,-1.0765839E-3,-2.2352308E-6,2.5934787E-3,3.445243E-4,1.5573958E-3,-9.0752065E-4,-4.135785E-5,7.8070545E-5,-1.057545E-3,-2.2598953E-4,5.5297645E-4,-1.3021708E-3,8.0921466E-4,-2.2282302E-3,4.497721E-4,-5.1017446E-3,-1.3049813E-3,1.6194648E-3,4.276691E-4,-1.8453215E-3,8.1894785E-4,-1.1347661E-3,9.769023E-4,4.3286653E-3,-1.5670354E-3,-1.7907701E-3,-2.4670386E-4,3.5567088E-3,-1.2811619E-3,4.9363035E-3,1.0533887E-3,-5.0935824E-4,2.3420881E-3,-8.4056926E-4,2.0901901E-4,5.541347E-4,3.1482342E-3,-1.1898635E-3,4.5165827E-5,-2.2040138E-3,7.282609E-5,-2.4079697E-3,4.913928E-4,1.3892644E-3,2.3260691E-4,-1.0997518E-3,1.4034322E-3,-5.691305E-4,3.894135E-3,-6.6464795E-3,-1.5811578E-3,2.0636304E-3,-5.3775625E-4,1.3184515E-3,7.4892654E-3,2.6473193E-3,-1.2263712E-3,4.6714796E-3,-5.1629386E-4],"categories":[],"categories_nodes":[],"categories_segments":[],"categories_sizes":[],"default_left":[0,0,0,0,0,0,0,0,0,0,0,0,0,0,0,0,0,0,0,0,0,0,0,0,0,0,0,0,0,0,0,0,0,0,0,0,0,0,0,0,0,0,0,0,0,0,0,0,0,0,0,0,0,0,0,0,0,0,0,0,0,0,0,0,0,0,0,0,0,0,0,0,0,0,0,0,0,0,0,0,0,0,0,0,0,0,0,0,0,0,0,0,0,0,0,0,0,0,0,0,0,0,0,0,0,0,0,0,0,0,0,0,0,0,0,0,0,0,0,0,0],"id":18,"left_children":[1,3,5,7,9,11,13,15,17,19,21,23,25,27,29,31,33,35,37,39,41,43,45,47,49,51,53,55,57,59,61,63,65,67,69,71,-1,73,-1,75,77,79,81,83,85,87,89,91,93,95,97,99,-1,101,103,105,107,109,111,113,115,117,119,-1,-1,-1,-1,-1,-1,-1,-1,-1,-1,-1,-1,-1,-1,-1,-1,-1,-1,-1,-1,-1,-1,-1,-1,-1,-1,-1,-1,-1,-1,-1,-1,-1,-1,-1,-1,-1,-1,-1,-1,-1,-1,-1,-1,-1,-1,-1,-1,-1,-1,-1,-1,-1,-1,-1,-1,-1,-1],"loss_changes":[9.704333E-5,3.9146928E-4,7.15586E-4,1.4707934E-4,5.256146E-4,1.3659563E-3,9.474608E-4,3.2777849E-4,7.73319E-4,6.592732E-4,1.0945689E-3,4.9195206E-4,7.1236014E-4,7.722012E-4,1.3406052E-3,7.2165515E-4,3.861753E-4,1.0550146E-3,1.0282255E-3,1.1723088E-3,3.3975695E-4,6.358165E-4,5.613875E-4,9.188867E-4,7.3348905E-4,7.838743E-4,2.4680403E-4,3.641762E-4,1.1167116E-3,5.7245255E-4,1.2214188E-3,8.9787826E-4,4.901723E-4,6.942585E-4,3.0924744E-4,7.27467E-4,0E0,7.021119E-5,0E0,6.0202903E-4,1.2435426E-3,7.9905E-5,3.2968586E-4,1.35122E-4,7.979305E-4,5.051589E-4,1.2851366E-3,2.6074995E-4,6.970089E-4,6.333353E-4,4.64771E-4,1.2094668E-5,0E0,3.3884164E-4,3.9999175E-4,1.7180195E-4,1.1369209E-4,6.253909E-4,7.1163895E-4,1.5210258E-4,1.0342195E-3,7.7968475E-4,5.739272E-4,0E0,0E0,0E0,0E0,0E0,0E0,0E0,0E0,0E0,0E0,0E0,0E0,0E0,0E0,0E0,0E0,0E0,0E0,0E0,0E0,0E0,0E0,0E0,0E0,0E0,0E0,0E0,0E0,0E0,0E0,0E0,0E0,0E0,0E0,0E0,0E0,0E0,0E0,0E0,0E0,0E0,0E0,0E0,0E0,0E0,0E0,0E0,0E0,0E0,0E0,0E0,0E0,0E0,0E0,0E0,0E0,0E0,0E0],"parents":[2147483647,0,0,1,1,2,2,3,3,4,4,5,5,6,6,7,7,8,8,9,9,10,10,11,11,12,12,13,13,14,14,15,15,16,16,17,17,18,18,19,19,20,20,21,21,22,22,23,23,24,24,25,25,26,26,27,27,28,28,29,29,30,30,31,31,32,32,33,33,34,34,35,35,37,37,39,39,40,40,41,41,42,42,43,43,44,44,45,45,46,46,47,47,48,48,49,49,50,50,51,51,53,53,54,54,55,55,56,56,57,57,58,58,59,59,60,60,61,61,62,62],"right_children":[2,4,6,8,10,12,14,16,18,20,22,24,26,28,30,32,34,36,38,40,42,44,46,48,50,52,54,56,58,60,62,64,66,68,70,72,-1,74,-1,76,78,80,82,84,86,88,90,92,94,96,98,100,-1,102,104,106,108,110,112,114,116,118,120,-1,-1,-1,-1,-1,-1,-1,-1,-1,-1,-1,-1,-1,-1,-1,-1,-1,-1,-1,-1,-1,-1,-1,-1,-1,-1,-1,-1,-1,-1,-1,-1,-1,-1,-1,-1,-1,-1,-1,-1,-1,-1,-1,-1,-1,-1,-1,-1,-1,-1,-1,-1,-1,-1,-1,-1,-1,-1],"split_conditions":[1.5E1,1.3E1,2.0970534E-1,1E1,1.4166357E-1,1.964658E-1,1.482358E-1,4.6538728E-1,3.8145426E-1,5.7106346E-1,1.878534E-1,1.0790871E-1,-6.9983535E-2,1.1330628E-1,2.229962E-1,7E0,2.340715E-1,3.7907857E-1,1.2E1,1.3870731E-1,1.4E1,1.8465899E-1,3.2275847E-1,1.4391313E-1,1.861018E-1,-1.13398924E-1,1.9E1,3.1775567E-1,-6.216702E-2,2.3439492E-1,1.7708495E-1,4.5411074E-1,4.358939E-1,5.6962395E-1,3.7695378E-1,4.7058073E-1,7.105098E-3,-1.5794475E-1,-6.167218E-3,1.4265852E-1,1.9556203E-1,1.9254643E-1,4.8049748E-2,1.6358069E-1,3.1421122E-1,3.7837303E-1,3.4106517E-1,1.8E1,7.579175E-2,2.3621568E-1,3.2156327E-1,-2.6210532E-1,-9.595867E-3,2.0068659E-1,5.8143544E-1,8.458383E-2,6.0178465E-1,-1.75989E-1,-2.7561884E-3,1.9842608E-1,1.7E1,2.3621568E-1,2.2804995E-1,-2.2352308E-6,2.5934787E-3,3.445243E-4,1.5573958E-3,-9.0752065E-4,-4.135785E-5,7.8070545E-5,-1.057545E-3,-2.2598953E-4,5.5297645E-4,-1.3021708E-3,8.0921466E-4,-2.2282302E-3,4.497721E-4,-5.1017446E-3,-1.3049813E-3,1.6194648E-3,4.276691E-4,-1.8453215E-3,8.1894785E-4,-1.1347661E-3,9.769023E-4,4.3286653E-3,-1.5670354E-3,-1.7907701E-3,-2.4670386E-4,3.5567088E-3,-1.2811619E-3,4.9363035E-3,1.0533887E-3,-5.0935824E-4,2.3420881E-3,-8.4056926E-4,2.0901901E-4,5.541347E-4,3.1482342E-3,-1.1898635E-3,4.5165827E-5,-2.2040138E-3,7.282609E-5,-2.4079697E-3,4.913928E-4,1.3892644E-3,2.3260691E-4,-1.0997518E-3,1.4034322E-3,-5.691305E-4,3.894135E-3,-6.6464795E-3,-1.5811578E-3,2.0636304E-3,-5.3775625E-4,1.3184515E-3,7.4892654E-3,2.6473193E-3,-1.2263712E-3,4.6714796E-3,-5.1629386E-4],"split_indices":[3,3,18,10,19,12,17,6,12,6,22,17,9,11,12,3,18,12,3,11,3,12,11,12,18,0,3,12,19,0,0,6,19,6,0,6,0,0,0,12,0,12,19,19,12,6,11,3,11,11,11,0,0,12,6,19,6,19,19,0,3,11,6,0,0,0,0,0,0,0,0,0,0,0,0,0,0,0,0,0,0,0,0,0,0,0,0,0,0,0,0,0,0,0,0,0,0,0,0,0,0,0,0,0,0,0,0,0,0,0,0,0,0,0,0,0,0,0,0,0,0],"split_type":[0,0,0,0,0,0,0,0,0,0,0,0,0,0,0,0,0,0,0,0,0,0,0,0,0,0,0,0,0,0,0,0,0,0,0,0,0,0,0,0,0,0,0,0,0,0,0,0,0,0,0,0,0,0,0,0,0,0,0,0,0,0,0,0,0,0,0,0,0,0,0,0,0,0,0,0,0,0,0,0,0,0,0,0,0,0,0,0,0,0,0,0,0,0,0,0,0,0,0,0,0,0,0,0,0,0,0,0,0,0,0,0,0,0,0,0,0,0,0,0,0],"sum_hessian":[2.4371E4,2.3829E4,5.42E2,2.3559E4,2.7E2,3.4E2,2.02E2,2.3117E4,4.42E2,1.13E2,1.57E2,2.83E2,5.7E1,9.7E1,1.05E2,2.2411E4,7.06E2,4.34E2,8E0,7.5E1,3.8E1,2.1E1,1.36E2,4.3E1,2.4E2,3E0,5.4E1,6.1E1,3.6E1,2.3E1,8.2E1,2.219E4,2.21E2,3.35E2,3.71E2,4.33E2,1E0,5E0,3E0,3.9E1,3.6E1,2.2E1,1.6E1,9E0,1.2E1,1.18E2,1.8E1,8E0,3.5E1,2.1E2,3E1,2E0,1E0,2.9E1,2.5E1,4.8E1,1.3E1,1E1,2.6E1,1.3E1,1E1,3.2E1,5E1,2.2179E4,1.1E1,1.86E2,3.5E1,1.52E2,1.83E2,3.49E2,2.2E1,1.98E2,2.35E2,1E0,4E0,9E0,3E1,1.1E1,2.5E1,8E0,1.4E1,1E1,6E0,4E0,5E0,1E1,2E0,2.3E1,9.5E1,9E0,9E0,5E0,3E0,2.5E1,1E1,8.9E1,1.21E2,2.2E1,8E0,1E0,1E0,7E0,2.2E1,2E1,5E0,2.8E1,2E1,1.2E1,1E0,6E0,4E0,2E0,2.4E1,1.1E1,2E0,5E0,5E0,2.7E1,5E0,1E0,4.9E1],"tree_param":{"num_deleted":"0","num_feature":"29","num_nodes":"121","size_leaf_vector":"1"}},{"base_weights":[8.5079097E-7,-1.6724702E-3,2.7752988E-6,4.181282E-3,-4.2230356E-3,8.492531E-4,-2.0150783E-6,4.8967013E-3,-2.3131035E-4,-5.968834E-3,-1.3762428E-3,5.998721E-4,3.5364944E-3,-3.8670066E-3,1.8202732E-6,1.7473234E-3,4.2271413E-4,1.6801271E-3,-3.9893514E-3,2.585327E-3,7.9771135E-6,-8.629796E-3,1.5139976E-4,-2.2526062E-3,5.2741843E-6,3.7758253E-3,-3.7698774E-3,-6.606148E-3,1.5873804E-3,2.3756278E-4,5.4192147E-3,4.5132218E-4,-3.4655572E-3,-4.3060884E-4,-1.0403992E-2,1.9620059E-3,-8.431109E-4,-5.2719545E-3,2.0397857E-3,4.66637E-3,3.922588E-6,-2.576945E-4,1.407437E-3,-1.4689473E-3,-2.2749763E-4,-2.4560576E-3,-5.3087476E-4,-1.8324627E-4,1.2272977E-3,-4.5000913E-4,9.547069E-4,1.9481255E-3,-2.0560106E-4,2.50649E-4,-1.134897E-3,7.654466E-5,-4.413818E-3,-4.2781627E-4,2.3404228E-4,-8.56253E-4,-4.110961E-3,2.042547E-4,-8.203617E-4,-3.6182373E-3,-7.69734E-4,-1.1217964E-3,2.0850382E-3,7.933609E-5,4.66168E-3,8.330099E-4,6.941259E-7],"categories":[],"categories_nodes":[],"categories_segments":[],"categories_sizes":[],"default_left":[0,0,0,0,0,0,0,0,0,0,0,0,0,0,0,0,0,0,0,0,0,0,0,0,0,0,0,0,0,0,0,0,0,0,0,0,0,0,0,0,0,0,0,0,0,0,0,0,0,0,0,0,0,0,0,0,0,0,0,0,0,0,0,0,0,0,0,0,0,0,0],"id":19,"left_children":[1,3,5,7,9,11,13,15,-1,-1,17,19,-1,21,23,-1,-1,25,27,29,31,33,35,37,39,41,43,45,47,49,51,53,55,57,59,-1,61,63,65,67,69,-1,-1,-1,-1,-1,-1,-1,-1,-1,-1,-1,-1,-1,-1,-1,-1,-1,-1,-1,-1,-1,-1,-1,-1,-1,-1,-1,-1,-1,-1],"loss_changes":[7.849026E-5,4.3570827E-4,9.8719414E-5,3.5662364E-5,8.6497806E-4,3.6666368E-4,3.5887162E-4,1.7677376E-5,0E0,0E0,1.5046191E-4,1.5862878E-4,0E0,4.606383E-4,1.8833831E-4,0E0,0E0,1.1702847E-4,1.5641822E-4,2.049649E-4,1.6326139E-4,1.5553652E-4,9.4463656E-5,4.90282E-4,1.5212478E-4,3.3736294E-5,6.4654305E-6,3.902911E-5,2.4512636E-5,9.687699E-5,9.628426E-5,1.5607181E-4,5.059228E-4,4.7282288E-6,1.8506474E-4,0E0,3.9333794E-5,3.7323363E-4,4.8002697E-4,3.3091148E-4,1.0769854E-4,0E0,0E0,0E0,0E0,0E0,0E0,0E0,0E0,0E0,0E0,0E0,0E0,0E0,0E0,0E0,0E0,0E0,0E0,0E0,0E0,0E0,0E0,0E0,0E0,0E0,0E0,0E0,0E0,0E0,0E0],"parents":[2147483647,0,0,1,1,2,2,3,3,4,4,5,5,6,6,7,7,10,10,11,11,13,13,14,14,17,17,18,18,19,19,20,20,21,21,22,22,23,23,24,24,25,25,26,26,27,27,28,28,29,29,30,30,31,31,32,32,33,33,34,34,36,36,37,37,38,38,39,39,40,40],"right_children":[2,4,6,8,10,12,14,16,-1,-1,18,20,-1,22,24,-1,-1,26,28,30,32,34,36,38,40,42,44,46,48,50,52,54,56,58,60,-1,62,64,66,68,70,-1,-1,-1,-1,-1,-1,-1,-1,-1,-1,-1,-1,-1,-1,-1,-1,-1,-1,-1,-1,-1,-1,-1,-1,-1,-1,-1,-1,-1,-1],"split_conditions":[0E0,3E0,-2.8363392E-1,3.2156327E-1,-5.4343885E-1,1.5E1,-2.6210532E-1,7.2789714E-2,-2.3131035E-4,-5.968834E-3,5.0932133E-1,-5.5115074E-2,3.5364944E-3,1.3954636E-1,-7.312915E-2,1.7473234E-3,4.2271413E-4,9E0,6.903582E-1,-4.3534058E-1,5.4675144E-1,5E0,1.5024294E-1,1.1E1,-2.4921654E-1,3.220434E-1,-4.3534058E-1,9E0,8.7698656E-1,7.105095E-2,5.924419E-1,6.8350863E-1,-4.6226314E-1,-2.7766454E-1,1.8165216E-1,1.9620059E-3,1.4E1,-9.164691E-2,5.438783E-1,5.6962395E-1,-6.367187E-2,-2.576945E-4,1.407437E-3,-1.4689473E-3,-2.2749763E-4,-2.4560576E-3,-5.3087476E-4,-1.8324627E-4,1.2272977E-3,-4.5000913E-4,9.547069E-4,1.9481255E-3,-2.0560106E-4,2.50649E-4,-1.134897E-3,7.654466E-5,-4.413818E-3,-4.2781627E-4,2.3404228E-4,-8.56253E-4,-4.110961E-3,2.042547E-4,-8.203617E-4,-3.6182373E-3,-7.69734E-4,-1.1217964E-3,2.0850382E-3,7.933609E-5,4.66168E-3,8.330099E-4,6.941259E-7],"split_indices":[26,3,9,11,0,3,0,6,0,0,6,11,0,22,17,0,0,3,6,0,12,3,22,3,9,6,0,3,6,19,6,6,0,0,18,0,10,0,6,6,11,0,0,0,0,0,0,0,0,0,0,0,0,0,0,0,0,0,0,0,0,0,0,0,0,0,0,0,0,0,0],"split_type":[0,0,0,0,0,0,0,0,0,0,0,0,0,0,0,0,0,0,0,0,0,0,0,0,0,0,0,0,0,0,0,0,0,0,0,0,0,0,0,0,0,0,0,0,0,0,0,0,0,0,0,0,0,0,0,0,0,0,0,0,0,0,0,0,0,0,0,0,0,0,0],"sum_hessian":[2.4371E4,2.7E1,2.4344E4,8E0,1.9E1,1.36E2,2.4208E4,7E0,1E0,2E0,1.7E1,1.34E2,2E0,2.3E1,2.4185E4,5E0,2E0,8E0,9E0,3E1,1.04E2,1E1,1.3E1,3.6E1,2.4149E4,6E0,2E0,6E0,3E0,1.7E1,1.3E1,9.3E1,1.1E1,2E0,8E0,1E0,1.2E1,2.1E1,1.5E1,6E0,2.4143E4,1E0,5E0,1E0,1E0,4E0,2E0,2E0,1E0,1.1E1,6E0,1.1E1,2E0,8.6E1,7E0,9E0,2E0,1E0,1E0,3E0,5E0,7E0,5E0,5E0,1.6E1,7E0,8E0,5E0,1E0,1.3E1,2.413E4],"tree_param":{"num_deleted":"0","num_feature":"29","num_nodes":"71","size_leaf_vector":"1"}},{"base_weights":[2.8282636E-7,-2.2598695E-6,1.2371971E-3,5.5747682E-6,-4.78099E-4,7.7457965E-4,3.5858175E-3,1.1833391E-6,1.752612E-3,-1.7389769E-2,-3.4745332E-4,3.2784059E-3,-3.648602E-5,5.6850595E-6,-4.2929654E-3,2.1958135E-3,-5.001162E-3,-7.2682626E-3,-5.5713404E-4,-1.9488251E-4,-8.711007E-3,6.9997166E-3,5.427861E-4,-2.9754397E-3,1.8018802E-3,-9.507624E-6,5.758065E-4,7.483234E-4,-7.7037127E-3,2.874395E-3,-2.3197993E-3,2.0028595E-3,-3.3357046E-3,-6.7807996E-4,1.886198E-3,-1.5731612E-2,4.8734993E-4,5.807592E-4,2.9190993E-3,-7.3309825E-4,1.3185157E-3,-3.268135E-3,-1.6317164E-3,3.5635403E-3,-1.5301687E-3,-1.5328006E-6,-1.0231603E-3,3.804176E-4,-1.3325423E-4,6.0773105E-4,-1.0000374E-3,-6.502371E-4,-3.0765284E-3,1.3753645E-3,8.8333036E-5,-9.046374E-4,3.8247168E-4,-9.339953E-5,-1.9067827E-3,2.2127359E-4,2.2990645E-3,-1.8111407E-4,-6.171903E-3,1.1126496E-3,-5.468264E-4,8.362785E-4,-4.708365E-4,8.049778E-4,-6.5101264E-4,1.3908704E-3,8.290972E-5,3.3103305E-4,-1.5294135E-3],"categories":[],"categories_nodes":[],"categories_segments":[],"categories_sizes":[],"default_left":[0,0,0,0,0,0,0,0,0,0,0,0,0,0,0,0,0,0,0,0,0,0,0,0,0,0,0,0,0,0,0,0,0,0,0,0,0,0,0,0,0,0,0,0,0,0,0,0,0,0,0,0,0,0,0,0,0,0,0,0,0,0,0,0,0,0,0,0,0,0,0,0,0],"id":20,"left_children":[1,3,5,7,9,11,-1,13,15,17,19,21,23,25,27,29,31,-1,-1,33,35,37,39,41,43,45,47,49,51,53,55,-1,-1,57,59,61,63,-1,-1,-1,65,-1,67,69,71,-1,-1,-1,-1,-1,-1,-1,-1,-1,-1,-1,-1,-1,-1,-1,-1,-1,-1,-1,-1,-1,-1,-1,-1,-1,-1,-1,-1],"loss_changes":[7.665509E-5,9.0679474E-5,2.3860112E-4,1.8358864E-4,8.64476E-4,9.962723E-5,0E0,4.6147604E-4,1.9057856E-4,2.7363293E-4,4.9850775E-4,1.1836174E-4,2.1067058E-4,2.0656043E-4,4.356289E-4,1.8132816E-4,3.599942E-4,0E0,0E0,3.8943006E-4,4.5971305E-4,5.0300558E-5,2.1755408E-5,1.4182535E-4,1.4633131E-4,3.4745812E-4,4.3763185E-4,6.4109656E-5,1.8964912E-4,2.1925574E-4,2.3849923E-5,0E0,0E0,6.5187784E-4,4.787738E-4,2.8054044E-4,3.6528127E-5,0E0,0E0,0E0,3.4073608E-5,0E0,3.834286E-5,5.5136843E-5,9.019302E-5,0E0,0E0,0E0,0E0,0E0,0E0,0E0,0E0,0E0,0E0,0E0,0E0,0E0,0E0,0E0,0E0,0E0,0E0,0E0,0E0,0E0,0E0,0E0,0E0,0E0,0E0,0E0,0E0],"parents":[2147483647,0,0,1,1,2,2,3,3,4,4,5,5,7,7,8,8,9,9,10,10,11,11,12,12,13,13,14,14,15,15,16,16,19,19,20,20,21,21,22,22,23,23,24,24,25,25,26,26,27,27,28,28,29,29,30,30,33,33,34,34,35,35,36,36,40,40,42,42,43,43,44,44],"right_children":[2,4,6,8,10,12,-1,14,16,18,20,22,24,26,28,30,32,-1,-1,34,36,38,40,42,44,46,48,50,52,54,56,-1,-1,58,60,62,64,-1,-1,-1,66,-1,68,70,72,-1,-1,-1,-1,-1,-1,-1,-1,-1,-1,-1,-1,-1,-1,-1,-1,-1,-1,-1,-1,-1,-1,-1,-1,-1,-1,-1,-1],"split_conditions":[4.48807E-1,3.1816363E-1,7.9071033E-1,3.096162E-1,3.1863067E-1,1.4008754E-1,3.5858175E-3,3.0593923E-1,6.106618E-1,3.6107492E-1,2.3E1,2E0,1.8452983E-1,3.387211E-1,1.5084437E-1,2.932293E-1,1.9842608E-1,-7.2682626E-3,-5.5713404E-4,1.4E1,2.5E1,4.5791036E-1,3E0,4.3289965E-1,4.7075003E-1,3.3024004E-1,2.5765726E-1,1.4E1,2.6343215E-1,3.7006924E-1,7E0,2.0028595E-3,-3.3357046E-3,1.2E1,4.1785908E-1,1.20467074E-1,8.5641995E-2,5.807592E-4,2.9190993E-3,-7.3309825E-4,7E0,-3.268135E-3,1.7396574E-1,8E0,4.9388915E-1,-1.5328006E-6,-1.0231603E-3,3.804176E-4,-1.3325423E-4,6.0773105E-4,-1.0000374E-3,-6.502371E-4,-3.0765284E-3,1.3753645E-3,8.8333036E-5,-9.046374E-4,3.8247168E-4,-9.339953E-5,-1.9067827E-3,2.2127359E-4,2.2990645E-3,-1.8111407E-4,-6.171903E-3,1.1126496E-3,-5.468264E-4,8.362785E-4,-4.708365E-4,8.049778E-4,-6.5101264E-4,1.3908704E-3,8.290972E-5,3.3103305E-4,-1.5294135E-3],"split_indices":[11,11,19,17,17,12,0,17,6,0,3,3,6,27,12,12,0,0,0,3,3,11,3,0,11,9,19,3,19,19,3,0,0,3,0,12,0,0,0,0,3,0,12,3,6,0,0,0,0,0,0,0,0,0,0,0,0,0,0,0,0,0,0,0,0,0,0,0,0,0,0,0,0],"split_type":[0,0,0,0,0,0,0,0,0,0,0,0,0,0,0,0,0,0,0,0,0,0,0,0,0,0,0,0,0,0,0,0,0,0,0,0,0,0,0,0,0,0,0,0,0,0,0,0,0,0,0,0,0,0,0,0,0,0,0,0,0,0,0,0,0,0,0,0,0,0,0,0,0],"sum_hessian":[2.4371E4,2.4322E4,4.9E1,2.3929E4,3.93E2,4.8E1,1E0,2.387E4,5.9E1,2E0,3.91E2,1.1E1,3.7E1,2.3846E4,2.4E1,5.6E1,3E0,1E0,1E0,3.85E2,6E0,4E0,7E0,1.4E1,2.3E1,2.3228E4,6.18E2,1E1,1.4E1,4.9E1,7E0,1E0,2E0,3.13E2,7.2E1,3E0,3E0,2E0,2E0,1E0,6E0,1E0,1.3E1,1.5E1,8E0,2.3199E4,2.9E1,3.68E2,2.5E2,8E0,2E0,5E0,9E0,2.9E1,2E1,6E0,1E0,2.95E2,1.8E1,6.1E1,1.1E1,1E0,2E0,1E0,2E0,4E0,2E0,1E0,1.2E1,1.1E1,4E0,5E0,3E0],"tree_param":{"num_deleted":"0","num_feature":"29","num_nodes":"73","size_leaf_vector":"1"}},{"base_weights":[-3.9700484E-7,-7.006953E-4,4.114162E-6,-1.18155076E-4,-3.7484798E-3,5.0861173E-4,-3.5414482E-6,6.3636415E-3,-3.182251E-4,-6.7345533E-3,-1.647904E-3,2.5433736E-4,9.433636E-3,-2.8181449E-3,6.998069E-6,3.4516368E-3,2.443655E-4,-5.5477367E-4,4.623483E-3,1.4316309E-5,-8.436087E-3,-4.4280943E-3,3.7237622E-3,4.5963813E-4,-6.170435E-3,1.736061E-2,1.2555519E-3,-3.7224556E-3,6.803309E-3,1.6919498E-3,2.1635171E-6,9.3213894E-5,-2.5017431E-3,1.6929243E-3,5.168572E-4,-1.2872009E-2,-3.2001322E-3,-1.8040468E-3,-2.57075E-3,-8.887817E-5,1.6956907E-3,-1.4072066E-4,2.0283717E-3,-1.3951001E-3,-1.8439628E-2,6.3380203E-3,3.4441688E-4,3.3635895E-3,-2.9781235E-3,-3.0604356E-3,-1.5866736E-2,3.198041E-3,3.5238229E-3,3.925684E-3,-2.8490813E-3,-9.048024E-3,5.219115E-6,-1.1240449E-4,8.380997E-4,3.0542153E-4,-1.0712327E-3,-4.642152E-3,-7.5997674E-4,-1.5857402E-3,-1.4325983E-5,-1.3033381E-3,5.467444E-4,-2.8251737E-4,2.4252219E-4,1.4249037E-4,-3.1885388E-4,4.7772264E-4,4.460131E-3,2.2731467E-4,-1.7859911E-3,-8.156362E-3,-1.414713E-4,2.581282E-4,-1.7471899E-3,-4.0406198E-5,-1.4841527E-3,-5.0359045E-4,-6.010968E-3,1.1441488E-3,1.7865259E-5,2.6542237E-3,4.4878383E-4,-1.2527873E-4,-4.288272E-3,-3.6963596E-4,-6.4991475E-3,2.867773E-6,-3.4773874E-4],"categories":[],"categories_nodes":[],"categories_segments":[],"categories_sizes":[],"default_left":[0,0,0,0,0,0,0,0,0,0,0,0,0,0,0,0,0,0,0,0,0,0,0,0,0,0,0,0,0,0,0,0,0,0,0,0,0,0,0,0,0,0,0,0,0,0,0,0,0,0,0,0,0,0,0,0,0,0,0,0,0,0,0,0,0,0,0,0,0,0,0,0,0,0,0,0,0,0,0,0,0,0,0,0,0,0,0,0,0,0,0,0,0],"id":21,"left_children":[1,3,5,7,9,11,13,15,17,19,21,23,25,27,29,-1,-1,31,33,-1,35,37,39,41,43,45,47,49,51,53,55,57,59,-1,-1,61,63,65,-1,67,-1,69,71,73,75,-1,-1,-1,77,79,81,83,-1,85,87,89,91,-1,-1,-1,-1,-1,-1,-1,-1,-1,-1,-1,-1,-1,-1,-1,-1,-1,-1,-1,-1,-1,-1,-1,-1,-1,-1,-1,-1,-1,-1,-1,-1,-1,-1,-1,-1],"loss_changes":[7.699799E-5,2.7652842E-4,9.35336E-5,1.7320442E-4,1.4571392E-4,8.191253E-4,7.076974E-4,1.0475775E-4,1.5336003E-4,1.1580525E-4,2.5543725E-4,4.6844693E-4,6.264776E-4,7.996949E-4,1.9361013E-4,0E0,0E0,1.5667308E-4,8.022616E-6,0E0,1.4461816E-4,1.0407086E-4,4.4619337E-5,3.2332382E-4,6.187594E-4,2.8103776E-4,2.8630393E-4,6.107008E-4,1.0499553E-4,7.009395E-4,6.554683E-4,1.1981847E-4,1.20282E-4,0E0,0E0,6.839965E-5,3.262167E-5,8.162073E-5,0E0,3.0570366E-6,0E0,1.4187262E-4,5.080607E-4,9.282766E-5,4.5874575E-4,0E0,0E0,0E0,5.9630664E-5,4.3542357E-4,2.0301342E-4,1.1368749E-5,0E0,5.368561E-4,6.3409173E-4,7.621385E-4,1.1974684E-4,0E0,0E0,0E0,0E0,0E0,0E0,0E0,0E0,0E0,0E0,0E0,0E0,0E0,0E0,0E0,0E0,0E0,0E0,0E0,0E0,0E0,0E0,0E0,0E0,0E0,0E0,0E0,0E0,0E0,0E0,0E0,0E0,0E0,0E0,0E0,0E0],"parents":[2147483647,0,0,1,1,2,2,3,3,4,4,5,5,6,6,7,7,8,8,9,9,10,10,11,11,12,12,13,13,14,14,17,17,18,18,20,20,21,21,22,22,23,23,24,24,25,25,26,26,27,27,28,28,29,29,30,30,31,31,32,32,35,35,36,36,37,37,39,39,41,41,42,42,43,43,44,44,48,48,49,49,50,50,51,51,53,53,54,54,55,55,56,56],"right_children":[2,4,6,8,10,12,14,16,18,20,22,24,26,28,30,-1,-1,32,34,-1,36,38,40,42,44,46,48,50,52,54,56,58,60,-1,-1,62,64,66,-1,68,-1,70,72,74,76,-1,-1,-1,78,80,82,84,-1,86,88,90,92,-1,-1,-1,-1,-1,-1,-1,-1,-1,-1,-1,-1,-1,-1,-1,-1,-1,-1,-1,-1,-1,-1,-1,-1,-1,-1,-1,-1,-1,-1,-1,-1,-1,-1,-1,-1],"split_conditions":[-1.0368065E-3,-1.0634815E-2,-6.4802274E-2,1.0557301E-1,2.012464E-1,-6.945546E-2,-3.1617288E-2,4.4716454E-1,2.1E1,6E0,5.734163E-1,-7.471622E-2,2.3945767E-1,1.8E1,-3.5132847E-3,3.4516368E-3,2.443655E-4,1.2285426E-1,-2.0504523E-2,1.4316309E-5,9E0,3.5738048E-1,-9.632191E-2,9E0,1.4E1,1.3643286E-1,3E0,3.107353E-1,2.9730493E-1,1.3E1,0E0,5.255856E-2,-5.4343885E-1,1.6929243E-3,5.168572E-4,2.3059169E-2,-7.1843034E-3,2.7281412E-1,-2.57075E-3,-2.2692646E-1,1.6956907E-3,5E0,2.6946482E-1,3.0334365E-1,-7.303476E-2,6.3380203E-3,3.4441688E-4,3.3635895E-3,8.030221E-2,1.6513407E-1,4E0,2.3E1,3.5238229E-3,1.3304096E-1,2.6461905E-1,1.6148257E-1,2.1E1,-1.1240449E-4,8.380997E-4,3.0542153E-4,-1.0712327E-3,-4.642152E-3,-7.5997674E-4,-1.5857402E-3,-1.4325983E-5,-1.3033381E-3,5.467444E-4,-2.8251737E-4,2.4252219E-4,1.4249037E-4,-3.1885388E-4,4.7772264E-4,4.460131E-3,2.2731467E-4,-1.7859911E-3,-8.156362E-3,-1.414713E-4,2.581282E-4,-1.7471899E-3,-4.0406198E-5,-1.4841527E-3,-5.0359045E-4,-6.010968E-3,1.1441488E-3,1.7865259E-5,2.6542237E-3,4.4878383E-4,-1.2527873E-4,-4.288272E-3,-3.6963596E-4,-6.4991475E-3,2.867773E-6,-3.4773874E-4],"split_indices":[17,17,9,12,12,27,9,6,3,3,6,27,18,10,9,0,0,0,11,0,3,12,0,3,3,11,3,11,12,3,9,0,19,0,0,0,19,12,0,0,0,3,11,12,0,0,0,0,11,19,3,3,0,11,11,12,3,0,0,0,0,0,0,0,0,0,0,0,0,0,0,0,0,0,0,0,0,0,0,0,0,0,0,0,0,0,0,0,0,0,0,0,0],"split_type":[0,0,0,0,0,0,0,0,0,0,0,0,0,0,0,0,0,0,0,0,0,0,0,0,0,0,0,0,0,0,0,0,0,0,0,0,0,0,0,0,0,0,0,0,0,0,0,0,0,0,0,0,0,0,0,0,0,0,0,0,0,0,0,0,0,0,0,0,0,0,0,0,0,0,0,0,0,0,0,0,0,0,0,0,0,0,0,0,0,0,0,0,0],"sum_hessian":[2.4371E4,1.55E2,2.4216E4,1.31E2,2.4E1,3.61E2,2.3855E4,3E0,1.28E2,9E0,1.5E1,3.52E2,9E0,8.8E1,2.3767E4,1E0,2E0,1.23E2,5E0,2E0,7E0,1E1,5E0,3.42E2,1E1,4E0,5E0,8.1E1,7E0,6.7E1,2.37E4,9.3E1,3E1,3E0,2E0,3E0,4E0,7E0,3E0,2E0,3E0,2.48E2,9.4E1,8E0,2E0,3E0,1E0,1E0,4E0,7.8E1,3E0,5E0,2E0,4.5E1,2.2E1,7E0,2.3693E4,8E1,1.3E1,7E0,2.3E1,2E0,1E0,2E0,2E0,4E0,3E0,1E0,1E0,1.49E2,9.9E1,9.2E1,2E0,6E0,2E0,1E0,1E0,2E0,2E0,3.1E1,4.7E1,1E0,2E0,4E0,1E0,1.4E1,3.1E1,1.9E1,3E0,5E0,2E0,2.3606E4,8.7E1],"tree_param":{"num_deleted":"0","num_feature":"29","num_nodes":"93","size_leaf_vector":"1"}},{"base_weights":[-7.3772605E-7,9.552516E-6,-2.9335005E-4,-7.157018E-6,5.485395E-4,-1.5182749E-3,-4.8295085E-5,-1.8398797E-6,-4.859078E-3,8.216532E-3,2.558362E-4,-6.508389E-4,-4.6193497E-3,-2.9375125E-4,1.1709381E-3,-3.099545E-3,3.4644906E-6,-1.5645312E-2,-2.0595428E-3,1.16679445E-2,4.0075806E-4,-1.7629114E-3,5.190184E-4,1.0238122E-3,-3.6828746E-3,-7.274226E-3,-1.4795251E-3,-1.0642757E-3,1.8540512E-4,6.65575E-3,2.268107E-4,6.2501436E-4,-4.405428E-3,3.1549574E-3,-2.0799164E-6,-1.02497395E-2,-2.4737427E-3,-4.0234835E-3,3.5208897E-3,1.7568933E-2,6.3155945E-3,2.199387E-3,-1.3819695E-3,-7.656644E-3,-8.957651E-4,2.804801E-3,2.8534047E-4,2.1057045E-3,-2.8267992E-3,-4.753376E-3,6.872358E-3,-7.075462E-4,-1.0194758E-2,2.2181831E-3,-2.6414832E-3,7.735625E-5,-2.524479E-3,-3.1855138E-4,1.4263716E-3,9.707915E-3,-2.6110292E-3,-1.1426349E-3,3.9717057E-3,-1.0194108E-3,7.6752383E-4,-2.8157924E-4,-2.0392174E-3,2.9396468E-5,2.848953E-3,-3.99939E-3,7.962713E-8,2.945304E-4,-1.9260413E-3,-1.6595426E-3,5.653331E-4,2.5007897E-3,-2.9119186E-4,2.6447985E-3,